tree
version=v3
num_class=1
num_tree_per_iteration=1
label_index=0
max_feature_idx=146
objective=binary sigmoid:1
feature_names=n_activate_utilnow d_st_ctime d_st_titlelen d_dy_histpv d_dy_recvalidshow d_dy_recread d_dy_recclickrate d_dy_finishrate n_browse_price u_dy_rt_poscnts u_dy_rt_videoreadratio d_st_playtime d_dy_recreadtime d_dy_recavgreadtime d_dy_recfinishrate_7d d_dy_recsimvalidshow_7d d_dy_recsimread_7d d_dy_recreadtime_7d d_dy_recavgreadtime_7d plateform province city_level is_rest_day is_daytime d_st_contenttype d_st_covershowtype d_st_life d_dy_isexpired position context d_st_tag0 d_st_tag1 d_st_tag2 d_st_tag3 d_st_tag4 d_st_tag5 d_st_tag6 d_st_tag7 d_st_tag8 d_st_tag9 d_st_tag10 d_st_tag11 d_st_tag12 d_st_tag13 d_st_tag14 d_st_tag15 d_st_tag16 d_st_tag17 d_st_tag18 d_st_tag19 d_st_tag20 d_st_tag21 u_dy_rt_notclickedtag0 u_dy_rt_notclickedtag1 u_dy_rt_notclickedtag2 u_dy_rt_notclickedtag3 u_dy_rt_notclickedtag4 u_dy_rt_notclickedtag5 u_dy_rt_notclickedtag6 u_dy_rt_notclickedtag7 u_dy_rt_notclickedtag8 u_dy_rt_notclickedtag9 u_dy_rt_notclickedtag10 u_dy_rt_notclickedtag11 u_dy_rt_notclickedtag12 u_dy_rt_notclickedtag13 u_dy_rt_notclickedtag14 u_dy_rt_notclickedtag15 u_dy_rt_notclickedtag16 u_dy_rt_notclickedtag17 u_dy_rt_notclickedtag18 u_dy_rt_notclickedtag19 u_dy_rt_notclickedtag20 u_dy_rt_notclickedtag21 u_dy_rt_readtag0 u_dy_rt_readtag1 u_dy_rt_readtag2 u_dy_rt_readtag3 u_dy_rt_readtag4 u_dy_rt_readtag5 u_dy_rt_readtag6 u_dy_rt_readtag7 u_dy_rt_readtag8 u_dy_rt_readtag9 u_dy_rt_readtag10 u_dy_rt_readtag11 u_dy_rt_readtag12 u_dy_rt_readtag13 u_dy_rt_readtag14 u_dy_rt_readtag15 u_dy_rt_readtag16 u_dy_rt_readtag17 u_dy_rt_readtag18 u_dy_rt_readtag19 u_dy_rt_readtag20 u_dy_rt_readtag21 u_dy_rt_poscate0 u_dy_rt_poscate1 u_dy_rt_poscate2 u_dy_rt_poscate3 u_dy_rt_poscate4 u_dy_rt_poscate5 u_dy_rt_poscate6 s_long_labels0 s_long_labels1 s_long_labels2 s_long_labels3 s_long_labels4 s_long_labels5 s_long_labels6 s_long_labels7 s_long_labels8 s_long_labels9 s_long_labels10 s_long_labels11 s_long_labels12 s_long_labels13 s_long_labels14 s_long_labels15 s_long_labels16 s_long_labels17 s_long_labels18 s_long_labels19 s_long_labels20 s_long_labels21 s_short_labels0 s_short_labels1 s_short_labels2 s_short_labels3 s_short_labels4 s_short_labels5 s_short_labels6 s_short_labels7 s_short_labels8 s_short_labels9 s_short_labels10 s_short_labels11 s_short_labels12 s_short_labels13 s_short_labels14 s_short_labels15 s_short_labels16 s_short_labels17 s_short_labels18 s_short_labels19 s_short_labels20 s_short_labels21
feature_infos=[1:60] [86400:7776000] [5:50] [1:705344] [100:203111] [10:36778] [0.01:0.40000000000000002] [0.01:1] [1145:6270000] [0:30] [0:13] [30:300] [0:2727874] [0:inf] [0:inf] [2:598684] [0:111191] [0:8493908] [0:inf] 1:0 44:11:33:53:32:61:51:37:41:45:50:13:52:42:43:34:35:31:14:65:36:21:62:15:12:46:22:23:64:63:54:-1 2:3:1:-1 none 1:0 1:2 1:0:2 30:365:180:90:7 1:0 1:0:2:3:5:4:6:7:-1 1:3:6:5:4:9 1:0 none 1:0 none 1:0 1:0 1:0 1:0 1:0 1:0 1:0 1:0 1:0 1:0 1:0 1:0 1:0 1:0 1:0 1:0 1:0 none 1:0 none 1:0 1:0 1:0 1:0 1:0 1:0 1:0 1:0 1:0 1:0 1:0 1:0 1:0 1:0 1:0 1:0 1:0 1:0 1:0 none 1:0 none 1:0 1:0 1:0 1:0 1:0 1:0 1:0 1:0 1:0 1:0 1:0 1:0 1:0 1:0 1:0 1:0 1:0 1:0 1:0 none none 1:0 1:0 1:0 1:0 1:0 none 1:0 none 1:0 1:0 1:0 1:0 1:0 1:0 1:0 1:0 1:0 1:0 1:0 1:0 1:0 1:0 1:0 1:0 1:0 1:0 1:0 none 1:0 none 1:0 1:0 1:0 1:0 1:0 1:0 1:0 1:0 1:0 1:0 1:0 1:0 1:0 1:0 1:0 1:0 1:0 1:0 1:0 none
tree_sizes=12859 13014 13017 12861 13238 13400 13155 13267 13409 13547 13636 13542 13476 13540 13468 13576 13502 13016 13458 13606 13632 13522 13112 13640 13474 13617 13699 13683 13466 13574 13520 13452 13517 13748 13624 13263 13580 13296 13628 13734 13245 13245 13547 13509 13758 13557 10478 13639 10228 13539 9115 13547 10853 13552 13418 13713 13730 13755 13365 10714 13067 13483 13631 13746 13608 13633 9933 11327 13439 10361 13167 13498 13625 13669 13621 7783 8063 13575 7296 13656 13352 13204 8014 13581 9797 13636 13483 7089 9016 7441 12621 13144 12430 8397 13512 13104 9590 7910 9362 11431

Tree=0
num_leaves=128
num_cat=72
split_feature=9 6 6 9 6 6 6 6 9 9 9 28 123 24 10 6 145 24 145 24 10 123 24 123 122 9 24 6 63 127 24 24 24 122 56 24 145 123 6 5 56 145 24 123 10 24 123 10 24 123 145 6 9 6 145 135 3 15 139 6 63 9 144 20 18 9 9 8 93 3 6 8 10 38 20 50 20 111 10 24 9 64 50 3 15 9 72 10 6 123 8 145 20 142 60 127 142 111 15 105 6 5 127 123 139 13 20 9 24 38 6 145 6 23 139 123 121 44 8 10 63 2 6 20 60 69 6
split_gain=67037.1 25331.1 13215.9 7304.63 6386.59 6091.31 4488.3 4026.37 3075.2 2903.97 1933.63 1841.04 1785.88 2183.78 1479.44 1474.04 1417.57 1531.83 1349.46 2467.07 2691.48 1333.41 1280.86 2952.8 1261.67 1211.6 1144.64 1105.49 1041.49 1006.42 990.218 947.287 931.001 838.169 804.352 900.427 1094.18 688.926 615.674 575.349 551.099 543.225 902.887 969.113 535.475 797.317 528.782 525.818 507.345 499.685 487.282 463.35 456.761 450.154 436.741 425.724 384.464 408.624 379.338 365.736 363.628 360.807 342.39 333.483 330.191 321.264 306.303 301.8 398.523 299.806 299.379 298.078 292.825 286.324 283.39 280.296 265.333 258.577 256.709 251.944 247.382 242.274 232.416 228.857 373.75 227.155 225.582 221.975 221.783 221.677 217.082 243.96 206.416 204.97 197.256 188.573 188.407 185.898 183.098 182.083 179.956 178.281 177.845 175.781 174.095 259.013 204.179 170.983 168.174 167.403 165.741 165.667 162.241 159.371 159.057 153.305 150.044 149.959 148.637 146.62 143.238 140.914 138.613 138.206 136.839 183.746 136.67
threshold=9.5000000000000018 0.13500000000000004 0.115 15.500000000000002 0.065000000000000016 0.18500000000000003 0.17500000000000002 0.055000000000000007 3.5000000000000004 17.500000000000004 3.5000000000000004 0 1 2 4.5000000000000009 0.16500000000000004 3 4 5 6 1.0000000180025095e-35 7 8 9 10 4.5000000000000009 11 0.03500000000000001 12 13 14 15 16 17 18 19 20 21 0.24500000000000002 208.50000000000003 22 23 24 25 2.5000000000000004 26 27 1.5000000000000002 28 29 30 0.10500000000000002 5.5000000000000009 0.21500000000000002 31 32 120.50000000000001 5643.0000000000009 33 0.24500000000000002 34 19.500000000000004 35 36 69.554707807836735 6.5000000000000009 12.500000000000002 48826.000000000007 37 22577.500000000004 0.095000000000000015 63249.500000000007 2.5000000000000004 38 39 40 41 42 1.0000000180025095e-35 43 1.5000000000000002 44 45 4705.5000000000009 4825.5000000000009 12.500000000000002 46 1.0000000180025095e-35 0.16500000000000004 47 166238.50000000003 48 49 50 51 52 53 54 19271.000000000004 55 0.115 381.50000000000006 56 57 58 25.248252200932161 59 6.5000000000000009 60 61 0.13500000000000004 62 0.21500000000000002 63 64 65 66 67 166238.50000000003 6.5000000000000009 68 16.500000000000004 0.18500000000000003 69 70 71 0.23500000000000001
decision_type=2 10 8 2 10 10 8 10 2 2 2 9 1 1 2 10 1 1 1 1 2 1 1 1 1 2 1 10 1 1 1 1 1 1 1 1 1 1 10 10 1 1 1 1 2 1 1 2 1 1 1 10 2 8 1 1 2 10 1 10 1 2 1 9 10 2 2 10 1 2 10 10 2 1 9 1 9 1 2 1 2 1 1 2 10 2 1 2 10 1 8 1 9 1 1 1 1 1 10 1 10 10 1 1 1 8 9 2 1 1 10 1 10 1 1 1 1 1 8 2 1 2 10 9 1 1 10
left_child=1 4 7 6 27 10 18 56 34 16 28 51 48 107 15 41 30 70 26 66 49 -22 52 90 -15 59 109 80 31 74 117 104 58 39 35 92 55 95 -27 -25 82 79 114 -44 67 -46 93 -31 101 -21 69 83 -12 85 -35 -37 -2 87 88 77 89 102 -32 -38 -50 120 110 103 -69 -33 98 -70 -48 -62 -19 -64 86 108 -29 -5 -1 -80 -30 84 -10 -8 -42 -58 -16 -36 91 -24 -6 -28 -75 -34 111 -52 -18 -47 -94 -13 -39 -11 105 -3 -106 -14 -7 -4 -20 -60 -79 -92 -43 -81 -91 -9 -85 -101 -53 -72 -98 -82 -61 -126 -17
right_child=2 5 3 14 8 25 53 9 11 44 22 12 13 24 32 126 17 29 19 20 21 -23 23 33 -26 38 46 78 40 47 62 50 37 54 60 36 63 61 -40 -41 76 42 43 -45 45 99 72 -49 64 -51 97 65 -54 -55 -56 -57 57 -59 96 124 73 -63 75 -65 -66 -67 -68 68 71 -71 121 -73 -74 94 -76 -77 -78 112 81 115 123 -83 -84 118 -86 -87 -88 -89 -90 116 113 -93 100 -95 -96 -97 122 -99 -100 119 -102 -103 -104 -105 106 -107 -108 -109 -110 -111 -112 -113 -114 -115 -116 -117 -118 -119 -120 -121 -122 -123 -124 -125 125 -127 -128
leaf_value=-1.8941999164688326 -1.8130532003745365 -1.4671830823742389 -1.5603578158093392 -1.4275835882764194 -1.7238308937990379 -1.5316733149814241 -1.4253039739885809 -1.4418858457067272 -1.6474092157077675 -1.3685652001001996 -1.5441892687199235 -1.5346059146905002 -1.6307846149355691 -1.7714174827507965 -1.3757493851732525 -1.3511846389116613 -1.5373336237355368 -1.7553264073748878 -1.5033696246196986 -1.5284027263690023 -1.4185094737947366 -1.5339353276682821 -1.4381359799382816 -1.5462738792876369 -1.6628208934803319 -1.4449146731761271 -1.3182822759604658 -1.7593892794926391 -1.6909037302204575 -1.7101458851177458 -1.5342760208507815 -1.4993236638589629 -1.2575834186367927 -1.5038157839557735 -1.5864960822733518 -1.8238732938491178 -1.7269682209075659 -1.3456033502014784 -1.3537255814509617 -1.6891115396230574 -1.5396064717105116 -1.3613291572148956 -1.3826968475809009 -1.5240252566891126 -1.4783710174806004 -1.3140665044208006 -1.5020841193108245 -1.6097904719327298 -1.5124817071826917 -1.6620461147529282 -1.7603612968137392 -1.6085622786329969 -1.4917886711343697 -1.351191159307352 -1.6001038667106868 -1.6018153708331335 -1.7085790883435288 -1.7544318615374079 -1.5058589667373317 -1.4154146845336899 -1.6803799319629362 -1.3031509332549502 -1.3735277729285198 -1.7989141426310489 -1.6265272417055998 -1.5350577016117581 -1.4273217952138073 -1.4499171649011666 -1.8308907486786725 -1.6744204377189653 -1.5522392525352746 -1.5670992504293677 -1.4147327828664198 -1.6188978518043735 -1.5148896458920997 -1.4565263262751098 -1.5805908635914676 -1.5131572117259013 -1.7462829567304323 -1.3135961610361511 -1.7734693474352909 -1.6212284735703004 -1.5873650702126594 -1.6869511124170307 -1.5681532646283816 -1.3799260094722903 -1.4459591402585059 -1.5735871600447733 -1.2818043906350876 -1.8005669124226802 -1.4698085499133435 -1.5207547906698644 -1.6764704623895352 -1.3895630570673625 -1.5365047327986767 -1.3144112428036765 -1.4116566330167855 -1.6866017364664343 -1.6164151366485695 -1.4343643258333518 -1.6248292119503194 -1.6527471395519817 -1.4148173900377818 -1.4780697769955415 -1.678741815209849 -1.5918184383880751 -1.5853164776277784 -1.5826295189836939 -1.6201456102951575 -1.484507199768339 -1.456551051476328 -1.3809120094187695 -1.4553526658565101 -1.3433716355668801 -1.4167592278672803 -1.3851144775664268 -1.6927328930996417 -1.5555952428885693 -1.5600534779445523 -1.3414012973845262 -1.5559391527414281 -1.4865152057665589 -1.3393979387978039 -1.8473799986419186 -1.6031107537654095 -1.428870107564908 -1.2983044060834026
leaf_weight=643.56289440393448 256.13910479843616 242.03865786641836 351.69096909463406 656.87688821554184 759.49129823595285 944.87478118389845 2338.2034850344062 126.69060120731592 939.0580915287137 196.04056265205145 2528.7644222527742 154.03887458145618 1491.9943126514554 2207.8595157489181 575.84737211465836 2794.1014918461442 1589.1720687076449 76.251127950847149 1116.1146833896637 339.50449575483799 1449.9536201655865 3231.0158345103264 668.18343380838633 342.29693043977022 2075.5349906310439 3678.9440786316991 604.3909442871809 1325.8064664155245 260.04187497496605 946.96592447161674 310.87594223767519 193.67298057675362 1768.3743462190032 619.5931071639061 141.59606270492077 100.27411716431379 1051.3718070164323 726.86769600212574 926.94785372167826 1600.8084895536304 419.99971376359463 841.76498729735613 675.17818316817284 1724.3148510754108 806.63567378371954 642.85709481686354 564.89800903201103 1163.6883295476437 1158.6276359930634 1590.088067561388 534.53989470005035 1345.7926676049829 4861.4219341054559 2556.5575222223997 1965.0300769507885 621.16288167983294 183.85555596649647 378.23998629301786 321.93333826214075 595.67811481654644 511.0022211894393 995.42795558273792 728.73844559490681 1704.6758183464408 325.10166120529175 2346.7421683073044 2836.1666304320097 166.6314587071538 67.351060621440411 197.51528766006231 396.96466720104218 117.68396759033203 1196.8820484504104 900.29525765776634 862.59810470044613 921.2866947054863 877.03697428107262 1508.1569485813379 298.85943158715963 580.1144957318902 440.18475978076458 321.65972455590963 1303.7779961004853 519.32047469168901 1623.9702026546001 2088.4701268002391 663.70603877305984 360.9654760658741 445.86315789073706 184.98751247674227 178.92161913961172 768.43451741337776 1997.4592162817717 1213.1268226057291 429.04091575741768 871.79766241461039 953.351408444345 947.13009269535542 358.89455929398537 342.61950849741697 1019.0679757967591 747.94279204308987 758.77546656131744 581.14999019354582 473.89267652481794 535.96272204816341 1111.8230956345797 1457.7679063305259 278.08971058577299 1685.17900814116 2344.2823437675834 158.29448141902685 716.10267354547977 225.13139831274748 1344.5972605794668 620.11585240066051 426.6114219725132 1371.7108525112271 112.25607747584581 336.07117865234613 840.17800976336002 1830.3725381344557 367.93284601718187 569.64190095663071 106.36878441274166 140.42090023308992 592.37008778750896
leaf_count=5129 1867 1062 1818 2664 4959 4657 9438 529 5540 698 12729 763 8594 15322 2085 9541 7908 513 5236 1664 5770 15986 2769 1729 12513 15455 1897 9067 1629 6085 1539 902 4650 2909 763 740 6896 2448 3185 10004 2098 2946 2484 8388 3615 1995 2644 6498 5524 9576 3660 7501 22334 8730 10813 3427 1179 2571 1517 2355 3156 2998 2625 12221 1861 11633 11496 707 501 1210 2025 615 4725 5096 4104 3960 4662 7199 2011 1798 3058 1827 7035 3236 8501 7635 2794 1906 1263 1329 789 3717 12271 4533 2132 2708 3739 5899 2024 1409 5819 4446 2996 2603 2908 2912 5960 7808 1577 7639 10077 580 3071 754 5331 2294 2679 7036 580 1120 4312 8328 1220 4318 588 571 1760
internal_value=0 2.28813 3.78583 4.067 1.64877 2.93542 3.72406 2.981 1.81447 3.13108 2.6477 2.06784 1.76689 1.52127 4.55914 4.29977 2.87909 2.62704 3.4665 3.28845 2.86177 3.27144 2.87283 2.54415 1.06529 3.63147 3.87568 0.397057 2.24859 2.08825 3.4055 1.91446 4.88005 2.10999 1.36814 1.19724 0.830095 5.13423 3.98763 1.61377 2.65021 4.01902 3.83424 3.41068 3.9577 4.253 4.21624 1.7051 2.519 1.86794 1.38323 2.43701 3.15607 4.40726 2.48305 1.92646 1.20668 1.50747 4.41899 3.24906 1.84611 4.75588 3.87319 0.543104 2.87856 2.64574 3.73642 3.40097 2.6323 2.37594 3.02055 1.62209 3.82585 2.08565 2.94961 4.05456 3.00335 3.10471 0.907824 4.4753 -0.204205 1.43868 2.20744 2.14848 2.28134 4.21431 3.39936 2.06184 4.90573 1.26081 3.61211 3.42998 1.53535 4.59466 2.3302 5.48978 4.14295 1.12114 2.73423 4.7312 1.65752 1.92755 4.44372 3.74878 2.33537 2.72282 2.14527 2.1834 2.73535 3.27722 3.53674 3.60653 3.30779 4.25966 4.29908 4.74779 0.999771 2.79345 1.6093 4.36995 2.36989 3.27097 4.33791 0.104589 3.8397 3.21357 4.83391
internal_weight=0 61208.2 58400.9 43280.4 30792.9 30415.3 25506.5 15120.5 27193.2 13941.3 21519.7 17346.2 9618.87 7233.16 17773.9 9829.43 10684.2 7224.91 18523.3 12907.1 6610.56 4680.97 13758.6 6368.4 4283.39 8895.58 5616.17 3599.72 7761.14 3049.5 3459.3 4236.58 7944.47 4527.73 9847.04 7253.5 3477.48 5121.24 4605.89 1943.11 3524.56 6442.96 4585.86 2399.49 3257.04 2128.18 3579.3 2110.65 2385.71 1929.59 1872.86 7727.32 7390.19 6983.23 2584.62 721.437 1179.2 923.061 2823.22 4289.69 2593.53 2481.07 1960.9 2756.05 1483.73 4532.71 6296.56 1128.86 351.666 391.188 4175.4 185.035 1761.78 1840.34 938.849 1650.03 1960.74 3447.22 1946.33 1857.11 1653.39 620.519 1563.82 3194.6 2563.03 4426.67 1083.71 544.821 1021.71 753.195 1840.67 1436.62 3776.02 1817.52 1329.34 2640.17 1801.51 1481.67 1948.07 1321.55 3016.53 901.982 1485.64 777.191 2363.72 778.001 1585.72 2949.76 1222.96 2036.87 3460.4 480.228 2224.26 404.053 2186.36 1200.23 611.599 1498.4 631.577 678.691 2185.97 2227.34 1321.28 1009.83 842.468 246.79 3386.47
internal_count=581202 334968 246234 172274 185032 149936 108864 73960 159622 66437 111278 98134 56831 44237 63410 37206 53174 37485 83061 59805 32996 21756 68547 33484 27835 38658 23256 25410 42731 17200 15689 24513 26204 25455 61488 46333 23284 15800 18640 11733 18218 25905 19149 10872 13263 8139 13799 12583 12594 11240 11671 41303 35063 25803 13722 4167 7523 5656 10404 20018 15155 8442 8124 19117 7385 23446 26809 5124 1823 2112 20285 1116 7369 10384 4617 6585 9554 16504 12905 6756 12505 3838 8664 17857 14041 17073 4892 3085 3348 4771 8029 6486 23049 6430 7228 7358 7056 9559 9932 4524 18090 5209 5444 3301 12842 3974 8868 16402 6234 9457 15313 2097 10270 1543 8277 4092 4008 7565 3816 2529 11813 10353 4959 7376 3514 1159 11301
cat_boundaries=0 1 2 3 4 5 6 7 8 9 10 11 12 13 14 15 16 17 18 19 20 21 22 23 24 25 26 27 28 29 30 31 32 33 34 35 36 39 40 41 44 45 47 48 49 50 51 52 53 54 57 58 59 60 61 62 63 64 65 66 68 69 70 71 72 73 74 75 76 77 79 80 81
cat_threshold=38 2 2 2 2 2 2 2 2 2 2 2 2 2 2 2 2 2 2 2 2 2 2 2 2 2 2 2 2 2 2 2 2 2 2 2 2158002176 3147313 2 2 2 4198400 1073760280 2 2 2147485696 1075589641 2 2 2 2 2 2 2 8421376 3227535388 3 2 2 2 2 2 2 2 2 2 14733312 5267487 2 2 2 2 2 2 2 2 2 2149623808 3758882844 2 2
shrinkage=1


Tree=1
num_leaves=128
num_cat=63
split_feature=9 29 29 10 5 6 6 6 9 9 6 17 6 3 24 123 145 145 24 24 6 24 145 6 133 29 5 11 123 24 5 45 123 76 24 54 5 15 123 24 111 16 16 15 105 6 15 122 29 6 76 133 7 29 15 122 66 3 117 2 117 6 3 145 34 20 6 9 9 9 133 11 6 97 123 24 20 9 4 11 133 3 17 63 6 20 109 3 6 2 18 139 6 11 60 3 38 2 13 6 145 78 6 11 50 20 109 66 8 20 3 133 20 4 24 123 6 111 9 123 24 8 8 20 6 5 71
split_gain=27311 13398.4 7249.29 6443.95 5746.71 2968.22 2799.89 2644.47 2134.8 1977.29 1919.77 1377.5 1344.35 1299.22 907.107 1660.18 906.072 887.793 894.58 868.844 846.611 825.894 778.289 742.057 725.8 724.712 693.264 688.16 652.318 891.817 752.87 611.379 609.769 593.831 582.535 534.192 499.135 478.728 458.949 527.264 482.834 458.78 424.09 394.858 377.392 365.75 439.215 350.481 343.101 337.39 323.434 314.31 308.963 307.022 301.346 285.876 275.659 301.537 265.141 351.461 262.852 259.057 252.342 251.301 236.991 231.944 216.925 215.735 213.027 208.878 208.077 202.773 199.413 196.566 192.514 191.187 189.883 186.43 180.703 180.628 177.874 176.786 178.471 176.512 174.367 173.288 169.445 164.696 164.653 158.923 158.846 258.214 158.28 157.99 155.59 160.875 155.565 150.76 146.035 145.141 144.203 141.121 137.336 136.711 136.092 135.639 133.786 148.094 131.88 128.634 126.682 125.841 122.919 120.455 119.174 117.101 116.908 115.49 115.139 114.82 133.04 114.452 112.23 109.933 108.243 107.126 105.473
threshold=7.5000000000000009 0 1 2.5000000000000004 1193.5000000000002 0.12500000000000003 0.115 0.065000000000000016 17.500000000000004 13.500000000000002 0.13500000000000004 4332.5000000000009 0.10500000000000002 682.50000000000011 2 3 4 5 6 7 0.19500000000000003 8 9 0.20500000000000004 10 11 12204.500000000002 1.0000000180025095e-35 12 13 4682.0000000000009 14 15 16 17 18 689.00000000000011 9895.0000000000018 19 20 21 566.50000000000011 830.50000000000011 5643.0000000000009 22 0.12500000000000003 6008.0000000000009 23 24 0.085000000000000006 25 26 0.72500000000000009 27 2484.5000000000005 28 29 69657.000000000015 30 26.500000000000004 31 0.15500000000000003 4940.0000000000009 32 33 34 0.13500000000000004 14.500000000000002 19.500000000000004 17.500000000000004 35 1.0000000180025095e-35 0.045000000000000005 36 37 38 39 12.500000000000002 4352.5000000000009 77.500000000000014 40 2849.5000000000005 32600.000000000004 41 0.095000000000000015 42 43 2849.5000000000005 0.13500000000000004 28.500000000000004 24.714745354260369 44 0.085000000000000006 1.0000000180025095e-35 45 191581.50000000003 46 24.500000000000004 50.15144501168124 0.12500000000000003 47 48 0.03500000000000001 30.500000000000004 49 50 51 52 100263.00000000001 53 6520.5000000000009 54 55 15052.000000000002 56 57 0.27500000000000008 58 2.5000000000000004 59 60 15275.500000000002 100263.00000000001 61 0.14500000000000005 191.50000000000003 62
decision_type=2 9 9 2 10 10 10 8 2 2 10 10 10 2 1 1 1 1 1 1 8 1 1 10 1 9 10 10 1 1 10 1 1 1 1 1 10 10 1 1 1 10 8 8 1 8 10 1 9 10 1 1 10 9 10 1 1 2 1 2 1 10 2 1 1 9 10 2 2 2 1 10 10 1 1 1 9 2 8 8 1 2 10 1 10 9 1 2 10 2 10 1 10 10 1 2 1 2 10 10 1 1 10 10 1 9 1 1 8 9 2 1 9 10 1 1 8 1 2 1 1 8 10 9 10 10 1
left_child=1 6 7 5 11 13 25 31 12 20 26 48 49 86 60 80 41 81 67 62 42 53 77 36 50 43 38 87 71 58 47 -2 -20 -24 84 -32 61 63 52 112 -41 75 66 70 -26 46 -11 -31 105 102 -21 124 -6 54 -18 117 57 118 64 -60 96 -8 88 -33 -30 -57 111 -19 -53 -47 -1 109 -29 108 98 -13 -39 -17 93 115 113 82 -15 -58 -10 -54 -4 -27 -14 123 91 -62 -83 -65 -75 -96 -7 -64 -72 -55 104 -82 -5 -44 -51 -3 -73 -108 -28 -12 -81 -9 -40 -16 -104 -43 -22 -23 -38 120 -48 -92 -86 -45 -36 -88 -63
right_child=2 4 3 8 10 14 23 9 34 45 28 16 19 17 15 22 21 18 32 24 116 55 33 -25 44 27 73 72 29 30 35 37 -34 -35 51 -37 56 76 39 40 -42 79 103 89 -46 69 119 -49 -50 100 -52 68 85 99 -56 65 83 -59 59 -61 90 126 97 78 -66 -67 -68 -69 -70 -71 74 106 -74 94 -76 -77 -78 -79 -80 110 101 92 -84 -85 122 -87 125 -89 -90 -91 121 -93 -94 -95 95 -97 -98 -99 -100 -101 -102 -103 114 -105 -106 -107 107 -109 -110 -111 -112 -113 -114 -115 -116 -117 -118 -119 -120 -121 -122 -123 -124 -125 -126 -127 -128
leaf_value=0.11332002587582715 0.0045081479553344813 -0.014383622511521952 0.10264769104556537 -0.020727273549031824 0.070241803237188108 0.2208947577920235 0.19018172160500568 0.20604313496305268 0.15527454523143935 0.24809753868035234 0.12028179611263766 -0.042520933712675901 0.10672154296472479 0.22966742589364553 0.12849702678059838 0.19978483706239536 -0.098521646975880006 0.16185435885217928 0.18810024209135101 0.28011685733077146 0.29210449003681016 -0.050162860752397835 0.23790268652207491 0.26824509996304696 0.3143167177281283 0.13152516993910987 0.17099766395952365 -0.043954388561190223 0.31246311505828023 0.035880760243587814 0.13815731149853439 0.2692509287596942 0.08194068689106021 0.13164548511486227 0.24584108322911821 0.24021692196281946 0.20952863374010533 0.14880955226957113 0.079427344616212758 0.0062795656294631118 0.084295655898619981 0.26020027416992741 0.27705604468907746 0.20562569559522409 0.26412078762403396 0.30194589758053603 0.2830343945949953 0.11910747859615611 0.12064126173206341 0.28824495702992992 0.19049898089666176 0.30887346393892301 0.20858775814321795 0.10366620147165878 0.071271957276684228 0.12367710074612825 0.24184599361158093 0.18022315042710615 0.15025920333576814 0.23633494805362762 0.28840703032399151 0.21256303128940904 0.24031397691537199 0.19972877050653384 0.20816084545991426 0.015989114738172553 0.25255775240614275 0.23101168728496979 0.35468947397905459 0.32490863129242098 0.2653580173235574 0.27093333151926163 0.070281530567515405 0.11617798534093995 0.14564049134753562 0.10611362573376935 0.00918911223579073 0.28780384944357906 0.26605062596000717 0.099451475972082856 0.32550809658619761 0.11376451747331767 0.088914626737273711 0.29428699394215707 0.27898071708700284 0.12245546833270088 -0.047967209400956501 0.23237084154989995 0.20142560324441472 0.23278191212100194 0.18132830352145279 0.1499058543910842 0.24142103234220702 0.098434214180596308 0.14721740550216078 0.26883819902761663 0.28550183652982891 0.19515425222074961 0.13411298434998692 0.19383197678580655 0.15912092998742713 0.26149517871811051 0.075052530357980346 0.24906008908587954 0.1937189070248885 -0.078790123556755048 0.17302400553379599 0.24850353299832151 0.27377961772590581 0.20795004572435605 0.18631471253462006 0.23851402637215491 0.1363103231829107 0.2407707257901727 0.16557148508860114 0.14211267205714723 0.33688774796561355 0.0062471297722042672 0.26149980944780749 0.28864425680446826 0.34256808702878006 0.24446487457363344 0.21339064562594584 0.14809275171111289 0.32010358002864908 0.034664245393517819 0.24246762060280266
leaf_weight=1037.1902638971806 217.96349669247866 533.92323584854603 175.63701398670673 77.274010822176933 454.70815379172564 482.81287191808224 4464.2140001133084 2223.3837595134974 147.38522455841303 2261.9792306646705 390.01401408016682 169.87792533636093 324.84284363687038 163.83722450584173 118.12040120363235 480.57338128983974 111.72488816082478 1729.9535005688667 658.42760889977217 568.5395904481411 4719.0985879153013 828.71865616738796 602.87433336675167 4408.1820312142372 2732.9959991574287 1025.844352260232 282.07479551434517 283.18894121050835 285.58389709889889 898.37299571931362 2185.1443408429623 483.24519485980272 3035.4047016054392 4122.1337188482285 609.77291280031204 670.12580582499504 595.11574227362871 212.22928449511528 670.4546120762825 1229.7374294474721 2235.1447614505887 253.53223469108343 6144.0337897837162 1424.1333693563938 3314.068868175149 9250.341460287571 559.79669832438231 1158.4622712880373 111.44237385690212 219.56078065931797 1380.7177506238222 1781.5377663001418 586.69218501448631 442.7352162450552 1622.1468717455864 253.40015409886837 1221.4699352681637 1008.7962001040578 1647.7813839763403 666.13789218664169 179.0651815533638 3362.321311712265 2133.9953092634678 328.21901851147413 918.39265036582947 873.71359913051128 5506.252851203084 610.16671666502953 2358.1636098176241 6928.4081351310015 304.79046028107405 626.76154170930386 331.90436026453972 812.04434785246849 814.12792512029409 176.40715939551592 188.39809387922287 481.9755342900753 180.03177832812071 407.58063554763794 515.4896726757288 105.68190134316683 200.12108733505011 1352.5994331762195 1585.4447807073593 624.33622544258833 328.05495044589043 192.30386659502983 422.16779747605324 1042.5073070153594 325.58638173341751 542.18543246388435 1199.8729123324156 290.04636354744434 328.52091845870018 162.58719864487648 1634.0511534810066 1131.0353908538818 117.44927418977022 299.16217495501041 711.39605329930782 1037.6121129393578 285.53378652781248 2435.7663049399853 497.26362618803978 908.96235781908035 497.47280350327492 544.4181053340435 223.95218658447266 644.87636280059814 285.5095205232501 2576.7577931880951 1483.8233475983143 500.28499963879585 296.45566263794899 125.56479872018099 665.077547326684 645.740508005023 1502.5684940516949 2289.7936719655991 1139.360609382391 2430.2274839133024 312.25377084314823 852.35484682768583 289.43775305151939 300.7072372585535 1816.6424099653959
leaf_count=5799 1480 3886 955 561 2623 1744 19999 9295 639 7898 1872 1156 1549 617 516 1997 768 7800 2784 1768 13146 6082 2366 14211 7417 5557 1399 2189 891 5594 10947 1812 17153 20529 1876 2680 2669 1106 3831 8326 13332 932 20423 6493 10675 24844 1824 5965 604 641 5585 4381 2623 2461 9444 1392 4880 4629 7542 2605 532 13771 7403 1523 3769 5622 18798 2232 4647 16286 1268 2186 2000 4434 4324 996 1225 1417 726 2217 1310 532 1013 4652 4682 3230 2374 856 1605 4562 1280 2271 4363 1591 1714 631 4926 4434 615 1274 3329 3279 1555 8966 2059 7246 2228 2024 900 2608 1324 9857 7674 1696 1360 639 1494 4402 5590 7243 2652 8327 1099 4339 700 1784 6775
internal_value=0 1.62117 2.51019 2.20874 1.13793 1.8297 2.12313 2.77675 2.60279 2.82438 1.42273 0.423744 2.37773 1.3674 2.12206 1.90299 0.626093 1.49368 1.31511 2.50649 2.62657 0.428688 1.61899 2.32089 2.69702 1.60051 1.08186 1.03345 1.70116 1.56408 1.28883 1.6209 1.00864 1.45203 3.05064 1.6211 2.21687 1.82508 0.944263 0.807604 0.566066 1.33269 2.52684 1.78136 2.86807 3.03842 2.83298 0.827562 -0.421904 1.63703 2.16638 3.23332 1.40527 0.842123 0.599851 0.035246 2.45202 2.2515 1.94842 1.75039 2.42985 2.07835 2.12674 2.12336 2.32901 0.414389 2.39012 1.79887 3.34972 3.11779 1.4635 2.12858 0.176873 1.6359 1.74058 0.331976 0.870958 2.43858 1.77882 1.65589 2.64682 2.13906 1.52275 2.69402 2.60051 1.66917 0.158089 1.47445 1.60243 2.00446 2.26071 1.84292 2.31088 1.52209 1.4305 1.87481 2.70766 2.2467 2.28851 1.38162 1.91017 2.82742 1.0453 2.69108 2.22672 -0.552203 2.34426 2.12464 2.16486 1.78083 1.35234 2.23474 1.19609 2.19326 1.21161 2.21087 2.97636 -0.254581 2.46756 3.03259 3.22954 2.37006 2.68188 1.85638 2.69745 -0.0844849 2.23053
internal_weight=0 55435.5 91740.9 43140.7 28277.8 21960.9 27157.7 48600.2 21179.8 46700.1 20227.6 8050.14 14095.8 8507.86 13453 7859.06 6495.81 7703.47 6033.95 12008.4 24270.4 5077.34 5687.56 19731.9 7996.32 7425.79 9094.08 1833.24 11133.5 8430 4912.11 1900.13 3693.83 4725.01 7084 2855.27 15323.7 1682.17 7284.9 5619.16 3464.88 1418.47 18886.2 5592.55 6047.06 22429.7 6250.93 2056.84 1554.33 2087.48 1949.26 5038.91 1665.74 2475.77 1733.87 2601.57 5680.55 3106.48 3517.9 2313.92 5593.93 9643.18 4012.04 1281.54 1203.98 1127.11 10306.4 2340.12 4139.7 16178.7 2273.56 2703.54 615.093 1809.18 1236.37 346.285 400.627 962.549 798.297 1072.19 2171.51 1669.51 363.958 2574.07 2045.08 1211.03 804.399 1218.15 747.011 3319 3477.06 721.251 1305.55 618.265 1303.15 491.108 2116.86 3265.03 422.24 741.897 1428.22 1553.1 659.263 8579.8 716.824 1442.89 1668.65 1041.89 506.027 1034.89 693.09 4800.14 2154.28 618.405 581.989 379.097 5384.18 1474.46 2097.68 3988.95 1699.16 2755.81 1897.7 2276.49 899.211 628.762 5178.96
internal_count=581202 267251 313951 161762 152073 93797 115178 152189 67965 142726 101628 50445 49941 41607 52190 33110 38709 36494 29969 40436 81979 31445 26309 77176 25445 38002 50717 10602 50911 39993 25186 9463 19937 22895 18024 13627 62965 7983 41639 33163 21658 7264 67339 27400 18092 60747 19617 11559 11736 9505 7353 11604 8476 13947 10212 17498 22420 12888 14807 10147 19080 40545 14991 5652 4660 7014 37950 10032 9028 41130 12006 10918 4189 9078 6207 2152 2331 3414 3840 5112 6801 6525 1630 9532 6420 5853 5113 6413 3154 15394 12410 2803 4895 3114 6779 2345 6670 11837 1883 3735 6029 4589 3476 29389 2700 11132 6438 4252 2299 4480 3541 19152 11505 2212 2915 1571 14640 10484 8259 11719 4476 9607 5781 10832 2576 4158 20546
cat_boundaries=0 1 2 3 4 5 6 7 8 9 10 11 12 13 14 15 16 17 18 19 20 21 22 23 24 25 26 27 28 29 30 31 32 33 34 37 38 39 40 41 44 45 46 48 49 50 51 52 53 54 55 58 59 60 63 64 67 68 69 70 71 72 74 75
cat_threshold=56 56 2 2 2 2 2 2 2 2 2 24 2 2 2 2 2 2 2 2 2 2 2 2 64 2 2 64 2 2 2 2 2 2 2149588992 4104 2 2 2 2 2 6144 1323053 2 2 2 4096 536878631 2 2 2 2 2 2 2 2155917312 2685153300 2 2 2 12621824 2684896306 1 2 14702592 2153794572 3 2 2 2 2 2 2153789440 3671603 2
shrinkage=0.1


Tree=2
num_leaves=128
num_cat=80
split_feature=9 3 9 9 15 123 11 133 63 24 145 133 11 38 10 122 76 24 97 127 50 111 20 28 5 20 20 3 127 11 144 24 121 122 105 131 9 9 9 20 20 142 18 113 144 17 20 3 20 107 15 105 135 28 20 145 3 94 127 38 20 28 139 44 8 20 20 15 139 15 20 10 76 122 10 20 18 140 9 134 11 145 80 49 9 17 70 3 115 122 9 20 145 5 18 15 20 28 71 135 24 3 10 8 1 8 106 24 127 10 1 63 20 8 143 3 128 28 10 121 24 111 17 15 11 61 21
split_gain=16195.6 3440.72 2791.4 1996.5 1628.63 1312.97 3015.65 1716.97 947.461 1120.79 1020.38 818.899 1686.11 828.549 732.587 701.126 511.603 481.394 439.739 437.853 425.789 393.499 375.897 369.518 363.089 344.687 337.121 322.14 314.269 449.439 452.24 421.962 299.207 294.214 290.614 284.691 263.25 257.33 322.436 255.365 255.153 268.577 247.662 240 234.318 227.983 224.743 218.856 212.942 206.731 196.542 190.795 189.72 188.657 183.363 180.678 180.178 178.896 172.003 180.403 169.464 163.17 160.484 235.162 159.332 291.225 150.186 149.602 148.891 152.207 148.75 147.533 147.17 140.905 140.742 278.051 136.251 127.207 122.335 121.689 121.369 234.688 141.339 119.392 118.109 116.689 112.398 145.226 109.73 109.091 108.553 230.951 108.376 147.864 107.355 101.022 98.7207 97.8704 92.551 102.272 90.0392 88.7542 97.1636 82.7681 82.1098 82.0936 81.8702 81.7589 208.167 94.1885 81.2945 79.1556 77.4338 105.134 75.0809 74.6746 74.3747 73.3053 71.7955 68.1791 67.319 66.0447 65.8898 70.4552 63.2523 62.6239 61.2545
threshold=10.500000000000002 237.50000000000003 3.5000000000000004 17.500000000000004 2736.5000000000005 0 1.0000000180025095e-35 1 2 3 4 5 1.0000000180025095e-35 6 4.5000000000000009 7 8 9 10 11 12 13 14 15 57.500000000000007 16 17 345.50000000000006 18 1.0000000180025095e-35 19 20 21 22 23 24 1.0000000180025095e-35 19.500000000000004 27.500000000000004 25 26 27 31.792884691066511 28 29 20251.000000000004 30 396.50000000000006 31 32 132440.00000000003 33 34 35 36 37 767.50000000000011 38 39 40 41 42 43 44 45453.000000000007 45 46 707.50000000000011 47 1017.5000000000001 48 1.5000000000000002 49 50 1.0000000180025095e-35 51 19.887164227355559 52 6.5000000000000009 53 1.0000000180025095e-35 54 55 56 12.500000000000002 399.50000000000006 57 120.50000000000001 58 59 5.5000000000000009 60 61 36.500000000000007 37.090356429047311 900.50000000000011 62 63 64 65 66 120.50000000000001 1.5000000000000002 91189.000000000015 1430740.5000000002 8535.5000000000018 67 68 69 5.5000000000000009 972038.00000000012 70 71 42197.000000000007 72 6520.5000000000009 73 74 1.5000000000000002 75 76 77 9765.0000000000018 1480.5000000000002 121.50000000000001 78 79
decision_type=2 2 2 2 8 1 10 1 1 1 1 1 10 1 2 1 1 1 1 1 1 1 9 9 10 9 9 2 1 10 1 1 1 1 1 1 2 2 2 9 9 1 10 1 1 8 9 2 9 1 10 1 1 9 9 1 2 1 1 1 9 9 1 1 8 9 9 10 1 8 9 2 1 1 2 9 10 1 2 1 10 1 1 1 2 10 1 2 1 1 2 9 1 10 8 10 9 9 1 1 1 2 2 10 2 10 1 1 1 2 2 1 9 8 1 2 1 9 2 1 1 1 10 10 8 1 9
left_child=1 18 8 11 24 17 23 20 9 36 25 12 47 73 33 -9 105 70 39 44 -8 -21 32 45 67 34 52 71 31 62 51 68 116 42 -11 79 64 58 66 101 -38 -42 57 -40 -12 -7 72 -2 -32 77 -34 -31 -19 84 -37 -28 -25 -14 59 -29 -51 -44 63 -30 76 -66 107 92 94 -70 -6 -5 -35 120 75 -61 -3 -24 95 -33 104 103 -83 -64 97 -41 -20 -88 -72 -27 91 -69 124 -94 -15 -26 -92 -49 -55 -100 -76 -1 -103 -82 119 -10 -68 109 -109 -39 126 117 -16 -114 -86 -48 -18 -87 -97 -60 -13 -89 123 -80 -4 -108 -75
right_child=3 2 4 27 5 6 7 15 16 10 19 13 14 28 112 -17 22 26 86 21 -22 -23 49 56 78 89 55 37 29 30 48 35 50 46 -36 54 40 38 43 85 41 -43 61 -45 -46 -47 115 53 -50 60 -52 -53 -54 98 -56 -57 -58 -59 80 74 -62 -63 83 -65 65 -67 106 90 69 -71 88 -73 -74 110 100 -77 -78 -79 122 -81 81 82 -84 -85 114 111 87 121 -90 -91 96 -93 93 -95 -96 118 -98 -99 99 -101 -102 102 -104 -105 -106 -107 125 108 -110 -111 -112 -113 113 -115 -116 -117 -118 -119 -120 -121 -122 -123 -124 -125 -126 -127 -128
leaf_value=-0.049052686567453978 0.11979067328595588 0.057798268236842046 0.24587717426173003 0.05012500648170707 0.19324724699120169 0.13721420654617203 0.035104767042367292 0.095555677726192792 0.29693076888982162 0.28305862281147642 0.04312989889340875 0.19125881855620819 0.14364078613161019 0.24028870537592142 0.23036099718016048 0.1550543121440735 0.035542111558782501 0.15321231394243998 -0.07490138631921181 -0.0064418908686871045 0.08653457714046156 0.059014343714627118 0.22191028275774444 0.068451577211756529 0.20274709838664862 0.058517132801483823 0.18730579969013075 0.1654708796894464 0.28537231020177611 0.19418787721330355 0.22364888114607917 0.20615949854950594 0.18775236837323811 0.22757397582402664 0.10978805354313821 0.17486258204067109 0.20265217756032528 0.25410065697954604 0.027088832958155069 -0.0019646172014622077 0.052429359325307227 0.14022550084919638 0.075235737283285531 0.20240122390545756 0.13131394480432446 0.18115104473288376 0.14953427713061734 0.16015696236008545 0.17540928215126764 0.045816131488920733 0.13713287427624538 0.1399331760552924 0.21970132082397567 0.19773075666997639 0.22800444524066352 0.13659768631934985 0.1458489726901748 0.042808673724566135 0.14867586625019269 0.024193177606516396 0.1154652599091737 0.14014354170569931 0.22192653536991636 0.21852538814490072 0.02914932292808935 0.11204284681610646 0.17230627853931549 0.17462939157774088 0.21904749607726762 0.17408293791311319 0.095899658644945096 0.18391002746483323 0.16025144004153113 0.14963793184696325 0.22244677163733165 0.22632682036799065 0.13167837579229688 0.13998383697554742 0.20169488312763284 0.25746846070794133 0.21197860370511123 0.21995284518210437 0.15333006694589124 0.18891600166543315 0.15553279950908505 -0.0099996651768088432 -0.057877500347695024 -0.0080346756833854453 0.14701640361860902 0.12940890813593822 0.19272022372900052 0.069312885660625573 0.14786592500256146 0.19140838523686288 0.19451609205205767 0.17837828340522402 0.13953791629924669 0.053950236578003047 0.17409854492468221 0.22232424257813521 0.25188921132596215 -0.014094692845188897 0.10453157389297103 0.27571494263910917 0.23430521880459923 0.20397316029248055 0.19523717705152721 0.2806588337137475 0.23709117751605008 0.21558844016722795 0.1754753955514185 0.14897763945441483 0.20570516455650406 0.12214719591352258 0.20358203310299219 0.099614548416564253 0.11888577308843461 0.10020534752378936 0.13609731358595109 0.21157871717861609 0.11336221344586078 0.10179921284376692 0.21833358922056814 0.15791079961328786 0.19064367905918056 0.23173728107198804 0.1071657490252528
leaf_weight=221.51453451067209 319.23816768825054 277.73684501647949 304.42890390008688 133.14980059862137 834.22979366779327 1338.0772933065891 2731.5765935778618 3129.8368370383978 204.91740141063929 285.6639681532979 475.8024218082428 856.05061969161034 231.41775858402252 1094.3624568581581 924.10496799647808 5393.4841978549957 124.54512876272202 487.07349292933941 425.10897201299667 1578.7904563471675 3919.7796007394791 2195.7241515293717 232.85443338751793 322.70394783467054 1413.4385758042336 300.69770895689726 1425.8597686290741 384.16921113431454 645.35058616101742 868.5108338445425 2564.2267805337906 531.14933098852634 2471.3330963551998 395.29798455536366 146.4096799120307 1292.8806922882795 662.17854750156403 1847.1565416902304 114.51372446119785 112.61571609973907 389.79174317419529 3283.799007229507 589.39048306643963 245.49375718832016 821.67191037535667 10059.2946017012 445.19557884335518 776.47234514355659 2459.2630335092545 428.33965822309256 1112.2664991095662 2554.9456103444099 3609.045676253736 3223.9207987785339 3896.7970575690269 1385.393343038857 4427.0914310216904 734.17733378708363 212.32034443318844 104.42893841862679 4395.4044870436192 2013.4800298213959 1848.1908838748932 2851.9094351232052 632.65391573309898 1446.4054343625903 297.47131711244583 427.41113422811031 1014.0160519331694 2922.6708378344774 477.80200415849686 216.38241836428642 1818.4798350781202 548.51979099214077 1598.8980116546154 293.21113085746765 2466.0638163983822 1018.4661369025707 3044.1613840907812 3562.8024137467146 727.96944880485535 418.71446307003498 1329.5437619686127 2690.8282574266195 438.74228225648403 81.904378913342953 238.56572588533163 96.379481516778469 3468.508413605392 780.48625525087118 862.12792506068945 493.19175177812576 1551.5746971964836 1568.0943162068725 963.56390304863453 1757.0135935917497 1356.0298150852323 137.24996964633465 476.33859761059284 5724.2342582941055 2964.5057069808245 165.48825675994158 118.47980634868145 282.93430563807487 1758.1428596377373 177.11892751604319 545.22832806408405 2641.9199071079493 1875.0368807464838 967.74346131086349 377.58375506103039 274.38090386241674 325.33390983939171 280.32953397929668 1256.6824815422297 916.66196185350418 763.2375834658742 280.11808425188065 520.61261857300997 914.38437327742577 127.46222688257694 126.74301838129759 2269.0977881997824 417.98225376009941 650.0733965113759 3409.4584679305553 891.41207411885262
leaf_count=1735 1369 1434 803 749 2840 5546 15397 15779 506 813 2845 2638 874 2694 2334 21782 644 1702 3517 10542 19701 12205 813 1691 4126 1540 4541 1159 1273 2665 6789 1448 9150 1048 680 3852 2338 3923 511 788 1938 13854 2794 686 4083 34189 1639 2622 7617 2308 4780 9501 10645 9132 9599 5241 17348 3696 664 511 19594 7743 4638 7436 3373 6519 816 1619 2543 9321 2053 714 6580 1995 3854 713 10617 4295 8513 7771 1742 1038 4303 7861 1431 584 1991 682 13410 3371 2887 2353 6046 4809 2780 5977 5182 604 1449 14823 5613 1107 634 517 3875 621 1364 4187 4090 2428 1167 1388 944 995 3588 3799 3379 1538 1966 2326 553 747 5948 1515 2088 7593 3571
internal_value=0 1.41317 1.44423 2.03641 1.56449 1.46172 1.35499 1.03491 1.17531 1.01829 0.703631 1.93344 1.77783 2.02811 1.4399 1.33206 1.40153 1.74774 0.160993 0.488619 0.654134 0.316355 1.36035 1.65579 1.83019 1.42429 1.91658 2.28225 2.07409 1.97832 1.81726 2.17741 1.58811 1.30542 2.1927 2.31095 1.24453 2.29677 2.39838 0.542002 1.42334 1.30554 1.10228 1.46637 0.989756 1.75838 1.50815 2.01512 2.00827 1.18815 1.72041 1.53697 2.11279 2.0368 2.15542 1.61741 1.40295 0.669744 2.18633 2.31489 1.09615 1.26273 2.14761 2.30861 1.08378 0.874976 2.42734 1.66133 1.9706 1.85665 1.50379 1.32946 1.71498 1.50674 2.36601 1.79542 1.242 1.55229 1.95945 2.50812 2.06458 1.91464 1.69286 2.02357 1.74858 0.906535 -0.377999 -0.0363801 1.40471 1.08687 1.49725 1.20858 1.78774 1.69752 2.18857 1.81746 1.61706 1.46547 2.1125 2.18619 2.41573 -0.0157815 0.353997 2.29817 2.208 2.53834 2.22376 2.53891 2.62573 2.4086 1.34175 1.08467 2.06793 1.64318 1.91148 1.15088 1.07194 0.777642 1.68714 1.99725 1.81164 0.543556 2.05089 1.96409 2.0826 2.26705 1.23345
internal_weight=0 88458.7 86317.4 78872 59645 43009.8 31321.8 15174.7 26672.4 15743.9 6585.25 55589.2 21026.7 34562.5 8673.87 8523.32 10928.5 11687.9 2141.3 5071.99 6651.36 3774.51 10546.4 16147.2 16635.2 1513.26 6907.37 23282.8 31761.5 16483.2 8446.95 15278.2 4471.38 7144.1 432.074 9283.63 9158.63 22933.2 11944 1254.5 4335.77 3673.59 3568.47 360.007 1297.47 11397.4 3575.64 12352.9 5023.49 6075.06 3583.6 3423.46 4096.12 12033.6 5189.68 2811.25 4749.8 965.595 10989.2 5345.21 4823.74 2602.87 8036.28 3497.26 4822.86 2079.06 11584 7212.93 5994.61 3936.69 4780.54 349.532 2213.78 2801.03 4961.04 397.64 2743.8 1251.32 9422.31 4093.95 5644.01 2759.16 1748.26 4539.02 2609.15 749.019 886.797 461.688 3946.31 1081.18 3138.76 920.603 4074.17 3119.67 2057.93 3691.06 2218.16 913.722 9424.49 6200.57 4563.4 505.483 283.968 1010.9 2884.85 382.036 4252.16 7331.86 4516.96 2814.9 1817.52 636.403 1529.77 605.663 1695.42 1361.86 887.783 362.022 2277.63 1126.7 983.513 223.122 5731.24 3462.14 954.502 3954.69 1439.93
internal_count=581202 362650 347939 218552 225697 171865 131433 72659 122242 76152 36079 165176 67464 97712 32446 37561 46090 40432 14711 29675 35098 22747 44963 58774 53832 6404 22129 53376 87788 47780 26572 40008 17953 28173 1493 22670 40073 51913 25598 7774 18130 15792 15107 1197 6928 39735 13066 35018 14406 27010 13930 12166 12347 33649 13451 9782 19039 4570 26315 11850 21902 10537 21208 8709 21943 9892 24401 25787 17338 11864 18303 1463 7628 9924 10691 1224 12051 5108 28045 9219 14465 7600 5341 12499 8245 4298 6937 3420 15463 4911 12041 3972 13746 10855 5474 12069 8069 3226 25404 16272 9467 3476 1741 2259 6865 1127 9773 14628 8277 6351 6733 3510 4273 1939 5019 5438 4023 2122 7943 2990 3191 1429 15976 10028 2891 8957 5566
cat_boundaries=0 1 2 3 4 5 6 7 8 9 10 11 12 13 14 16 17 19 22 23 24 25 26 27 28 29 31 33 34 35 36 38 41 42 43 44 45 48 49 50 51 52 55 56 57 58 60 62 63 65 66 67 69 70 71 72 73 74 75 76 77 80 81 84 85 86 87 88 89 90 91 92 94 95 96 97 98 99 100 101 102
cat_threshold=2 2 2 2 2 2 2 2 2 2 2 2 2 2 2149607424 1075054085 39 2147487744 1075054088 6299648 536886839 2 2 2 2 2 2 2 2 20480 1076911160 2147491840 1552 2 2 2 2103296 1614565936 2147485696 2686978608 2 2 2 2 216 12605440 2688565288 2 2 2 2 2 32768 2147500040 1 208 2 2 32768 2149086228 2149588992 539777578 2 10485760 2684616724 2 2 24576 2623489 2 2 2 2 2 2 2 2 2147483648 543695891 2 2 2147487744 6694 2 24 2 2 2 2 2 2 2 4212736 799781 2 2 208 2 2 2 2 8
shrinkage=0.1


Tree=3
num_leaves=128
num_cat=75
split_feature=29 10 6 6 6 6 10 29 6 10 11 24 6 127 24 123 6 111 24 71 111 28 112 97 5 4 145 16 10 123 15 28 63 6 56 6 97 72 123 4 111 5 127 6 6 97 0 93 3 5 135 66 29 16 15 117 6 97 127 24 28 85 14 56 97 66 3 4 143 122 24 24 10 28 135 97 63 132 103 24 28 145 2 63 127 111 14 88 58 117 7 13 121 105 69 7 127 123 14 78 15 133 7 101 117 7 44 15 8 25 145 11 61 86 145 6 127 13 52 116 13 14 16 3 24 11 10
split_gain=9175.95 9168.84 3504.67 2773.84 2506.52 1215.35 1079.48 948.619 904.746 784.047 713.467 704.424 672.573 670.01 653.121 702.21 634.3 619.568 642.188 591.995 517.08 482.379 434.429 359.276 390.902 342.494 335.819 330.578 316.69 315.056 309.981 302.374 284.568 280.193 277.187 276.464 268.682 260.105 230.267 228.522 225.003 222.276 217.905 215.07 206.522 202.83 199.494 183.922 183.51 182.627 181.631 167.332 160.256 157.019 153.66 152.692 145.469 144.294 141.741 183.631 134.798 131.74 129.974 129.874 135.81 129.723 127.97 179.837 124.658 120.422 120.236 119.27 117.33 114.456 113.397 111.825 111.448 107.619 107.608 106.054 104.397 102.619 125.994 102.498 150.733 97.2147 96.7564 95.8741 95.2739 95.2373 94.9184 94.6486 93.969 90.2888 92.5033 89.1191 87.49 86.8226 86.0336 85.3356 84.4454 89.5175 92.9573 83.7035 83.2791 128.355 127.702 81.928 81.1769 79.2876 84.5806 78.1301 77.974 76.6203 73.5289 73.2899 72.9754 71.3847 70.9282 69.9382 67.6488 67.4712 67.2312 66.3414 65.8749 64.173 64.148
threshold=0 1.0000000180025095e-35 0.095000000000000015 0.10500000000000002 0.095000000000000015 0.13500000000000004 2.5000000000000004 1 0.18500000000000003 2.5000000000000004 1.0000000180025095e-35 2 0.085000000000000006 3 4 5 0.025000000000000005 6 7 8 9 10 11 12 208.50000000000003 68595.500000000015 13 830.50000000000011 3.5000000000000004 14 2484.5000000000005 15 16 0.065000000000000016 17 0.13500000000000004 18 19 20 58010.000000000007 21 6359.0000000000009 22 0.25500000000000006 0.13500000000000004 23 1.5000000000000002 24 584.50000000000011 596.50000000000011 25 26 27 566.50000000000011 4503.5000000000009 28 0.045000000000000005 29 30 31 32 33 0.69272990106762655 34 35 36 1218.5000000000002 4106.5000000000009 37 38 39 40 6.5000000000000009 41 42 43 44 45 46 47 48 49 12.500000000000002 50 51 52 0.73410887930867841 53 54 55 0.70500000000000007 55.72068695382039 56 57 58 0.77500000000000013 59 60 0.82758124392035426 61 78059.000000000015 62 0.77500000000000013 63 64 0.70500000000000007 65 5643.0000000000009 38805.000000000007 66 67 285.50000000000006 68 69 70 0.12500000000000003 71 35.599928876244682 72 73 26.696278825995815 0.6861507998136358 3149.0000000000005 1905.5000000000002 74 78.500000000000014 1.0000000180025095e-35
decision_type=9 2 10 10 8 10 2 9 8 2 10 1 10 1 1 1 10 1 1 1 1 9 1 1 10 10 1 10 2 1 8 9 1 10 1 10 1 1 1 10 1 10 1 8 10 1 2 1 2 10 1 1 9 8 10 1 10 1 1 1 9 1 10 1 1 1 2 8 1 1 1 1 2 9 1 1 1 1 1 1 9 1 2 1 1 1 8 1 1 1 10 10 1 1 1 10 1 1 10 1 10 1 10 1 1 10 1 8 8 1 1 8 1 1 1 10 1 10 1 1 10 10 10 2 1 10 2
left_child=4 2 16 12 7 17 22 21 9 19 86 44 56 72 23 83 -2 18 39 31 41 30 47 104 -25 42 63 61 81 -15 120 74 70 38 -22 40 54 -31 107 57 87 -17 -20 45 52 85 -34 69 125 75 76 79 -8 109 112 117 62 -4 93 73 -51 -21 -3 64 -19 -52 -32 -68 88 71 -28 -5 97 -60 -6 -33 -37 -42 -56 -29 -26 98 -83 84 -16 124 89 -24 -49 99 -30 -84 -63 -50 -95 -57 121 -13 122 -9 101 102 -55 -76 106 -106 -7 -12 -71 -11 -111 -65 -23 -58 -80 -70 -92 -46 -53 -87 -1 -38 -14 -115 -10 -18 -88
right_child=1 3 5 6 8 14 11 10 43 53 33 13 28 29 15 20 48 26 25 27 34 36 35 24 80 -27 32 51 90 37 66 49 46 -35 -36 50 96 -39 -40 -41 77 -43 -44 -45 55 -47 -48 68 58 60 65 118 -54 100 78 95 113 -59 59 -61 -62 92 -64 111 -66 -67 67 -69 115 108 -72 -73 -74 -75 103 -77 -78 -79 114 -81 -82 82 91 -85 -86 119 126 -89 -90 -91 116 -93 -94 94 -96 -97 -98 -99 -100 -101 -102 -103 -104 -105 105 -107 -108 -109 -110 110 -112 -113 -114 123 -116 -117 -118 -119 -120 -121 -122 -123 -124 -125 -126 -127 -128
leaf_value=0.16781709453152371 -0.084367796612591472 -0.025098448554335202 0.087325561429056606 0.14894468370089867 0.11217837016235266 0.21630641199488482 0.069640028745128466 0.17663177315037104 0.1766751132815324 0.15032878809439595 0.13299982943213917 0.20196871398690586 0.058733792763375176 0.18544402437525895 0.16220787732138703 0.01515009870897626 0.003415493715994733 0.13347401065554085 0.056212700061388648 0.18433076507857771 0.073656104734101474 0.080523505562078365 0.16105201838055302 -0.072589722807127319 0.054869541983585492 0.09065555200136953 0.079888102112238082 0.17480783134902561 0.099813053753173286 0.10482259091342774 0.2161638485809404 0.13500862974603683 0.19032620726073293 0.11495111497726827 0.12006199697303493 0.079639176324085931 0.052533711836039998 0.15693083169998379 -0.0220164517075086 0.16414075918971704 0.096296651218921989 0.08706562723460852 -0.022161015737924811 0.20337505011417811 0.19994567468517144 0.1542842625220297 0.089408038484283456 0.012546510226919381 0.093813287333064474 0.1789815438741191 0.14688670763358486 0.16473944899300616 0.13389121350780661 0.18604256050115961 0.1167119073042316 0.13486154783422727 0.1181462458821842 0.024500502747158492 0.0035722098972979428 -0.0078091143453042485 0.14021348783566515 0.1334576890520924 0.067500746489971647 0.18292641220676642 0.067020918865326157 0.1751547584550342 0.086626339792546803 0.19932380153437304 0.071605647848003662 0.19473147102734789 0.042933217497252291 0.080955265150176828 0.21628430593878145 0.066875512720909511 0.20046337708620579 0.11298432700032407 0.15018720437914479 0.14573091147212144 0.17207478291103606 0.13926732157767788 0.11895432185540532 0.0091587794966649858 0.10907239372131723 0.15960920333592885 0.083519548465967833 0.17114257105107314 0.11536461241513396 0.082020652222677307 0.088018754251002043 0.080271228588137761 0.16705776159156438 0.060110681117200006 0.15559564397739001 -0.032357093321988266 0.060980002809539927 0.17772394298264041 0.055813317965958259 0.17816752692898427 0.1519721124842966 0.10250581617182752 0.16392640114089707 0.19447827713319754 0.14330387905702188 0.15687368589228218 0.11957849696117231 0.16115483062115374 0.15122100827760684 0.036571854745443895 0.12207703309234355 0.18812160542424444 0.15966280663164908 0.11909060345424019 0.12452405889582366 0.034088921295695386 0.13989018852886678 0.11566142786460516 0.12640849701974496 0.15874005037391503 0.19527183095021591 0.19111085267408179 0.10338286315437112 0.14660293001772393 0.13230050935206569 0.072386804229870705 0.14643257654594652 -0.04150243801569331 0.17564064007568006
leaf_weight=233.07415695488453 674.01903170347214 418.14086811989546 1264.5915776640177 489.60397359728813 230.87021946907043 374.57391647994518 569.3992844671011 243.80234380066395 4024.0073589831591 2152.8398186564445 136.29220942407846 3376.3554903715849 299.70871901512146 2790.5831808298826 422.67204440385103 1507.4442805200815 996.55113972723484 634.53399209678173 440.60136664658785 1222.7837412953377 2887.0258622914553 688.50670197606087 176.48248007893562 122.81080915778875 358.01793906092644 428.08372367918491 1373.8719486743212 2505.4487859606743 493.30483031272888 1289.8994834646583 1267.1171779856086 7336.043373093009 207.39853642880917 291.56994512677193 2322.6832480728626 446.66531054675579 111.11957509815693 3722.2208019271493 880.10122358798981 295.40163484215736 504.12202645838261 601.18291591107845 1820.707703396678 4518.0590982362628 867.81802643835545 2804.0743674337864 3527.1649214923382 294.6440509557724 488.24909487366676 1492.2328437119722 2850.2905805185437 911.26730611920357 2201.4467377364635 1533.1944174915552 1183.7277367264032 2617.8138405531645 221.16002473980188 514.24007492512465 443.82080916315317 1298.1935146823525 5720.3859375715256 2649.7633262127638 237.77599813789129 417.12054926902056 596.78193114697933 3771.4366545155644 214.39166322350502 417.0176308453083 501.05050318688154 414.82788896560669 2451.2753033936024 545.48023827373981 2659.1477580219507 839.55776807665825 1345.846235498786 3361.7599737644196 449.04195423424244 3483.0939769744873 1156.9399356693029 1262.8024356365204 2080.1075197160244 253.00820083916187 808.64204774796963 1286.357489362359 574.07270166277885 2098.9858185499907 360.61563065648079 1178.6017768383026 386.89399632811546 955.32618869841099 1013.0721192657948 771.51766391098499 6937.160336881876 149.88088174164295 364.18228057026863 595.41704073548317 682.00481756776571 2806.6357313841581 381.30409359931946 427.86246532946825 1546.1475887447596 7356.3128690868616 761.76036289334297 654.89445613324642 1740.9653567820787 1294.7833877652884 1544.4175308942795 249.2374411970377 244.37736986577511 2097.5941018313169 2079.8008000552654 354.82565715163946 970.38118264079094 795.80350744724274 1836.8382997363806 1532.6602647155523 782.97663247585297 815.52071842551231 4609.3194156885147 10672.361408308148 541.48804172873497 242.95754612982273 212.1630253046751 1047.9027567729354 877.27121216058731 467.16459016501904 345.93245846033096
leaf_count=834 5927 2910 4987 1406 859 818 2183 739 9285 5584 553 6379 1252 6002 1207 8227 6193 2206 2350 2931 13196 2848 571 774 1510 1937 5867 6686 1717 4374 3543 23505 704 1096 8695 1701 520 9922 5484 1036 1937 2601 11488 8668 1903 8142 15169 1408 2149 4191 8947 2465 6579 3527 4090 7474 849 2693 2324 7831 18458 8177 1363 1274 2696 10337 840 1149 2183 1074 12970 2286 4039 3915 3552 13120 1372 11685 3063 4140 7560 1313 3203 3677 2257 4846 1448 5010 1521 4013 2610 3642 19753 878 1762 1461 3258 6813 1177 1729 3678 15411 2048 2292 5635 3723 4426 1362 783 4461 5376 1331 3428 3930 6044 5450 2518 2124 11269 22501 2115 931 727 4383 2311 3324 1044
internal_value=0 1.16231 0.787364 1.4451 1.61211 0.918357 1.5474 1.21167 1.67732 1.60855 0.787929 1.68319 0.895285 1.79872 1.09822 0.925398 0.0674811 0.703462 0.408816 1.53166 0.774347 1.38211 1.35622 1.319 1.01488 0.0863646 0.850234 1.65308 1.11245 1.58514 1.75429 1.4105 0.753769 0.265743 0.943456 1.4491 1.235 1.4352 0.0621446 0.826897 1.27517 0.356537 -0.0689041 1.83627 1.4324 1.7927 0.950125 1.08536 0.189151 1.36303 1.5727 1.79143 1.21422 1.78507 1.32011 1.55585 0.494957 0.691635 0.311004 0.187088 1.48677 1.53419 0.0846963 1.21427 1.01266 1.62987 1.97837 1.61058 0.924035 1.3439 0.562062 1.13115 1.98719 0.455327 1.77741 1.28088 1.15007 1.39481 1.42236 1.62898 1.10257 0.882186 0.746763 1.40958 1.16888 1.83234 1.13977 0.923135 0.553904 1.00558 1.38666 0.851667 1.49477 0.630167 0.337665 1.42804 0.767514 1.91165 1.16013 1.29412 1.85623 1.89099 1.71856 1.86195 1.47619 1.37311 1.63925 0.70661 1.67797 1.65919 1.73953 1.53584 1.06262 0.625278 1.52328 1.04807 1.49337 1.79983 1.90232 1.87829 1.22772 1.17081 0.892261 0.558562 1.71262 -0.109207 1.44876
internal_weight=0 86483.3 37165.3 49318 96199.3 31443.7 41581.5 13436.3 82763 57768.2 3890.74 24312.3 7736.48 16644.8 17117.1 9601.44 5721.62 14326.6 4763.63 40240.6 7318.34 9545.56 17269.3 7515.68 2560.94 2689.39 9562.97 20098.5 5015.7 7802.7 2673.09 20142 7559.71 1557.2 5209.71 12859.7 6872.48 5012.12 1265.63 2074.23 5342.3 2108.63 2261.31 24994.8 7667.42 20476.7 3734.56 4409.54 5047.6 17910.4 7517.43 9288.84 2770.85 17527.6 5836.39 4896.57 2720.78 1778.83 3583.88 2581.57 7212.62 10809.7 655.917 2003.26 1231.32 6621.73 1898.53 631.409 2715.25 1694.29 3825.15 1035.08 8842.14 1283.38 2231.61 10697.8 895.707 3987.22 4177.51 3768.25 2438.13 2726.34 1833.17 2283.1 996.745 17672.6 2333.54 1355.08 681.538 1626.99 2289.35 1580.16 9586.92 1002.31 514.063 3213.23 1036.08 6182.99 893.176 671.665 11197.4 9651.27 2294.95 2000.74 4954.74 3035.75 1918.99 385.53 659.205 6330.23 4177.39 771.946 1658.89 2064.87 2993.78 2033.71 1796.05 1683.34 5520.59 12771.3 774.562 354.077 511.872 1843.71 4901.28 1463.72 706.548
internal_count=581202 313835 165317 148518 267367 131014 116924 50131 217236 161483 17468 59253 31594 37529 64306 39860 34303 66708 24491 121398 32719 32663 57671 24446 9844 15775 42217 55421 18159 20298 8481 65977 34710 8495 21891 41560 24182 14296 7399 8716 19203 10828 13838 55753 21724 47085 15873 16111 28376 59274 22357 24560 8762 40085 19473 12962 13435 7680 18859 14070 22649 30861 4273 7507 4902 19284 5532 1989 10562 5549 18837 3692 17231 6239 6703 36625 3073 13622 13197 10826 9070 11314 8158 7141 3464 38943 8973 5581 2929 6481 6845 6845 27930 4789 2640 8935 4709 13192 3156 2468 24664 20986 5575 5844 14602 9358 5244 1915 1857 15421 9837 2605 6276 9162 9107 7633 5128 4027 13734 27347 2949 1451 1979 8313 11596 9517 2492
cat_boundaries=0 1 2 3 4 5 6 7 8 9 10 11 12 13 14 15 16 17 18 19 20 21 22 23 24 25 26 27 28 29 30 31 32 33 34 35 36 37 38 39 40 41 42 43 44 45 46 47 48 49 50 51 52 53 54 55 56 57 58 59 60 61 62 63 64 65 66 67 68 69 70 71 72 73 74 75
cat_threshold=56 24 2 2 2 2 2 2 2 2 13 2 2 2 2 17 2 2 2 2 2 2 2 2 2 2 2 64 2 2 2 2 12 2 2 2 2 2 2 2 2 54 2 2 2 2 2 2 66 2 2 2 2 2 2 2 2 2 2 2 2 2 2 2 2 2 1 2 2 2 2 2 2 2 2
shrinkage=0.1


Tree=4
num_leaves=128
num_cat=86
split_feature=6 29 29 94 29 94 76 16 4 135 78 6 97 145 26 6 16 123 6 28 16 15 56 111 56 20 28 6 20 97 117 28 7 18 52 143 20 121 123 63 12 20 26 20 1 28 145 26 20 0 145 1 107 0 113 78 111 38 61 20 1 3 66 15 20 20 66 25 6 20 6 6 20 3 20 29 20 8 1 1 20 111 135 20 131 20 14 12 20 6 3 69 144 16 1 7 20 25 121 15 20 16 20 1 67 107 63 18 127 88 80 61 26 56 63 117 80 143 4 8 117 20 103 63 101 8 105
split_gain=6602.1 4440.01 2567 2002.04 1914.75 1527.35 1274.46 982.143 930.049 632.554 594.59 529.083 495.098 468.508 788.787 458.746 428.482 387.661 382.837 382.16 343.802 342.298 300.437 288.978 280.896 257.617 252.74 249.581 203.073 201.173 191.145 186.825 176.113 167.687 165.679 155.097 151.347 150.821 148.213 146.47 145.872 142.269 141.008 139.916 138.364 136.208 135.548 211.064 134.887 134.523 133.123 130.863 130.033 129.586 129.334 128.208 127.736 235.442 127.358 123.181 116.601 112.326 111.738 110.809 109.676 109.585 107.384 107.115 101.25 100.791 106.525 100.48 99.2451 98.877 98.5445 97.2889 91.5897 91.5516 91.1354 89.9542 89.4313 88.426 87.6589 139.342 87.2656 83.8635 83.4235 81.0837 78.3152 77.9901 77.59 76.787 76.3344 73.7322 73.3422 72.1914 72.0297 85.2754 71.2572 70.5766 69.7472 69.4456 68.3863 66.0407 64.8984 62.7315 89.8957 62.6544 61.2569 60.9376 60.9214 77.947 59.6094 58.7739 58.5411 57.9063 56.8672 56.5489 68.9602 55.7697 68.7004 55.5068 52.968 74.8148 52.1808 50.4534 50.3794
threshold=0.12500000000000003 0 1 2 3 4 5 208.50000000000003 2125.0000000000005 6 7 0.16500000000000004 8 9 10 0.21500000000000002 6070.0000000000009 11 0.085000000000000006 12 949.00000000000011 4503.5000000000009 13 14 15 16 17 0.085000000000000006 18 19 20 21 0.77500000000000013 25.972332849034576 22 23 24 25 26 27 26936.000000000004 28 29 30 972038.00000000012 31 32 33 34 33.500000000000007 35 823414.00000000012 36 58.500000000000007 37 38 39 40 41 42 111789.50000000001 13068.000000000002 43 4825.5000000000009 44 45 46 47 0.14500000000000005 48 0.10500000000000002 0.17500000000000002 49 9524.5000000000018 50 51 52 48826.000000000007 917782.50000000012 122853.00000000001 53 54 55 56 57 58 0.6781362537615313 7022.5000000000009 59 0.095000000000000015 634.50000000000011 60 61 314.50000000000006 544336.50000000012 0.76500000000000012 62 63 64 651.50000000000011 65 1922.0000000000002 66 3829306.5000000005 67 68 69 57.599438968120815 70 71 72 73 74 75 76 77 78 79 466.50000000000006 18214.500000000004 80 81 82 83 84 70555.000000000015 85
decision_type=10 9 9 1 9 1 1 10 10 1 1 10 1 1 9 10 8 1 10 9 8 10 1 1 1 9 9 10 9 1 1 9 10 10 1 1 9 1 1 1 10 9 9 9 2 9 1 9 9 2 1 2 1 2 1 1 1 1 1 9 2 2 1 8 9 9 1 1 10 9 10 10 9 2 9 9 9 8 2 2 9 1 1 9 1 9 10 10 9 10 2 1 1 10 2 10 9 1 1 8 9 8 9 2 1 1 1 10 1 1 1 1 9 1 1 1 1 1 10 10 1 9 1 1 1 10 1
left_child=1 7 3 35 12 18 34 36 74 24 39 17 19 27 16 20 -15 -11 96 51 26 58 25 64 42 60 124 76 84 53 -13 54 -16 92 59 65 50 40 67 48 112 -31 -10 -35 -29 63 47 -39 49 -7 86 -3 -26 91 80 -33 98 61 99 -5 77 -58 78 72 66 114 -20 -23 95 108 94 -55 -14 -67 -8 -40 -12 90 -56 -42 -22 -17 83 -36 -24 -57 -1 117 -43 102 -9 -28 -25 -76 -71 -59 97 -6 121 -21 -48 -98 -41 -66 -91 -84 -107 -99 -47 -70 -100 -112 -27 -64 -2 -62 -30 118 -38 -52 125 -37 -86 -124 -4 -121 -87
right_child=2 4 15 6 5 10 8 22 9 11 13 30 45 14 32 81 -18 -19 23 21 31 38 28 33 52 37 29 44 116 41 -32 55 -34 43 82 56 87 46 75 89 79 88 -44 -45 -46 69 100 -49 -50 -51 119 -53 -54 71 62 85 57 68 -60 -61 115 -63 113 -65 103 73 -68 -69 109 70 -72 -73 -74 -75 93 -77 -78 -79 -80 -81 -82 -83 105 -85 122 126 -88 -89 -90 104 -92 -93 -94 -95 -96 -97 101 107 110 -101 -102 -103 -104 -105 -106 106 -108 -109 -110 -111 111 -113 -114 -115 -116 -117 -118 -119 -120 120 -122 -123 123 -125 -126 -127 -128
leaf_value=0.0017551317248430858 0.07131591068818452 0.18936934731439103 0.16772277379594525 0.060632518210050806 0.056562167404839027 0.17739246878111026 0.040787756929749314 -0.0064047102438685626 0.0077545928610375644 0.11902635153333252 -0.01465588713576218 0.15544448230662322 0.13350189834924286 0.0070796808500368392 0.083879577897809587 0.14735980251179154 0.067858240149902771 0.087028837496922223 0.05146244392270527 0.11611748850958779 0.054373556332462637 0.15513224533470285 0.091903122559963343 0.12358470170209979 0.14070437603615368 0.0063475107127496135 0.12703297131523761 0.073256293153165036 0.13189224100780086 0.13962811791234384 0.11549274548490276 0.17341330326948487 0.053088269706927385 0.13793713934482729 0.17198709621878241 0.031575633521835365 0.046846440580965723 0.051315747074741895 0.16435794077457361 0.022285504955537907 0.093966773055773986 0.045465120719320885 0.056920916783475467 0.10543588307753922 0.12946578097291025 0.08375661365265985 -0.0059514388361279029 0.15121288115730874 0.044337162074231794 0.090645487586111517 -0.087129492740569248 0.14365343376822781 0.074989626538037799 0.12328420270601699 0.14990247553776168 0.1574063201984375 0.054412792007538062 0.12486347319318576 0.11564191180810682 0.13718284380295409 0.0091815674516766057 0.12929175244612731 0.13882618616222026 0.15425261170110183 0.09072934903829083 0.084755637181914811 0.1408472156624305 0.11999536473310873 0.18330024401639491 0.089117314054337926 0.11165098757745809 0.13823547960825183 0.028077471732928155 0.1432072001024432 -0.083650431850729123 0.1214606028839081 0.070321311503953196 -0.031325479963538155 0.11864140525922227 0.0048831401637517199 0.12607283983925327 0.16511761692329424 0.18515992759382907 0.057914066369046627 -0.03955071922614075 0.15271146744541553 0.13390788559698527 0.036967478436339789 0.10303480112720054 0.10412404848812347 0.084776576695709413 0.15176568389582565 0.17641812712502061 0.0091517774695417161 0.03919127437460794 0.15003668269441681 0.071192832990222846 0.15388365142572968 0.17415985290008812 0.075100681049644541 0.050547378133457811 0.010810815856216124 0.10983020534736765 0.034014253391938337 0.15057570211222204 0.12706981435645781 0.16794123066627839 0.070731993522447009 0.011324598998636524 0.15733851421235689 0.083826441503360716 0.13865180792078499 -0.056688752288402713 0.16013200598177033 0.11580727408266274 -0.047869146894689719 0.084858736627741585 -0.077334224822524264 -0.060464298050449908 -0.0049430835721399414 0.021063687347916197 0.11220093937843123 -0.012353968461266067 0.072764026159682638 0.13532564644722442 -0.099330861983036797 0.121136308155053
leaf_weight=88.205310977995396 552.23258081078529 1334.9836384803057 2693.3452914208174 367.61246584355831 319.80559930950403 208.87520102411509 129.7472555860877 139.34663997590542 961.56220954656601 4942.9673794284463 205.4080748707056 1903.7225843891501 189.01039536297321 3814.2217082306743 5938.4998462498188 3879.957297950983 1666.8201953843236 16181.284935735166 185.17590862512589 556.96474139392376 332.91657344996929 3692.2637365311384 170.96260643005371 368.3636978417635 410.8611581325531 473.6272416561842 1674.681870162487 594.21457630395889 309.05383666604757 1315.7426477372646 3228.3370639383793 3673.037284180522 2703.0107791870832 3969.4230246692896 238.53026063740253 156.55581603944302 90.610107228159904 620.93892226368189 751.41378907859325 127.86520225554705 284.90633418411016 318.03489696979523 1527.0832092612982 2721.9509411156178 1665.0577133446932 176.31300745904446 259.94619651883841 344.75690446048975 625.21036937832832 1240.2223882079124 107.45100080221891 1179.2797956764698 1127.2401862666011 11086.539368741214 1392.9522623717785 8029.3116522058845 347.38181655108929 1511.898422062397 3528.7184001505375 764.52210043370724 266.30008365213871 473.28417125344276 2299.2539694011211 535.782266035676 358.28107292205095 330.35930227488279 490.20380940288305 1134.096828520298 1101.7291900515556 660.72775649279356 959.84055015444756 7560.0706204473972 196.53702189028263 2334.3696436285973 310.58184914290905 8493.8350318223238 322.72098925709724 175.25512054562569 2821.5852974653244 188.24513901025057 551.26228475570679 10113.297522872686 942.2754675000906 252.45041111111641 154.47769130766392 741.62162534892559 104.19499412178993 86.389739379286766 2768.0115803107619 431.44073159992695 282.56638661026955 5012.52960498631 1061.5039596408606 118.1938134804368 530.47003328800201 4621.6632574945688 506.78063948452473 267.07879297435284 287.33232438564301 1699.7614291608334 1532.7105438634753 305.16729383170605 613.40544285625219 480.8777269795537 993.04156494140625 792.21554878354073 1677.9884932339191 137.15078961849213 345.67970958352089 5040.2025029361248 360.96025328338146 920.93675703555346 209.40982776135206 2963.6489761322737 636.73109020292759 536.01657877862453 1528.2449160516262 785.14391937851906 176.596953317523 116.9730756804347 325.32998878508806 296.95579117536545 212.12862357497215 201.21158573031425 609.70730465650558 109.78123217076063 1585.8704649358988
leaf_count=619 1716 2934 5659 1244 1375 585 527 822 4842 14289 1075 4797 685 20976 23241 8238 7386 60575 698 1809 1079 8157 575 1024 1218 2438 4272 2280 903 3888 9817 7228 12004 10074 539 550 627 2640 1959 569 1170 1213 6081 7790 5216 676 1385 992 2633 4651 906 3143 4191 29128 3379 18676 1187 3854 10692 1983 1389 1246 5565 1676 1169 991 1387 3178 1968 2665 3403 17289 902 5481 2009 24238 1431 939 7718 959 1414 18970 1878 856 833 1695 509 507 9113 1412 1180 11075 2155 521 2410 10198 2009 802 585 6150 7260 1420 2210 1885 2683 2117 3678 522 1621 10725 1189 2387 1385 6127 1626 3079 5829 6610 1408 884 2194 833 1039 743 1770 925 4299
internal_value=0 0.92763 1.31381 1.14983 1.03267 0.86916 1.0111 0.306652 0.934947 0.95853 0.71144 1.01513 1.23579 0.62748 0.553532 1.43938 0.255163 0.945161 1.16853 1.29161 1.40002 1.2419 0.465324 1.24244 0.589477 0.32946 1.33354 1.00215 0.745588 1.30157 1.30313 1.49007 0.741624 1.31722 1.47755 1.41276 -0.32071 0.460479 1.32671 1.04628 0.158475 1.10468 0.381839 1.2508 1.14682 0.89177 0.588737 0.890766 0.856367 1.02442 0.00133385 1.67262 0.925435 1.33629 1.37562 1.57249 1.45841 1.49453 1.03777 1.14074 -0.0400218 0.97596 1.41107 1.23493 0.841423 1.23367 1.14642 1.46876 1.5292 0.766004 0.864581 1.29346 0.839515 1.35452 -0.34374 1.25256 0.383247 0.294265 1.28974 0.585245 1.01117 1.60194 1.57523 1.18016 0.288771 1.51668 0.733229 -0.556766 0.972679 1.22818 0.546618 1.45572 1.62807 -0.567457 0.66884 1.43832 0.704872 0.938496 1.22452 0.852237 0.426035 0.479085 0.965115 0.575432 1.36507 1.63207 1.54833 1.25671 0.351171 1.61995 1.32542 1.23214 -0.137156 1.50824 0.94349 -0.289332 0.922681 -0.63811 -0.240751 -0.212155 -0.083868 0.875387 0.104094 0.29081 1.61254 -0.506401 1.30636
internal_weight=0 68168.2 126273 54849.8 58287.5 32321.8 35877.2 9880.78 30841.6 30283.1 21150 26256.3 25965.7 16910 14122.6 71423.4 5481.04 21124.3 11171.8 22371.3 57430.1 19857.1 7890.11 9635.78 4026.75 5314.03 33038.7 2787.4 2576.08 29735.6 5132.06 24391.5 8641.51 8121.24 5035.59 18972.6 1990.68 3914.54 14071.6 4240.06 1156.19 4401.79 2488.65 6691.37 2259.27 3594.36 2758.35 965.696 2074.31 1449.1 851.936 2514.26 1538.1 25333.8 10361.6 14029.8 15118.9 13096.2 5785.44 1132.13 1399.48 820.666 9477.44 921.33 1514.54 3853.69 675.38 4826.36 12275.5 2673.03 2151.04 18646.6 385.547 2664.73 558.523 9245.25 528.129 597.168 4214.54 473.151 884.179 13993.3 3903.46 490.981 738.781 10356.8 192.4 1138.74 3086.05 2165.75 421.913 6687.21 1429.87 428.776 1191.2 6133.56 1535.98 724.035 2022.74 2256.73 1792.66 811.948 741.271 839.159 1424.48 3412.48 2470.2 404.23 521.993 6141.93 1569.23 1281.9 683.037 5262.9 1188.96 802.317 1837.3 1052.35 267.207 659.535 552.084 453.512 567.818 413.34 3303.05 226.754 2327.49
internal_count=581202 247709 333493 165698 196960 120662 121162 50749 108867 105810 88352 89478 76298 73609 63607 167795 28362 74864 32310 62260 140587 56183 35560 26182 16332 25638 83407 10002 9922 75978 14614 57180 35245 21043 12295 44536 15189 18229 37532 14743 5952 14214 10923 17864 7496 14038 12277 3632 7869 5236 6037 6077 5409 61764 25282 31898 34722 29178 18651 3227 7409 2433 22789 3263 5139 9814 2085 11335 26745 10775 8478 46417 1587 6472 3057 26197 2506 2941 11097 2129 2493 27208 9068 1395 3190 24670 1128 9152 10326 6874 2002 15347 3179 2530 5075 14052 6128 2699 5544 7959 8645 3429 2779 3054 4095 7673 5795 1324 2297 12693 4161 3576 3823 11692 3342 4468 6732 8645 2035 4909 4003 1383 2615 1782 7429 1809 5994
cat_boundaries=0 1 2 3 4 5 6 7 8 9 10 22 23 24 25 26 27 30 31 34 35 36 37 38 39 42 43 44 45 47 59 62 63 64 70 72 73 74 75 76 77 78 79 81 82 85 87 88 89 92 94 96 97 100 102 103 104 106 107 110 113 114 115 118 119 120 122 125 126 127 128 129 130 131 132 138 139 140 141 142 143 144 147 148 149 150 151
cat_threshold=64 66 2 24 2 2 2 2 2 2 0 0 67108864 0 0 0 0 0 0 0 0 8192 2 5 2 2 2 8437760 2149600296 3 17 6328320 1573937 1 2 2 194 2 2 2147528704 2684620823 2 2 2 2 2147520512 1610876418 0 0 67108864 0 0 0 0 0 0 0 0 8192 2121728 539259957 1 13 2 1073741824 0 0 0 0 1048576 2140160 2914343 2 2 2 2 2 2 2 12615680 1611168788 2 2149623808 537920041 3 14710784 1075072001 2 2 8388608 1080049716 2 2147510272 1573418 16384 540805632 16 20480 1076907055 2 8419328 3691528 2 2 16384 540026404 2 2147485696 540815931 1 4194304 5244936 1 2 2 2149582848 554012 3 1 2 12288 524304 10518528 1075078160 2 2 2 2 2 2 2 2 1073741824 0 0 0 0 1048576 2 2 2 2 2 2 18432 538444301 2 2 2 2 2
shrinkage=0.1


Tree=5
num_leaves=128
num_cat=85
split_feature=9 29 5 10 29 28 9 29 28 72 24 5 9 105 10 9 56 20 145 24 144 24 5 19 24 24 4 145 20 24 20 109 105 20 24 9 20 26 103 49 145 11 29 20 20 20 2 133 20 97 20 135 25 20 9 20 5 5 15 20 8 144 131 15 11 133 2 134 145 117 20 20 17 14 5 20 15 20 0 20 20 24 8 18 58 143 20 20 17 12 11 145 8 20 140 8 5 4 20 117 5 72 20 9 133 63 20 20 20 143 20 115 8 54 0 131 139 26 20 20 0 145 18 9 109 24 56
split_gain=7768.64 4626.38 2281.36 905.155 881.211 790.214 637.114 602.294 600.656 711.376 634.588 599.703 539.331 495.799 412.222 371.505 276.314 245.889 235.294 307.142 232.121 339.823 278.657 229.962 226.858 223.628 221.852 296.54 205.985 197.321 207.136 179.565 179.53 194.501 189.187 176.837 269.384 169.448 169.775 166.656 173.742 295.974 291.163 163.367 161.772 160.716 152.275 152.099 151.893 151.428 151.322 149.245 147.569 144.43 138.276 137.956 135.373 130.559 129.666 129.493 123.186 121.675 118.626 118.012 117.863 117.701 127.386 118.685 114.936 113.048 109.746 104.164 122.509 103.609 103.564 100.116 99.4335 97.7007 96.2955 94.1831 92.6166 92.1659 86.4609 85.7658 85.395 84.8099 133.724 83.9423 83.0043 80.0006 79.982 128.3 79.9412 79.1601 78.8405 78.3022 75.4836 141.961 74.2981 76.1047 73.8635 73.0677 72.7954 71.3829 70.9667 69.913 69.2925 68.4667 67.1692 67.035 66.1392 66.0642 65.9519 65.5749 65.1907 64.7683 64.6257 64.5069 64.2581 63.8275 63.2103 61.1604 78.3783 61.4194 56.0133 109.393 59.3136
threshold=12.500000000000002 0 1193.5000000000002 1.0000000180025095e-35 1 2 19.500000000000004 3 4 5 6 93.500000000000014 4.5000000000000009 7 1.0000000180025095e-35 6.5000000000000009 8 9 10 11 12 13 1386.0000000000002 14 15 16 3543.0000000000005 17 18 19 20 21 22 23 24 26.500000000000004 25 26 27 28 29 1.0000000180025095e-35 30 31 32 33 28.500000000000004 34 35 36 37 38 39 40 6.5000000000000009 41 458.50000000000006 48.500000000000007 812.50000000000011 42 93979.000000000015 43 44 35788.500000000007 78.500000000000014 45 25.500000000000004 46 47 48 49 50 3607.5000000000005 0.82438609679738173 1025.0000000000002 51 707.50000000000011 52 4.5000000000000009 53 54 55 85757.500000000015 45.039854635702902 56 57 58 59 78007.000000000015 35152.000000000007 1.0000000180025095e-35 60 13638.500000000002 61 62 18214.500000000004 1386.0000000000002 14006.000000000002 63 64 1386.0000000000002 65 66 1.5000000000000002 67 68 69 70 71 72 73 74 50819.500000000007 75 10.500000000000002 76 77 78 79 80 34.500000000000007 81 50.145213498622589 7.5000000000000009 82 83 84
decision_type=2 9 10 2 9 9 2 9 9 1 1 8 2 1 2 2 1 9 1 1 1 1 10 1 1 1 10 1 9 1 9 1 1 9 1 2 9 9 1 1 1 10 9 9 9 9 2 1 9 1 9 1 1 9 2 9 10 10 10 9 8 1 1 10 8 1 2 1 1 1 9 9 8 8 10 9 10 9 2 9 9 1 8 10 1 1 9 9 10 8 10 1 10 9 1 8 8 10 9 1 10 1 9 2 1 1 9 9 9 1 9 1 10 1 2 1 1 9 9 9 2 1 10 2 1 1 1
left_child=1 5 4 8 11 37 7 71 49 10 54 50 16 -12 17 29 45 82 25 79 22 46 59 53 74 60 107 64 -29 73 104 83 34 65 98 87 -37 38 106 61 52 69 -43 -27 -33 92 88 75 100 113 -3 -35 63 -11 -10 -49 -26 58 -47 81 -13 -14 -32 -41 -28 66 -34 -67 -58 -42 -25 90 -73 77 101 -36 -59 -6 -51 -20 -21 -16 111 -23 -50 86 -24 120 -22 102 -2 115 -7 -54 -40 -53 97 -74 -5 -100 116 -19 -39 109 -31 -86 -1 -17 -87 -52 -105 -9 -94 118 -63 -92 -18 -80 -4 -116 -8 123 -123 -96 125 -122 -126
right_child=6 2 3 32 15 12 35 14 9 23 13 18 39 -15 20 26 48 24 19 80 21 31 85 70 56 43 27 28 -30 30 62 44 33 51 47 36 -38 89 94 40 41 42 -44 -45 -46 57 -48 55 84 78 103 95 93 -55 -56 -57 68 76 -60 -61 -62 114 -64 -65 -66 67 -68 -69 -70 -71 -72 72 96 -75 -76 -77 -78 -79 117 -81 -82 -83 -84 -85 105 108 -88 -89 -90 -91 91 -93 112 -95 121 -97 -98 -99 99 -101 -102 -103 -104 110 -106 -107 -108 -109 -110 -111 -112 -113 -114 -115 119 -117 -118 -119 -120 -121 124 122 -124 -125 126 -127 -128
leaf_value=0.036392607124335397 0.14853811578915158 0.024488457316129961 0.070836555278786115 0.053948575137969614 0.012284240201763465 0.036042642321292069 0.17092403511988719 0.076149622399792616 0.073454258852902118 0.13901442125768801 0.082808902410418161 0.042306735933345586 0.12518790820091286 0.035071703429294075 0.079537246523271626 0.18016671210479787 0.14132587600730759 0.080509329274604774 0.0060345332074795638 0.015078840045123408 0.079840463457766436 0.16346348659275711 0.11991865587265199 0.10638370295108578 -0.07967639108865518 0.03253071322920436 0.14924492060692771 0.073611580062075549 0.013539768011588621 0.024088753974417367 0.040050487816596259 0.13578866937525222 0.064942109379246382 0.021890383049912077 0.012179438410262464 0.15497717041956111 0.015414216231056058 0.14429412462710361 0.085079316335023525 0.134757571259154 0.11822914284910371 0.088072640611205219 0.02527571659949035 0.1277590403784446 0.098530006106014228 0.076482248239865686 0.071596537665573126 0.093184477207719885 0.066407567634972825 0.062342252389574887 -0.016260880558482155 0.040648988521659372 0.047497813655894908 0.076876803770535018 0.10041051795011209 0.14335549739913989 0.10758942705169015 0.12932980632077731 0.0071734745237597465 0.09398262244962087 -0.045662726814764368 0.15138741691997759 -0.02400641827713473 0.096227320301312966 0.083112316017485463 0.081594142228375632 0.10884979976104299 0.1142537173995611 0.038038780368641285 0.098827694473997418 0.048625925238348827 0.10518290018744009 0.1274536952378483 0.0063467690514540549 0.11061930829777118 0.099375489226906588 0.08914151413112581 0.098656794221333555 0.0063862430258956968 0.046073982808187308 -0.036524636028738844 0.013154531166080683 0.069625925182160875 0.13452866477838094 0.061785474152646805 0.077604806535968879 0.053546749475527122 0.13627852846106855 0.11968497647882459 0.15165507267727657 0.16775862157869084 0.11431044134462054 0.078948650212281535 0.10320975483395423 0.11787142534218434 0.082065123464716422 0.14035950065750349 0.038595594686419599 0.12444287096367501 0.081821247037871747 0.15186126584543824 -0.019361950478304548 0.11966083205611895 -0.081002343956884104 0.11154646137755478 0.12072002779733355 0.093154371292480415 0.085325872292488225 0.1253644104141724 -0.095042651494463948 -0.019049945636059284 0.14551964070080284 0.054780269854897583 0.099468274189788083 0.12267437343593013 0.13141151856239211 0.095694954377867278 -0.037749648071368692 -0.023444901565228188 0.088019538568557876 0.13302845565295082 0.087354918974133042 0.13071851973904908 0.16778903198362455 0.11914359316742368 0.17747585133786103 0.14974442246204764
leaf_weight=389.42319217324257 6586.1579117178917 312.79128655791283 144.99670687317848 683.35798464715481 179.93485023081303 808.83040723204613 2117.912734568119 162.31113077700138 5164.9880004525185 2010.7033352553844 2901.3836018145084 684.29056013375521 6474.5284968018532 8698.1485926657915 350.03068159520626 257.3374111354351 508.5123085975647 220.66348618268967 875.82114473730326 492.98922897130251 635.65375862270594 2298.198655501008 766.95398204028606 660.93134322762489 84.25973080098629 310.00895931571722 499.12007239460945 1497.3755920678377 945.89052534848452 152.72842469066381 400.65094916522503 4113.8813148066401 1934.2897099107504 579.79907512664795 172.7815282791853 296.56080052256584 270.88528457283974 2814.1543454453349 560.41838118433952 3529.7469313293695 4725.7524115145206 5840.6919982880354 877.67534074932337 517.56302168220282 2075.326552182436 1190.8778170719743 1211.2472697794437 942.4255381077528 1008.4008722230792 204.29354541003704 138.34433644264936 529.8275638371706 357.01918479055166 578.27784089744091 3013.0715491771698 2382.4665475338697 288.44803110510111 675.10305713117123 349.04612521082163 984.0293502882123 207.43821273744106 251.37672367691994 1038.3415040150285 1025.9756332337856 585.77110189199448 1565.7429765462875 1003.575565546751 3845.4323256462812 1348.0032807588577 8239.7165997028351 782.19901620596647 2181.0383343920112 13285.059695467353 232.72224736958742 1194.0976063013077 845.86578667163849 6990.7890232726932 669.2114020511508 829.39469744265079 1862.5493367612362 1153.0818987190723 519.65853288769722 252.11523698270321 1848.255307033658 264.49326302856207 463.57403819262981 599.29246163368225 5549.6024360358715 2945.772593870759 2061.0240839123726 973.51580840349197 2208.6874579340219 3050.9802782312036 2155.2618605419993 437.73779465258121 3298.1174675822258 5278.6957795321941 182.26086923480034 634.84447076916695 1231.8462791442871 813.86735735833645 109.66190573573112 4590.3324051648378 224.12230811268091 236.3777407258749 842.32330260425806 640.51952528953552 207.80181165039539 3829.9141062349081 492.52465483546257 739.52800564467907 890.38108022511005 1792.4402588680387 236.80504794418812 962.64954882860184 987.61008729040623 796.56588437408209 540.41330587118864 131.26302525401115 2392.860234811902 829.12526328861713 649.21410313248634 1164.3984603136778 564.17599636316299 794.11382651329041 1667.1007749438286 3130.0825245678425
leaf_count=1353 12201 2018 530 2258 785 3011 3173 554 18474 5843 11251 2966 14689 39874 1070 536 1338 718 4385 2796 1898 3854 1820 2153 570 1219 1084 5786 4210 871 1865 8482 6756 2214 667 572 982 6488 1654 7766 11649 16694 3853 1539 4960 4063 3676 2595 3360 790 1150 1874 1112 2084 8648 5472 713 1584 1633 2926 1066 508 6150 2689 1752 4940 3070 10744 5586 21647 2968 5231 27241 1016 3013 2653 22394 2438 3742 8377 7214 1914 842 3745 876 1290 1838 10572 6798 4555 1508 5171 10322 5761 1158 10498 9789 792 1659 3792 1823 535 11590 1818 936 2186 1891 607 8927 4666 5088 2331 6490 731 2217 1946 2457 2668 592 6241 1659 2015 3109 1038 1623 2213 5377
internal_value=0 0.867758 0.664826 0.776091 0.325478 1.0433 1.27432 1.22788 0.653293 0.69828 0.620527 0.0992575 0.989429 0.470122 1.11561 0.587006 0.853206 0.841354 0.252327 0.129377 1.17121 1.24257 1.02754 1.08139 0.686083 0.565864 0.785888 0.700305 0.50712 0.316102 0.115779 1.34462 0.937925 0.86766 1.06795 1.46089 0.913559 1.25963 1.08244 1.06031 1.01901 0.970724 0.800377 0.940233 1.23674 0.788985 1.02247 1.19488 1.07856 0.136093 -0.390071 0.690147 1.1535 1.25969 0.833858 1.29846 0.439335 0.872484 0.607724 0.691032 0.218429 1.16988 -0.0612881 1.2608 1.13538 0.9594 0.79941 1.04804 0.502981 1.05899 0.761522 1.32346 1.27553 0.6546 0.969104 0.856805 0.926807 0.816609 -0.0170333 0.334583 -0.212 0.394189 1.21297 1.50566 0.870464 1.13775 0.920748 1.48294 1.12613 1.34088 1.41545 1.30839 0.650295 0.958924 1.19332 0.763327 1.30224 1.26251 0.851743 0.958032 1.27616 0.473539 1.29379 -0.512947 0.752836 1.06637 0.729505 1.43504 1.2068 -0.777665 -0.344969 1.34824 0.700045 0.608542 1.02269 1.49454 1.13475 -0.112551 0.277548 0.985894 1.55761 1.2615 1.15196 1.4598 1.51001 1.62713 1.43552
internal_weight=0 130258 60461.6 45547.2 14914.3 69796.9 73530.1 58874.8 25896.9 23809.7 19777.6 8011.05 55925.5 11599.5 27191.7 6903.26 19092.2 4549.94 6103.74 4384.44 22641.8 15128.3 7513.45 4032.11 3245.13 1719.3 3993.3 3528.16 2443.27 2909.97 1828.1 10335.7 19650.4 12756.8 6893.59 14655.4 567.446 13871.4 4405.89 36833.3 26751.8 19683.8 6718.37 827.572 6189.21 14858.1 4792.67 4343.54 4234.16 2087.17 1907.31 4407.74 7068 2588.98 8178.06 3324.89 1720.71 9205.82 1539.92 1853.72 891.729 10081.4 1438.99 4555.72 1084.89 8349.04 2937.87 5411.18 1636.45 12965.5 1443.13 31683 20927.1 1081.87 1524.42 1018.65 7665.89 849.146 1574.1 2738.37 1646.07 869.689 1304.81 4146.45 2115.22 5659.73 1366.25 14087.9 3581.43 9465.51 10756 4169.81 5652.25 2512.28 3375.94 3827.95 18746 13467.3 2550.05 1866.69 2118.95 330.325 7404.49 1594.52 389.106 1106.82 1029.94 465.139 4293.49 630.869 963.65 1052.69 4843.42 513.065 3606.89 1961.13 1305.08 1369.81 276.26 3355.51 8538.34 2815.53 1813.61 1001.91 6420.42 2496.23 3924.2
internal_count=581202 423092 231878 159540 72338 191214 158110 131939 100348 91295 78247 44302 156363 51125 68060 28036 61537 14862 29562 22772 53198 33413 19785 13048 11135 6790 13975 12832 9996 14061 9822 21041 59192 40096 19096 26171 1554 34851 12218 94826 71171 53843 20547 2758 13442 49497 12372 11387 12040 9053 14740 14586 17328 7927 27122 8067 6869 29674 5696 5910 4032 23655 8015 10455 2836 25510 9826 15684 6299 33296 5121 63879 43053 4239 4266 3320 23978 3223 7200 12762 10010 2984 3727 7599 6422 13875 3658 24617 8696 22633 20826 8625 19823 6873 8974 12372 37822 28033 7709 5451 5618 1253 18078 12722 1807 3062 3244 1143 10217 5816 6906 2885 16812 1853 8966 3454 3795 6410 1122 8458 14045 7320 5124 2196 10872 3872 7000
cat_boundaries=0 1 2 3 4 5 6 7 8 9 12 13 14 15 16 17 18 19 20 23 24 27 28 29 32 33 35 47 48 49 50 51 54 56 59 60 62 63 66 67 68 70 73 76 77 78 79 80 81 82 84 87 89 92 95 97 98 99 100 103 105 106 109 110 113 114 115 117 118 119 122 125 128 129 131 132 133 134 135 138 140 143 144 145 146 147
cat_threshold=56 64 25 56 2 2 2 2 2 6303744 1611940368 2 2 2 2 2 2 2 2 2 59392 3938856 2 2 2113536 3223330840 3 2 2 8429568 1613771323 2 2 2048 537602 0 0 0 0 0 0 0 0 0 0 0 8192 2 2 2 24 2160099328 1076894758 2 6307840 1614298666 12632064 2153279548 2 2 8192 2155359763 2 2147516416 3758620692 2 2 2 2147500032 540816939 2155894784 1075317768 2 2155894784 539237376 3 2 2 2 2 2 2 2097152 798766 2117632 2147765810 1 14684160 1075077144 2160082944 1074814981 2 10534912 2150385704 1 2153775104 3759407622 2 2 2 2147516416 3692577 2 2149588992 539777570 2 14725120 16405 1 2 2155880448 3223347256 3 2 2 2151698432 537396770 2 2 8409088 1612200984 2 2147485696 537408000 2 12582912 1077952521 2 2 4194304 3162657 2 2 2 2 1073741824 0 67108864 2147508224 3160124 2147500032 16931 1 2 2 2 2
shrinkage=0.1


Tree=6
num_leaves=128
num_cat=54
split_feature=9 6 29 6 6 29 10 9 63 24 123 28 11 29 5 111 9 5 29 6 28 17 10 6 9 29 72 6 0 9 4 19 6 2 139 6 80 29 9 71 29 10 11 11 144 18 111 17 4 28 10 10 121 116 15 8 133 11 58 6 8 0 0 8 6 7 123 13 17 144 9 14 116 103 9 7 144 9 107 7 116 68 15 15 9 143 8 9 10 24 123 50 16 6 28 8 123 11 85 6 28 8 7 3 144 137 2 58 6 144 85 129 56 136 66 9 139 11 16 125 0 19 14 6 19 16 9
split_gain=6064.73 3507.63 1897.8 1461.15 1208.66 679.353 531.491 440.286 429.753 489.59 635.599 412.466 338.038 318.203 568.126 298.829 281.694 269.635 243.865 232.596 227.381 283.48 193.85 190.529 183.875 169.546 165.513 156.423 155.223 156.154 147.807 142.704 142.631 142.322 179.154 197.048 137.529 135.112 133.935 150.422 120.069 110.101 121.769 115.555 108.386 106.616 105.257 102.066 101.744 99.6205 99.4909 97.1678 93.0392 91.3731 89.2518 88.8954 87.6009 123.787 85.5343 83.7152 82.2179 78.7818 78.631 78.2316 77.3974 76.6673 94.455 76.5492 74.2103 71.0322 95.1106 70.9244 68.2878 67.9256 86.5509 67.5396 67.4318 67.0233 65.8154 65.5006 64.4498 62.7119 62.2484 61.993 59.8922 69.4416 87.4239 58.2759 57.9682 78.7469 82.959 56.4564 56.1046 56.1006 55.8378 54.7921 54.5461 54.3893 53.6703 62.9094 53.1506 51.6958 49.7641 49.6809 49.1425 48.8627 48.7364 47.3618 47.1983 46.7428 54.379 46.6567 46.4409 45.303 44.8735 45.164 44.7727 44.5761 43.7102 43.4099 43.1409 42.6881 42.1229 40.7894 38.794 38.1681 37.9269
threshold=11.500000000000002 0.15500000000000003 0 0.095000000000000015 0.13500000000000004 1 1.0000000180025095e-35 16.500000000000004 2 3 4 5 1.0000000180025095e-35 6 175.50000000000003 7 17.500000000000004 559.50000000000011 8 0.16500000000000004 9 537972.50000000012 1.0000000180025095e-35 0.075000000000000025 4.5000000000000009 10 11 0.25500000000000006 4.5000000000000009 6.5000000000000009 4106.5000000000009 12 0.045000000000000005 29.500000000000004 13 0.16500000000000004 14 15 6.5000000000000009 16 17 3.5000000000000004 1.0000000180025095e-35 163.50000000000003 18 50.767191142191159 19 458904.00000000006 296.50000000000006 20 5.5000000000000009 1.5000000000000002 21 22 7137.5000000000009 36501.000000000007 23 1.0000000180025095e-35 24 0.045000000000000005 59922.500000000007 4.5000000000000009 42.500000000000007 53503.000000000007 0.12500000000000003 0.76500000000000012 25 45.129080612924724 8775.5000000000018 26 20.500000000000004 0.65850197290998469 27 28 12.500000000000002 0.87500000000000011 29 1.5000000000000002 30 0.77500000000000013 31 32 42855.500000000007 7523.5000000000009 19.500000000000004 33 32845.500000000007 7.5000000000000009 3.5000000000000004 34 35 36 138.50000000000003 0.045000000000000005 37 17844.500000000004 38 75.500000000000014 39 0.15500000000000003 40 18597.000000000004 0.66500000000000015 2093.5000000000005 41 42 25.500000000000004 43 0.24500000000000002 44 45 46 47 48 49 1.0000000180025095e-35 50 1.0000000180025095e-35 1415.0000000000002 51 8.5000000000000018 52 0.78393133517043534 0.14500000000000005 53 608.50000000000011 20.500000000000004
decision_type=2 10 9 8 10 9 2 2 1 1 1 9 10 9 10 1 2 10 9 10 9 10 2 8 2 9 1 10 2 2 10 1 10 2 1 10 1 9 2 1 9 2 10 8 1 10 1 10 10 9 2 2 1 1 10 8 1 10 1 10 10 2 2 8 10 10 1 10 10 1 2 10 1 1 2 10 1 2 1 8 1 1 10 10 2 1 8 2 2 1 1 1 10 10 9 8 1 10 1 10 9 8 10 2 1 1 2 1 10 1 1 1 1 1 1 2 1 10 10 1 2 1 10 10 1 10 2
left_child=1 2 11 12 5 17 8 18 9 37 -11 30 25 14 -3 22 19 51 72 40 61 -22 59 54 47 48 33 38 -13 52 79 64 67 34 35 -16 76 -5 39 92 56 42 109 69 -34 -36 63 55 -4 -38 84 73 71 62 97 -8 57 -6 -53 -14 77 -10 -31 -44 -26 112 -67 -17 95 70 -43 -30 -7 -2 -75 -54 -25 -27 -59 100 -48 -24 87 119 85 86 -19 118 98 116 -91 -45 101 -56 -85 -41 -55 -20 -18 -100 117 -15 -60 -52 -33 -49 -94 -70 120 110 -9 125 -58 -50 -28 121 -90 -1 -32 -74 -21 -116 -35 -102 -87 -101 -92
right_child=4 13 3 6 16 7 24 41 20 10 -12 28 15 27 26 32 88 50 23 108 21 -23 81 36 31 60 114 -29 29 53 82 104 44 122 45 -37 49 -39 -40 68 -42 43 46 91 -46 -47 80 105 113 -51 103 58 75 96 93 -57 65 78 102 -61 -62 -63 -64 -65 -66 66 -68 -69 107 -71 -72 -73 83 74 -76 -77 -78 -79 -80 -81 -82 -83 -84 94 -86 124 -88 -89 89 90 126 -93 106 -95 -96 -97 -98 -99 99 111 123 -103 -104 -105 -106 -107 -108 -109 -110 -111 -112 -113 -114 -115 115 -117 -118 -119 -120 -121 -122 -123 -124 -125 -126 -127 -128
leaf_value=0.1292232384226483 -0.073964952400167025 -0.069191377758081915 0.13489162525117707 0.046726589133684722 0.10400101752599247 0.082681764433705396 0.060581298446943335 0.16479845581403596 0.08494278495465632 0.073823831466069606 0.0020464720719887883 0.12938549244686764 -0.083077316370166576 0.10015552866263422 0.062302108365575738 -0.037399076749523419 0.142050780257332 0.056932090500674895 0.093042567334993359 0.14157759429620376 0.055158717464856136 0.090413679348312459 -0.070952395991755859 0.079913531368185395 0.073523626131802397 0.0060345732835001484 0.090567559736658948 0.12369933481913115 0.017367481411594679 0.11439548831765578 0.089070116644333175 0.047114133491872413 0.0025283803023082013 0.083658548586807019 0.053812948540653743 0.12068175032761166 0.064917392970832627 0.078899115472381598 0.10729120525979328 0.12220033837913472 0.11736227841584253 0.087128965178790249 0.074654846148978521 0.13069033031456745 0.045303951836073698 0.091716799089032783 0.05492879403937008 0.12420613745150207 0.079809624966532919 0.087938228983889422 0.13498068671984309 0.085666556650409925 0.067991672243803633 0.098563829884626225 -0.03460433614957948 0.021347447040338009 0.079952272565802951 0.09862024951224041 -0.031659706327539901 -0.032773558787856268 -0.0031888755987421616 0.013226868320433982 0.052009059801478241 -0.0048263747317908445 0.09225872507434256 0.13039577557053689 0.10048828755893711 0.029431425258600652 0.10455436637394876 0.13864538628964951 0.15112007740189942 0.056912125251984441 0.075372774978394813 -0.06252256782603785 0.048775502487516061 0.10964342235158953 0.11866958778562163 0.041905755783205691 0.058055777636910014 0.053681773322035643 0.1033672575115217 0.02469628582442325 0.076986689681894219 0.13740208585778801 0.10644048102043756 0.075124035180149942 -0.031698931956756458 0.13678692913018672 0.13666191092333488 0.15243227950468183 0.12081862530566211 0.10364540102196347 0.082866856032387887 0.033516094526680112 0.10591604129449608 0.081572259980482245 0.080902106302562116 0.018666849858213846 0.10139527921669689 0.11883572676959087 0.079086571108332074 0.062622249293723051 0.048303665132746032 0.070742944724211693 0.070188521709914228 0.066718079399658833 0.10023119156758503 0.12994583901187243 0.13617549018918815 0.099319755271957078 0.11834874162772169 0.11663352729897901 0.10452560789449278 0.041848543140206772 0.11043248117833684 0.11954482356353507 0.11519486355842506 0.086557403784799675 0.1207554559874118 0.10238099912143304 0.11836489953914019 0.049191239969021902 0.12259713708994212 0.1120155480881448 0.039187760310586482 0.15639197043316125 0.14395085159406981
leaf_weight=739.86594985425472 170.48414793610573 240.3560353666544 170.21207992732525 4352.2237002849579 2067.0904621481895 1443.4695987999439 1099.4162309989333 316.30551798641682 178.40077176690102 1602.7292647063732 5357.9993988648057 499.42878779768944 520.4588885307312 474.46642234921455 1028.8101277649403 593.34241958707571 1038.8493736982346 278.63768585026264 343.81186561286449 855.22725868225098 5784.9931983649731 3765.2459092587233 77.361963346600533 643.27971738576889 3774.7159550264478 730.62700487673283 1656.5953052639961 3147.8394360989332 565.43345573544502 234.86457398533821 670.92470601201057 1454.2482822537422 937.80188121646643 421.23401086032391 3768.0274402648211 1319.9095866978168 3590.616327226162 1982.8139141499996 13226.339060902596 439.4041411280632 6110.9121755957603 692.14938533306122 364.52129709720612 955.85441505908966 1608.0706858709455 924.07835654914379 320.72767539322376 204.88469864428043 449.99717251956463 5100.8534074127674 312.66479067504406 225.30623871833086 7282.1540926545858 2523.6640501320362 170.68871536850929 1216.536167666316 1439.7995142936707 550.69744202494621 170.23934505879879 907.99264057725668 926.14298839867115 1083.3958407044411 1445.0565405935049 187.55527596175671 5302.5675802081823 1897.0754759609699 2381.8620377779007 241.01021732389927 1462.6552942097187 3218.6744223684072 349.57763765752316 2292.0155321508646 787.2496834397316 114.51280370354652 179.22869642823935 411.29479883611202 1485.9939311146736 1814.3680388405919 1461.4301760345697 466.29862713813782 1913.610576108098 601.62944983690977 359.00458824634552 1072.8537572920322 260.32256227731705 1138.5836029350758 185.30217544734478 1347.4879270642996 1533.0475667715073 3080.309392824769 1956.236850515008 4009.9859721809626 4005.4665849804878 414.4335865676403 3437.2343399971724 1357.3268151283264 5693.8762495964766 137.70132522284985 1696.5202997475863 447.44268634915352 2268.7033060342073 1619.5845066606998 143.37309394031763 195.78400602936745 2526.5522491782904 531.12253998219967 2709.9019854813814 1475.8110282570124 2039.5738786458969 916.3454158231616 1240.4400058239698 2235.8468410819769 1650.955774769187 1043.1172142028809 269.66983872652054 1775.7719617486 2652.6601055264473 366.013128221035 1240.1157086789608 2438.3234329521656 12544.125450834632 196.94527155160904 815.98050430417061 450.94833666086197 408.05919548869133 684.70058289170265 1111.4993027448654
leaf_count=1735 1112 1576 516 16407 4617 3489 4066 529 579 5581 28347 1181 4942 1253 3552 4435 1693 923 1004 1431 21636 12413 593 1814 12007 3981 4391 5671 2166 572 1921 5010 4986 1212 12854 3337 10806 6022 28145 960 11930 1552 1064 1557 6771 2880 963 577 1566 13440 653 763 23583 6052 937 5076 3521 1425 817 5912 4794 4524 4249 708 14336 3295 5675 1540 3488 4998 502 7899 2091 761 772 1099 3230 8213 4493 1453 4524 3116 990 1965 577 3365 734 2766 2379 3891 3351 8458 10791 1595 7294 3479 15549 569 3635 760 7012 4783 530 519 7629 1809 6868 3125 3169 2070 2607 4027 3659 4004 726 4231 4863 1057 3040 5687 23430 662 2245 1123 1337 1043 1535
internal_value=0 0.736156 0.612589 0.495952 1.07969 0.948878 0.583174 0.991866 0.4892 0.3688 0.185734 0.817622 0.166175 0.968768 0.829894 -0.00638083 1.18378 0.540772 0.899865 1.1305 0.637259 0.68986 -0.301918 0.801415 0.723801 0.350602 0.860614 1.02579 0.742691 0.729593 1.01489 0.77545 0.177875 0.780601 0.725637 0.951097 0.841838 0.569946 1.00133 0.931438 1.05178 1.12635 1.01088 1.19217 0.295471 0.612779 0.86753 0.502816 0.612715 0.786037 0.702603 0.0977866 0.644955 0.819818 0.398854 0.399723 0.984855 0.868142 0.386643 -0.511018 0.222594 0.231828 0.607311 0.476529 0.844679 1.05079 1.13748 -0.180945 1.07518 1.313 1.08603 0.49087 1.02537 -0.237546 0.0538683 0.702184 1.06961 0.316077 0.691578 0.890664 0.964142 0.137984 1.16507 1.06375 0.613079 0.554643 0.21532 1.20861 1.29073 1.33637 1.4084 1.08851 0.854176 0.136444 1.13945 0.915082 0.863261 0.717729 1.21346 1.17099 0.933795 0.711265 0.0489687 1.10245 0.617591 0.827212 0.89874 1.17307 1.22004 1.17239 1.27787 1.25009 0.930783 0.532893 1.03049 1.1227 1.23057 1.14071 1.09631 0.957892 1.19846 0.845843 1.0934 0.842368 0.656428 1.41549 1.292
internal_weight=0 122033 79697.1 50840 88770.6 39334.8 40217.8 35552.3 24107.8 13295.8 6960.73 28857.2 10622.1 42336.2 12417.4 5487.67 49435.9 3782.5 21066.5 32998.7 10812 9550.24 2107.44 11887.4 16110 5134.46 12177 29918.8 20947.8 20448.4 7909.36 13058.1 3380.23 8278.04 7040.83 2348.72 10820.7 6335.04 26771 13544.6 17559.8 14485.7 5259.51 9226.24 2545.87 4692.11 2786.41 3051.96 1663.33 8691.47 2779.35 1003.14 10550.9 9897.46 1066.64 2315.95 11448.9 4079.22 538.919 1428.45 3471.14 1261.8 1679.92 552.077 9077.28 7369.69 4278.94 834.353 4735.2 4260.4 1041.73 2857.45 9179.13 464.226 293.742 7693.45 2129.27 2545 2012.13 4291.83 2234.34 678.991 3617.53 7735.66 2270.91 2010.58 463.94 3258.53 16437.1 10333.8 6148.05 4965.84 8809.42 585.122 4510.09 1796.73 8217.54 481.513 6103.36 5064.51 3825.53 2094.05 313.612 508.449 3980.8 736.007 6715.37 2938.47 15438.9 2473.09 1556.75 3367.99 3090.76 1493.11 3898.98 2242.39 4185.71 1105.88 1911.04 3225.57 13399.4 466.615 1237.21 2719.65 1546.64 1132.14 3067.74
internal_count=581202 391064 284835 201388 190138 96316 146019 83453 95509 56357 33928 83447 55369 106229 37666 32295 93822 12863 53921 66645 39152 34049 14563 33395 50510 23074 36090 68563 62350 61169 21097 38982 17732 26080 22623 6889 29290 22429 62892 34747 38615 29532 12465 17067 11757 15734 7259 11528 6086 24246 8108 4755 34747 26422 4105 9142 26685 10535 2110 10854 16988 5103 4821 1772 26343 16150 8970 5975 11052 7052 2054 10065 20526 2645 1533 24682 5044 12194 5918 12380 5487 3709 8717 17037 6936 6359 1657 7727 27177 16019 8777 10015 23695 2532 9259 4439 21601 1573 11158 9465 10927 6036 1347 1172 12639 2386 17659 6613 28030 5206 3136 5830 7180 5570 10010 5619 7242 2792 4961 7778 24861 1388 3457 8135 4702 1803 4886
cat_boundaries=0 1 2 3 4 5 6 7 8 9 10 11 12 13 14 15 16 17 18 19 20 21 22 23 24 25 26 27 28 29 30 31 32 33 34 35 36 37 38 39 40 41 42 43 44 45 46 47 48 49 50 51 52 53 54
cat_threshold=24 64 2 2 2 29 66 2 24 2 32 2 2 2 2 66 2 98 2 2 216 2 2 2 2 2 2 2 2 2 2 2 2 2 2 2 2 25 2 2 1 2 2 2 2 2 2 2 2 2 2 2 2 2
shrinkage=0.1


Tree=7
num_leaves=128
num_cat=93
split_feature=10 29 3 127 24 16 145 71 56 10 109 97 28 97 28 11 11 28 20 29 127 24 20 28 97 24 20 58 45 5 29 20 16 3 10 123 20 16 28 20 61 20 123 20 8 123 20 1 8 3 117 20 133 11 20 121 12 88 52 20 11 117 8 72 93 56 8 120 20 20 128 60 63 50 123 29 5 20 85 24 115 20 20 10 20 145 145 1 8 11 20 20 11 20 134 20 41 20 69 88 11 121 8 134 20 20 28 29 121 135 86 143 13 3 83 14 121 11 64 109 20 1 86 115 10 20 20
split_gain=2964.29 3338.51 1453.42 727.389 1346.24 1170.73 913.166 502.472 472.059 408.331 393.038 354.081 293.658 293.195 265.162 236.593 235.361 225.106 219.398 210.145 205.096 585.003 201.787 187.62 193.445 183.34 169.551 168.738 163.546 160.768 155.647 152.087 149.438 149.124 139.89 137.492 138.008 134.033 130.897 129.701 128.868 128.255 124.523 123.071 120.287 118.217 119.602 115.912 113.42 137.651 113.122 112.745 109.779 115.651 109.623 108.787 108.422 107.597 107.41 103.773 103.341 101.725 98.6034 97.0366 136.073 100.893 114.832 95.5966 121.506 94.8446 91.1767 96.9369 90.2995 88.6333 168.643 87.5931 135.951 97.3879 87.0511 86.6658 86.6181 95.0352 85.1431 87.6298 83.8289 82.36 80.3758 80.0697 79.1716 75.9148 74.9164 74.113 73.1205 111.838 72.0505 72.04 71.0725 70.8972 70.5986 68.6748 67.7478 66.5844 66.4016 65.8603 62.8456 62.723 61.8748 58.779 58.0162 57.2686 57.1283 56.8252 51.3004 50.6511 49.9235 49.4677 79.3389 48.0948 47.8 64.7952 116.943 47.3691 46.8775 46.7673 46.4989 90.4618 46.3091
threshold=2.5000000000000004 0 728.50000000000011 1 2 8495.0000000000018 3 4 5 7.5000000000000009 6 7 8 9 10 79.500000000000014 1.0000000180025095e-35 11 12 13 14 15 16 17 18 19 20 21 22 412.50000000000006 23 24 68.500000000000014 1905.5000000000002 4.5000000000000009 25 26 236.50000000000003 27 28 29 30 31 32 14024.500000000002 33 34 1335552.5000000002 12137.500000000002 2412.5000000000005 35 36 37 186.50000000000003 38 39 14608.000000000002 40 41 42 150.50000000000003 43 467370.00000000006 44 45 46 17204.500000000004 47 48 49 50 51 52 53 54 55 3151.5000000000005 56 57 58 59 60 61 5.5000000000000009 62 63 64 91885.000000000015 13638.500000000002 44.500000000000007 65 66 1.0000000180025095e-35 67 68 69 70 71 72 73 1.0000000180025095e-35 74 132360.00000000003 75 76 77 78 79 80 81 82 83 16.42120927318296 874.50000000000011 84 0.76323687705947796 85 238.50000000000003 86 87 88 1863146.0000000002 89 90 3.5000000000000004 91 92
decision_type=2 9 2 1 1 10 1 1 1 2 1 1 9 1 9 8 10 9 9 9 1 1 9 9 1 1 9 1 1 10 9 9 10 2 2 1 9 10 9 9 1 9 1 9 8 1 9 2 8 2 1 9 1 8 9 1 10 1 1 9 8 1 8 1 1 1 8 1 9 9 1 1 1 1 1 9 10 9 1 1 1 9 9 2 9 1 1 2 8 10 9 9 10 9 1 9 1 9 1 1 10 1 10 1 9 9 9 9 1 1 1 1 8 2 1 8 1 8 1 1 9 2 1 1 2 9 9
left_child=1 7 32 13 11 6 26 23 17 20 -8 14 79 15 50 45 40 -7 70 27 21 30 -10 47 33 85 -6 42 -21 104 56 57 43 52 75 60 58 -30 -31 115 48 -34 -18 106 -20 46 -4 91 95 -50 -5 -29 53 -25 55 -17 -2 94 -37 108 111 84 -47 65 72 66 -59 68 -58 -46 -15 -72 -65 74 -35 76 77 -33 -60 -9 81 -41 83 -36 -38 97 -27 -16 -56 99 -54 -1 113 -94 -22 -14 -75 -11 105 121 -67 -88 -63 -82 -13 -84 -3 -99 -42 -61 -69 -23 -101 -77 -66 116 -26 -93 119 120 -43 -32 -100 -121 125 -62 -81
right_child=9 2 3 4 5 8 10 12 22 25 -12 29 16 18 87 54 19 -19 44 28 31 35 -24 24 39 86 -28 51 37 38 89 34 41 73 82 36 61 -39 -40 80 59 118 -44 -45 69 62 -48 -49 49 -51 -52 -53 90 -55 88 -57 67 63 78 109 124 102 -64 64 114 100 -68 110 -70 -71 71 -73 -74 96 -76 92 -78 -79 -80 126 103 -83 98 -85 -86 -87 101 -89 -90 -91 -92 117 93 -95 -96 -97 -98 107 122 112 -102 -103 -104 -105 -106 -107 -108 -109 -110 -111 -112 -113 -114 -115 -116 -117 -118 -119 -120 123 -122 -123 -124 -125 -126 -127 -128
