tree
version=v3
num_class=1
num_tree_per_iteration=1
label_index=0
max_feature_idx=141
objective=binary sigmoid:1
feature_names=n_activate_utilnow d_st_ctime d_st_titlelen d_dy_histpv d_dy_recvalidshow d_dy_recread d_dy_recclickrate d_dy_finishrate n_browse_price u_dy_rt_poscnts u_dy_rt_videoreadratio d_st_playtime plateform province city_level is_rest_day is_daytime d_st_contenttype d_st_covershowtype d_st_life d_dy_isexpired position n_context d_st_tag_sjzc u_dy_rt_notclickedtag_sjzc u_dy_rt_readtag_sjzc s_long_labels_sjzc s_short_labels_sjzc d_st_tag_sjcl u_dy_rt_notclickedtag_sjcl u_dy_rt_readtag_sjcl s_long_labels_sjcl s_short_labels_sjcl d_st_tag_sg u_dy_rt_notclickedtag_sg u_dy_rt_readtag_sg s_long_labels_sg s_short_labels_sg d_st_tag_jq u_dy_rt_notclickedtag_jq u_dy_rt_readtag_jq s_long_labels_jq s_short_labels_jq d_st_tag_pc u_dy_rt_notclickedtag_pc u_dy_rt_readtag_pc s_long_labels_pc s_short_labels_pc d_st_tag_tc u_dy_rt_notclickedtag_tc u_dy_rt_readtag_tc s_long_labels_tc s_short_labels_tc d_st_tag_mtsh u_dy_rt_notclickedtag_mtsh u_dy_rt_readtag_mtsh s_long_labels_mtsh s_short_labels_mtsh d_st_tag_mlgl u_dy_rt_notclickedtag_mlgl u_dy_rt_readtag_mlgl s_long_labels_mlgl s_short_labels_mlgl d_st_tag_xc u_dy_rt_notclickedtag_xc u_dy_rt_readtag_xc s_long_labels_xc s_short_labels_xc d_st_tag_ycgs u_dy_rt_notclickedtag_ycgs u_dy_rt_readtag_ycgs s_long_labels_ycgs s_short_labels_ycgs d_st_tag_jm u_dy_rt_notclickedtag_jm u_dy_rt_readtag_jm s_long_labels_jm s_short_labels_jm d_st_tag_kpzs u_dy_rt_notclickedtag_kpzs u_dy_rt_readtag_kpzs s_long_labels_kpzs s_short_labels_kpzs d_st_tag_wxgz u_dy_rt_notclickedtag_wxgz u_dy_rt_readtag_wxgz s_long_labels_wxgz s_short_labels_wxgz d_st_tag_wq u_dy_rt_notclickedtag_wq u_dy_rt_readtag_wq s_long_labels_wq s_short_labels_wq d_st_tag_mn u_dy_rt_notclickedtag_mn u_dy_rt_readtag_mn s_long_labels_mn s_short_labels_mn d_st_tag_zbpj u_dy_rt_notclickedtag_zbpj u_dy_rt_readtag_zbpj s_long_labels_zbpj s_short_labels_zbpj d_st_tag_sp u_dy_rt_notclickedtag_sp u_dy_rt_readtag_sp s_long_labels_sp s_short_labels_sp d_st_tag_ss u_dy_rt_notclickedtag_ss u_dy_rt_readtag_ss s_long_labels_ss s_short_labels_ss d_st_tag_clpc u_dy_rt_notclickedtag_clpc u_dy_rt_readtag_clpc s_long_labels_clpc s_short_labels_clpc d_st_tag_xcjc u_dy_rt_notclickedtag_xcjc u_dy_rt_readtag_xcjc s_long_labels_xcjc s_short_labels_xcjc d_st_tag_qx u_dy_rt_notclickedtag_qx u_dy_rt_readtag_qx s_long_labels_qx s_short_labels_qx d_st_tag_tag_null u_dy_rt_notclickedtag_tag_null u_dy_rt_readtag_tag_null s_long_labels_tag_null s_short_labels_tag_null poscate_0 poscate_1 poscate_2 poscate_3 poscate_4 poscate_5 poscate_poscates_null d_dy_recreadtime d_dy_recavgreadtime
feature_infos=[1:60] [86400:7776000] [5:47] [1:169173] [100:163307] [10:28260] [0.01:0.28490497270673432] [0.041974719773171909:1] [1090:352090] [0:27] [0:14] [30:300] -1:0:1 -1:44:11:33:61:32:37:51:53:41:45:50:13:52:34:43:42:31:65:35:36:14:21:15:62:12:46:22:64:23:63:54 -1:2:3:1 -1:0:1 -1:1:0 -1:1:2 -1:1:0:2 -1:180:365:30:90:999 -1:0:1 -1:0:1:2:3:4:5:6:7 -1:3:1:5:4:11:10:6:7 -1:0 -1:0:1 -1:0:1 -1:0:1 -1:0:1 none none none none none -1:0:1 -1:0:1 -1:0:1 -1:0:1 -1:0:1 -1:0 -1:0 -1:0 -1:0:1 -1:0:1 -1:0:1 -1:1:0 -1:0:1 -1:0:1 -1:0:1 -1:0 -1:0:1 -1:0:1 -1:0:1 -1:0:1 -1:0:1 -1:0:1 -1:0:1 -1:0:1 -1:0:1 -1:0 -1:0:1 -1:0 -1:0:1 -1:0:1 -1:0:1 -1:0:1 -1:0:1 -1:0:1 -1:0:1 -1:0:1 -1:0:1 -1:0:1 -1:0:1 -1:0:1 -1:0 -1:0:1 -1:0 -1:0:1 -1:0:1 -1:0:1 -1:0:1 -1:0:1 -1:0:1 -1:0:1 -1:0:1 -1:0:1 -1:0:1 -1:0:1 -1:0:1 -1:0 -1:0:1 -1:0:1 -1:0:1 -1:0:1 -1:0:1 -1:0:1 -1:0:1 -1:0:1 -1:0:1 -1:0:1 -1:0:1 -1:0:1 -1:0:1 -1:0:1 -1:0 -1:0:1 -1:0 -1:0:1 -1:0:1 -1:0 -1:0:1 -1:0:1 -1:0:1 -1:0:1 -1:0:1 -1:0:1 -1:0:1 -1:0:1 -1:0:1 -1:0:1 -1:0:1 -1:0:1 -1:0:1 -1:0:1 -1:0:1 -1:0:1 -1:0:1 -1:0:1 -1:0:1 none none none none none none -1:1:0 -1:0 -1:0:1 -1:0:1 -1:1:0 none [0:2248987] [0:1298]
tree_sizes=13663 13282 13309 13590 13502 13203 13569 13673 13493 13646 13518 13598 13560 13458 13548 13587 13649 13364 13711 13544 13544 13701 13627 13631 13844 13653 13750 13779 13699 13662 13829 13726 13902 13928 13862 13846 13547 13815 14163 13794 13996 13642 13921 13971 14057 14086 14083 13557 14000 14255 13873 14115 14052 13953 14021 13976 14012 14023 14038 13698 14078 13970 13811 14083 14089 14177 14020 14074 14145 14048 13673 14032 13838 14015 14136 13947 13958 13941 14038 14210 13994 14104 14010 13584 13976 13988 13712 13839 14003 14053 13871 14187 14074 13627 13970 14056 14122 14247 13756 13968

Tree=0
num_leaves=128
num_cat=52
split_feature=9 6 6 22 9 22 140 6 22 126 6 140 126 125 125 22 140 11 6 9 0 9 6 6 6 11 17 0 17 9 126 5 21 21 22 9 11 0 21 67 9 0 126 9 6 9 119 140 17 126 1 22 6 6 119 7 0 11 1 126 9 3 21 21 66 36 9 21 140 6 21 5 13 9 9 21 140 95 1 141 22 66 6 63 6 21 9 10 10 19 21 2 95 66 79 11 126 9 116 9 1 9 10 66 9 140 141 1 3 141 141 13 67 6 97 125 6 13 21 10 6 141 3 126 6 112 1
split_gain=345736 107713 73919.9 50612.2 41639.1 36996.7 57720.5 25306.2 23895.8 22168.1 15186.3 11962.4 10381.7 10043.6 9455.25 11862.1 7653.8 7617.08 7520.94 7230.17 7224.91 6576.01 5777.55 5527.53 4916.67 4238.12 4168.87 4077.04 6328.18 4025.15 3750.04 3547.75 3377.33 3121.55 2789.9 2705.06 2638.09 2359.46 2332.06 2284.02 2222.51 2215.24 2010.11 1992.45 1942.47 1853.83 2001.29 1852.32 1842.12 2468.45 1713.78 1591.95 1565.5 1519.01 1503.46 1490.87 1465.84 1453.29 1380.03 1330.45 1263.67 1234.39 1186.26 1166.7 1164.71 1099.17 1098.21 1095.55 1082.39 1029.41 992.769 971.421 970.444 968.218 960.613 927.937 914.119 909.923 894.041 868.798 859.623 847.447 821.073 816.799 805.773 805.598 803.576 802.57 783.887 762.559 749.725 727.14 707.448 702.135 696.309 695.386 686.338 685.508 649.307 647.75 571.987 566.129 564.14 553.404 548.155 537.763 526.65 522.37 580.748 498.303 492.407 489.972 489.438 484.257 482.051 481.043 480.572 475.239 471.316 463.342 463.106 456.195 454.807 453.033 435.733 431.589 430.465
threshold=8.5000000000000018 0.085000000000000006 0.12500000000000003 0 15.500000000000002 1 47456.500000000007 0.13500000000000004 2 3 0.045000000000000005 136315.50000000003 4 5 6 7 136315.50000000003 77.500000000000014 0.025000000000000005 14.500000000000002 14.500000000000002 2.5000000000000004 0.16500000000000004 0.16500000000000004 0.085000000000000006 78.500000000000014 8 4.5000000000000009 9 3.5000000000000004 10 541.50000000000011 11 12 13 4.5000000000000009 73.500000000000014 4.5000000000000009 14 15 4.5000000000000009 4.5000000000000009 16 3.5000000000000004 0.095000000000000015 4.5000000000000009 17 128137.50000000001 18 19 578211.00000000012 20 0.15500000000000003 0.115 21 0.71500000000000008 1.5000000000000002 81.227526052499329 664772.50000000012 22 19.500000000000004 89198.500000000015 23 24 25 26 16.500000000000004 27 9867.5000000000018 0.16500000000000004 28 518.50000000000011 29 3.5000000000000004 12.500000000000002 30 10833.500000000002 31 1842008.0000000002 21.178849466527684 32 33 0.16500000000000004 34 0.095000000000000015 35 2.5000000000000004 1.0000000180025095e-35 1.0000000180025095e-35 36 37 12.500000000000002 38 39 40 80.500000000000014 41 13.500000000000002 42 11.500000000000002 7775666.0000000009 18.500000000000004 1.0000000180025095e-35 43 17.500000000000004 9407.5000000000018 22.775407311144807 130454.50000000001 12163.500000000002 16.674180443324193 29.479612747075439 44 45 0.025000000000000005 46 47 0.065000000000000016 48 49 2.5000000000000004 0.15500000000000003 33.444237147595366 2178.5000000000005 50 0.16500000000000004 51 1715276.0000000002
decision_type=2 2 2 9 2 9 2 2 9 1 2 2 1 1 1 9 2 2 2 2 2 2 2 2 2 2 1 2 1 2 1 2 1 1 9 2 2 2 1 1 2 2 1 2 2 2 1 2 1 1 2 9 2 2 1 2 2 2 2 1 2 2 1 1 1 1 2 1 2 2 1 2 9 2 2 1 2 1 2 2 9 1 2 1 2 1 2 2 2 9 1 2 1 1 1 2 1 2 1 2 2 2 2 1 2 2 2 2 2 2 2 9 1 2 1 1 2 9 1 2 2 2 2 1 2 1 2
left_child=1 3 8 40 14 7 9 29 19 20 51 12 27 34 15 32 30 73 88 24 72 26 43 35 81 60 -22 -8 -29 41 31 -17 82 86 75 37 42 -9 68 -23 56 -3 74 54 -21 46 94 59 83 87 -43 102 105 -52 -13 66 -1 65 -26 71 96 -35 -39 -42 118 -14 84 110 80 -38 -58 -36 122 112 119 -6 93 124 109 -48 -31 -2 -4 114 -12 -44 -24 111 123 -32 -47 -86 -49 -40 -25 -74 -15 -53 -45 -54 -90 -27 -10 -80 -46 -34 -69 -19 -109 -72 -37 -50 -11 115 121 -99 -83 -89 -60 -16 -77 -20 -7 -5 -18 -87 -79
right_child=2 5 4 18 13 6 11 23 10 17 55 22 57 25 36 16 77 107 48 44 21 39 33 45 58 101 -28 28 -30 38 89 -33 52 61 47 67 69 62 76 -41 63 50 85 98 104 90 79 92 49 -51 53 97 99 -55 -56 -57 70 -59 64 -61 -62 -63 -64 -65 -66 -67 -68 106 -70 -71 78 -73 95 -75 -76 120 -78 126 103 -81 -82 116 -84 -85 91 125 -88 117 100 -91 -92 -93 -94 -95 -96 -97 -98 113 -100 -101 -102 -103 -104 -105 -106 -107 -108 108 -110 -111 -112 -113 -114 -115 -116 -117 -118 -119 -120 -121 -122 -123 -124 -125 -126 -127 -128
leaf_value=-0.14063965927734171 -0.15355062250274212 -0.12886267256350803 -0.10602216820568108 -0.39771700415984523 -0.085919071224051263 -0.28657037694954057 -0.14244083267146337 -0.11365810536837909 -0.38029418577564889 -0.14666793782819507 -0.20465844421529542 -0.14925892343959818 -0.14951177869077795 -0.083740748831688361 -0.12136717190964388 -0.20873950304622405 -0.13135787696735304 -0.1811153290891262 -0.31774057680831364 -0.12982670988948317 -0.24729985214536654 -0.20947598562643605 -0.16409754724031883 -0.11224020536481585 -0.1154625677787714 -0.094695261778580259 -0.3090636499038617 -0.16539031098847534 -0.20989874827655311 -0.13852269365011002 -0.17065986174641029 -0.1520407092774865 -0.1277486537008965 -0.13058788489980885 -0.16533628495280228 -0.13111420832352036 -0.11332595651172245 -0.14184639312180125 -0.15705581841148347 -0.24665868948897146 -0.21384085316418733 -0.14711909724014011 -0.080105890014433079 -0.14119003303465913 -0.11513683915070194 -0.11107441366464132 -0.14570277519697006 -0.10582653256567676 -0.3328521252912725 -0.2325189532260851 -0.18709599821289336 -0.29720733385620968 -0.11517966820469605 -0.1662203227477872 -0.18028824570773389 -0.14477086416473819 -0.22799804803272147 -0.16467861827108882 -0.12338588182853105 -0.095118290955545692 -0.068325690046524917 -0.11357693982838601 -0.15723613345130458 -0.17767731370149115 -0.14510968526676896 -0.11434126228305286 -0.15656987026292554 -0.15061781087971174 -0.13100840081039844 -0.10048532538462673 -0.21664494869458584 -0.12140026285257727 -0.14915633246032711 -0.12045751431995369 -0.095356218088530093 -0.10128768250073672 -0.14814669421212004 -0.10451718551728961 -0.20220263406449179 -0.12981732748599628 -0.15779483569204517 -0.19346227565122831 -0.096440416888481983 -0.21996333423283126 -0.22430195531643543 -0.09772785538849918 -0.13939524034961251 -0.36696106125171907 -0.34757004890837723 -0.11440653674397583 -0.12269733032276375 -0.16506086761635308 -0.089058635912075662 -0.1740918802413865 -0.13196749805325361 -0.2024296825064259 -0.074144382223923277 -0.32866422738162959 -0.16360018448548186 -0.10540048111549086 -0.17205790380578187 -0.085139695761700135 -0.30984148473091366 -0.22446811829862051 -0.1028691470859302 -0.11712827987198057 -0.1333996782044147 -0.24304108586723031 -0.19544911877578874 -0.18197969204913589 -0.118407425759567 -0.38514000288481132 -0.20153130849940287 -0.19758190732900149 -0.25324974371559422 -0.22908739014699181 -0.16666650936989552 -0.25966813060234128 -0.13632019606869059 -0.10508583652918252 -0.092278214310253986 -0.26112378785940216 -0.20271022876793554 -0.33680303135451528 -0.11780892789260072 -0.08534088843039378 -0.12316575461281309
leaf_weight=3128.65805336833 40053.638438910246 12499.299769669771 191020.98620009422 10211.689612418413 174932.21805268526 748.32832086086273 20650.83938908577 22877.731987684965 1959.0786819756031 9237.007205426693 17210.758466750383 24944.5260604918 12481.863732248545 128090.69271227717 27033.772430509329 12546.429246455431 43516.000283539295 3020.7336249351501 3750.7947203814983 67568.336864680052 22657.820196300745 34778.651518255472 28113.681799054146 77111.159747004509 38010.44243940711 120381.67584818602 21109.925865590572 57117.169192105532 72481.794353574514 47544.079403281212 2818.1359062194824 91659.895468324423 76772.83678022027 127804.11711362004 5541.3619261682034 48144.800926923752 139738.54248684645 143267.16540062428 51328.245130181313 31468.121108412743 10944.15894690156 22772.926122963428 85916.993443578482 67341.04011324048 76841.130134940147 146924.26843392849 50385.578756839037 52145.589138299227 3956.2212764322758 2653.0559822618961 70042.655149996281 3368.9889345765114 118365.29021707177 69384.922446370125 41751.561501473188 16452.183582752943 23724.221942931414 11344.750734210014 60569.313050240278 19043.656591624022 228080.09104967117 64028.392448961735 80559.883529096842 52456.556966423988 85982.71958142519 30844.652879863977 14455.800637453794 22124.784755855799 58506.061694741249 112854.57392922044 5229.9569052159786 54778.198538333178 9227.3013938367367 22896.670961380005 84142.459146350622 94757.094608008862 47420.492559254169 52709.422636121511 23702.620554208755 108711.79665789008 48764.040967494249 10173.955537259579 168161.26369673014 3182.5925635099411 2428.2230177223682 78507.598803967237 24773.208187282085 547.5010841190815 3768.517959445715 28462.244953036308 99944.935532987118 14119.995070278645 48623.628879070282 45761.252952158451 23298.305002659559 3336.0926798582077 178232.44206827879 808.46494245529175 16000.90317812562 158343.76248431206 195.3060881793499 127849.29290562868 2707.0559673905373 21100.246080994606 69246.309053421021 125803.42398238182 90137.145279705524 7974.2624583244324 3779.1427376866341 20020.603855192661 83196.390732079744 3407.5276573598385 1973.4428227245808 1798.6704579889774 4581.4463375806808 1213.0800417661667 19562.604658305645 1582.333898216486 62901.149208694696 49455.708944439888 143387.08823394775 2293.3591413497925 4762.916513800621 1386.7504840493202 52219.542388141155 43832.680350929499 16176.695093929768
leaf_count=3301 47417 11714 138252 36041 92633 1848 22234 18178 6580 10335 28846 28323 14306 65547 23677 21519 41848 4363 10361 64502 47213 59897 36020 60856 31214 73886 56517 74310 125113 49078 3800 107583 71939 122864 7165 47191 110925 153025 62353 65398 19291 25575 41058 71189 62299 113997 56459 37460 11482 5153 105326 8639 96462 90266 59836 17891 45024 14639 53807 11876 82306 50672 98076 74267 94564 24862 17564 25923 56358 75585 9445 48201 10577 19827 52471 64095 53421 37521 39092 103316 59760 15976 106338 5776 4580 50785 25944 1776 11498 22984 88634 18281 27152 63082 22766 5525 74551 2321 20382 113939 267 66435 7285 39293 47905 104158 88668 16284 5994 29088 69653 11616 3248 2898 9823 2327 25630 3472 63741 35509 84988 5072 7903 4086 43648 22982 14305
internal_value=-0.279943 -0.153957 -0.105633 -0.223937 -0.0994481 -0.147673 -0.165338 -0.138346 -0.137562 -0.21552 -0.18985 -0.150527 -0.17013 -0.086415 -0.109636 -0.115051 -0.132154 -0.158228 -0.322337 -0.13003 -0.237384 -0.247011 -0.140351 -0.129298 -0.139604 -0.0789765 -0.27709 -0.183707 -0.190283 -0.157365 -0.149752 -0.158867 -0.108934 -0.130878 -0.0962287 -0.136866 -0.0997155 -0.144247 -0.150325 -0.227138 -0.198455 -0.169427 -0.0943242 -0.155801 -0.115807 -0.12197 -0.127872 -0.106745 -0.28939 -0.317795 -0.172553 -0.293882 -0.114477 -0.176707 -0.168683 -0.170764 -0.207974 -0.132816 -0.132992 -0.118161 -0.0739611 -0.124918 -0.147374 -0.183893 -0.136174 -0.124473 -0.179633 -0.129392 -0.141745 -0.107589 -0.210221 -0.125437 -0.178791 -0.132247 -0.102729 -0.0916518 -0.159535 -0.117661 -0.204219 -0.134848 -0.148253 -0.163045 -0.101541 -0.264403 -0.189509 -0.0878411 -0.152551 -0.341626 -0.377313 -0.119387 -0.115767 -0.173754 -0.0977356 -0.165085 -0.116818 -0.163395 -0.0781572 -0.264347 -0.145493 -0.109584 -0.338922 -0.0897737 -0.339294 -0.212689 -0.109322 -0.121153 -0.136806 -0.218206 -0.227739 -0.18916 -0.123077 -0.357263 -0.156326 -0.235327 -0.277714 -0.268911 -0.175834 -0.287563 -0.129951 -0.11084 -0.0958708 -0.296258 -0.214216 -0.390434 -0.123968 -0.093305 -0.108896
internal_weight=0 2.44918e+06 3.74333e+06 201824 3.1359e+06 2.24736e+06 776649 1.47071e+06 607432 176970 76522.3 599679 204921 1.37584e+06 1.76006e+06 1.13858e+06 300108 48881.3 41517.1 530910 128089 110015 394757 996684 317254 782634 43767.7 150250 129599 474024 135487 104206 838468 244719 593209 490308 621482 246705 299324 66246.8 160307 174700 368889 150038 213656 506376 259507 180132 25954.8 12146.6 162201 11855.3 479285 139428 66696.1 64667 96906.3 54671.3 247464 79363.2 534403 191833 223827 63400.7 209453 43326.5 48214.8 243603 154814 252593 93777.6 60319.6 18074.6 34107.1 160632 413076 144510 164622 70053.4 159097 96308.1 69790.2 359182 13808.2 33759 208257 52886.9 9493.58 15562.3 31280.4 246869 16548.2 100769 97089.5 100409 12563.4 306323 7189.2 83341.9 276709 3963.82 248231 4666.13 44802.9 146087 202576 112262 14774.1 11753.4 25250.6 131341 7363.75 11210.5 3820.22 10625.6 2021.54 29736.6 2129.83 123470 76489.5 238144 6044.15 5511.24 11598.4 95735.5 122340 68886.1
internal_count=5602372 2904522 2697850 375224 2073583 2529298 1005623 1523675 624267 314929 117212 690694 275464 736295 1337288 924296 293208 60051 116423 507055 254878 229025 415230 946742 332349 362725 103730 221657 199423 576933 155886 129102 631088 235500 373570 500714 412992 269279 344052 125295 258801 232881 226482 179730 174706 446028 243397 131854 64531 33499 221167 30050 386498 195592 88159 87162 165243 53807 243326 67242 222404 173536 251101 93558 212112 39168 69271 231435 165196 186510 161942 55366 25853 33410 111657 241716 178856 137322 116918 159775 108838 89023 244590 31032 51707 114825 61964 28346 51892 26784 202631 22861 64612 125435 83622 16102 140098 16185 91571 210401 11765 140321 13865 78385 110204 176097 114591 26641 22278 38533 116844 23098 13583 7546 25256 4648 41606 5248 117548 59186 149083 15433 9751 40127 85496 73767 51826
cat_boundaries=0 1 2 3 4 5 6 7 8 9 10 11 12 13 14 15 16 17 18 19 20 21 22 23 24 25 26 27 28 29 32 33 34 35 36 37 38 44 45 46 47 48 49 50 51 53 54 55 56 59 60 61 62
cat_threshold=1080 120 58 1 1 1 1 56 2 2 1 5 66 56 13 1 1 1 2 1 2048 1 1 45 192 1 1 13 208 10545152 538189824 2 5 1 48 1 1 12 0 0 67108864 0 0 1048576 13 1 1 1 1 1 1 2160072704 1615859254 1 1 1 2115584 2121748 2 13 1 1
shrinkage=1


Tree=1
num_leaves=128
num_cat=78
split_feature=9 3 9 9 66 19 3 119 125 127 21 66 19 3 127 11 67 21 9 141 21 125 17 11 126 140 126 3 7 21 125 79 17 21 7 7 17 127 96 21 21 21 36 17 127 7 21 127 63 66 140 21 140 11 21 119 66 127 127 17 126 3 140 140 140 127 63 11 140 120 93 21 21 63 11 7 140 126 93 127 21 140 127 141 127 11 0 140 21 9 9 140 7 3 1 126 21 126 140 3 13 126 21 112 36 3 140 13 63 71 13 3 9 127 13 134 21 17 63 63 138 140 9 8 66 33 1
split_gain=270677 77378.7 38865.4 33624.3 24747.4 23976.1 15545 11629.3 10751.6 9900.74 9646.95 8850.41 8457.81 7074.65 6751.29 6315.29 6013.1 5674.28 5614.24 5556.99 5027.66 4982.4 4736.63 4388.11 3877.96 3786.92 3683.7 3548.96 3492.16 3427.62 3301.08 3293.94 3120.24 2723.99 2504.22 2364.88 2296.31 2956.39 2257.32 2254.83 2234.62 2219.61 2191.67 2175.35 3228.01 2123.77 2050.06 2031.36 2026.68 1932.85 1864.5 1808.59 1796.35 1698.1 1683.21 1614.26 1524.13 1518.74 1493.23 2399.65 1878.44 1448.93 1372.74 1359.59 1346.06 1331.36 1312.45 1305.77 1299.96 1286.08 1239.65 1151.55 1108.58 1084.67 1080.5 1089.75 1041.96 1012.02 968.066 941.133 803.609 787.493 783.79 755.051 751.144 725.808 692.936 681.209 668.792 667.71 647.698 634.611 622.125 611.51 602.464 599.941 579.04 576.694 575.65 573.182 558.33 550.775 483.972 480.557 465.158 464.066 457.379 457.081 443.852 438.943 437.029 429.938 429.636 414.572 399.397 398.405 396.512 389.788 386.999 383.345 366.896 360.692 356.774 355.888 344.802 344.213 334.717
threshold=9.5000000000000018 191.50000000000003 15.500000000000002 4.5000000000000009 0 1 191.50000000000003 2 3 4 5 6 7 35.500000000000007 8 69.500000000000014 9 10 1.0000000180025095e-35 19.034330074755612 11 12 13 47.500000000000007 14 9867.5000000000018 15 88.500000000000014 0.57500000000000007 16 17 18 19 20 0.57500000000000007 0.57500000000000007 21 22 23 24 25 26 27 28 29 0.57500000000000007 30 31 32 33 5633.5000000000009 34 369651.00000000006 69.500000000000014 35 36 37 38 39 40 41 88.500000000000014 128137.50000000001 4823.5000000000009 9407.5000000000018 42 43 81.227526052499329 427990.00000000006 44 45 46 47 48 59.500000000000007 0.55500000000000016 11799.500000000002 49 50 51 52 5097.5000000000009 53 36.572172619047628 54 59.500000000000007 4.5000000000000009 5381.5000000000009 55 19.500000000000004 12.500000000000002 33904.000000000007 0.54500000000000015 3812.5000000000005 4193694.5000000005 56 57 58 13975.500000000002 88.500000000000014 59 60 61 62 63 35.500000000000007 56511.500000000007 64 65 66 67 191.50000000000003 18.500000000000004 68 69 70 71 72 73 74 75 1325.5000000000002 17.500000000000004 52017.000000000007 76 77 578211.00000000012
decision_type=2 2 2 2 1 9 2 1 1 1 1 1 9 2 1 2 1 1 2 2 1 1 1 2 1 2 1 2 2 1 1 1 1 1 2 2 1 1 1 1 1 1 1 1 1 2 1 1 1 1 2 1 2 2 1 1 1 1 1 1 1 2 2 2 2 1 1 2 2 1 1 1 1 1 2 2 2 1 1 1 1 2 1 2 1 2 2 2 1 2 2 2 2 2 2 1 1 1 2 2 9 1 1 1 1 2 2 9 1 1 9 2 2 1 9 1 1 1 1 1 1 2 2 2 1 1 2
left_child=1 13 6 4 7 9 61 31 27 16 21 17 29 79 26 48 55 58 46 38 30 22 63 -18 49 54 42 -4 39 81 32 40 50 77 85 70 41 56 78 109 66 120 -14 99 83 -35 104 -34 57 -24 -12 -27 -48 65 -21 -6 97 -10 59 86 -61 82 72 96 -37 106 -3 103 88 -42 -31 119 111 -41 84 -76 -40 -20 -7 -1 -33 118 105 94 -32 -22 -5 -73 -30 116 -65 -87 -82 -36 123 115 -8 -38 124 -15 -46 -58 -67 -60 -9 -2 -23 -101 -83 -19 -81 -17 -74 -26 -85 -11 -59 -107 -13 -43 122 -84 -29 -45 -55 -95 -63
right_child=2 3 8 11 5 19 10 18 15 95 20 12 14 43 -16 62 23 28 33 25 34 53 24 -25 113 51 -28 36 68 35 74 80 47 45 93 64 37 -39 76 73 69 71 -44 44 100 -47 52 -49 -50 -51 -52 -53 -54 98 -56 -57 101 89 67 60 -62 126 -64 90 -66 102 -68 -69 -70 -71 -72 87 112 -75 75 -77 -78 -79 -80 110 92 108 121 114 -86 91 -88 -89 -90 -91 -92 -93 -94 125 -96 -97 -98 -99 -100 107 -102 -103 -104 -105 -106 117 -108 -109 -110 -111 -112 -113 -114 -115 -116 -117 -118 -119 -120 -121 -122 -123 -124 -125 -126 -127 -128
leaf_value=-0.11567444553048987 -0.08631463918387039 0.12156942337505881 -0.030407421208823934 0.15899974123671948 0.090789184304654116 0.062129496711868785 0.15055347900270685 0.069211528248548398 0.17181167091372423 0.11193066917692768 0.1278164221845593 0.11580881535447743 0.042422876408838794 -0.001780644323329022 0.13309553386949557 0.068420370227366342 -0.029392934827474335 0.12090696309044176 0.11743292090620008 0.11003848613588613 0.084096679587214604 0.14585734055391159 0.12991283885826213 0.035095178062443971 0.1477778308655916 0.11919730837727137 0.13005417800945637 0.1654048229592141 0.13065195857681183 0.10588888728442525 0.14718701198183934 0.091438797214346654 0.11053749674589781 0.087730028986838834 0.11734005090978966 0.10782460527443581 0.14039448007985295 0.17062821592266994 0.065224936546650181 0.094218144310348251 0.14167123600706949 0.14537807739710731 0.093388573874676029 -0.099957285512236357 0.088293185526401613 0.11228971559598698 0.093446915003233627 0.14964065774713023 0.098135289473413198 0.098625712795090859 0.1443435247814174 0.10085722846950168 0.12492253614797355 0.14976886257836408 0.08175023621906688 0.041768575526503052 0.11065834347454505 0.18612610227388163 0.15258089468734604 0.11381082440898969 0.14371489378400867 0.041529379518524673 0.17130350835592936 0.1513006717701616 0.12756142672381129 0.17713159707535575 0.06049092263899674 0.13717415555550047 0.14682271080732637 0.11885690564364274 0.069691295935688818 0.14828443155754706 0.15595886896583966 0.040675049295184937 0.13340752197749089 0.1518503229954232 0.11292018206096133 0.13503314959441989 0.024078721510565726 0.057297747646848578 0.09879446679567716 0.13491952295851117 0.010197720993860808 -0.073017727557476902 0.16498766593519798 0.10163437842397854 0.14092196180393998 0.16067370653099183 0.11515800393839107 0.18886763159211609 0.15897469170691467 0.12874870740615654 0.12259769436726836 0.13432218697206535 0.027535989716196741 0.1296300552236713 0.13350500459103629 0.16172124978096736 0.15901219310555084 -0.0022213581445073055 0.0088940033531498142 0.15395030426301501 0.16562707467734436 0.16931408791980956 0.089356125422714219 0.041078105945407839 0.16281061029970056 0.055357301449643515 0.15156334964237195 0.1070229594705753 -0.061336290174536935 0.14026349776703073 0.16629596578840108 0.16837682519472486 -0.0025262575627673332 0.075238758020697349 0.17721755261772229 -0.047726448171893629 0.14461928393909707 0.12000891030229383 0.15255139680083851 0.10889539704430802 0.17370355903336912 -0.052555991250185466 0.1301814169117623 0.15897356320435696 0.097570449430824296
leaf_weight=8008.7097734361887 1424.5415618121624 74788.24067401886 995.53161491453648 23529.21362632513 10000.548470318317 16663.207431003451 38090.431559026241 38116.173542127013 123307.09425809979 5503.1688766479492 84712.636739581823 28990.69994045794 33936.461811542511 4198.4047530591488 20918.769106566906 863.27604900300503 23403.371287181973 90243.928721427917 125670.75738987327 27077.326902300119 13279.25272282958 27071.978525087237 61073.529549255967 19214.696007654071 20788.700690224767 105124.04500512779 7668.9918252527714 90479.939573973417 181276.56534795463 77231.719851732254 34869.485820829868 18992.923243626952 59567.407612383366 54686.895364418626 21816.057798787951 49041.796603143215 58457.145296946168 38016.351796537638 8197.6172892898321 17696.744520261884 183328.15485157073 41257.665597721934 11229.623886942863 4116.8267835974693 2065.7828377336264 98859.525997772813 121142.83661784232 17098.407214537263 2925.3135635107756 29179.19667032361 351472.60278011858 113087.27443404496 21323.460774153471 36980.359621524811 98108.682119399309 20463.412861555815 21680.141538009048 99144.591418325901 49236.386631369591 62560.061577349901 31624.011038780212 2909.7909905463457 130218.80105492473 242990.82197289169 116977.73849101365 103070.01126979291 3691.7587795555592 46909.374484136701 45149.16179715097 28557.76630307734 10781.875724777579 53227.466715946794 82578.025951191783 4812.3479935973883 46107.298242166638 104998.38229887187 10380.280525237322 44147.019989296794 11166.972244814038 375.19427612423897 15415.873551771045 99571.130245611072 1273.1190513074398 1066.8133227080107 74042.65241061151 24245.506299242377 214492.75948682427 267000.30113960803 34835.285369247198 188124.56156241894 200927.65686650574 13404.160340115428 38159.567358121276 62365.449019402266 545.88410729169846 6687.8481600284576 48248.772328302264 16191.135665118694 73553.128748655319 1745.9427920132875 1563.2802445143461 3399.5330445021391 68250.074593409896 26346.685950636864 16392.178842827678 826.05139052867889 38609.147043585777 6661.3671428859234 19095.301600828767 30455.469510853291 1651.6634796559811 23737.450559020042 78361.234057694674 18433.887217089534 3185.9056959599257 6401.7130545079708 140953.55386221409 1230.5637417733669 5555.9273704737425 6961.3157341629267 12539.166100412607 522.12942939996719 121195.75601144135 2574.4013343304396 11872.167886167765 6230.1376237124205 1681.7516785264015
leaf_count=29124 4664 80073 2685 16010 13933 28301 28883 61005 62537 6557 84234 32573 63029 10162 19951 1444 60924 97613 140111 32404 19499 21230 59016 37628 16163 114559 7428 52953 175386 95308 26877 26110 68822 78027 23944 59147 49414 20866 13720 24076 158211 32847 15304 14153 3096 114871 165181 13282 3808 37212 287542 145169 21714 28175 145615 38519 24574 37117 36924 71598 26165 5629 68130 180363 116552 48778 6244 42197 36007 31145 17302 40920 56797 9158 43017 76859 12247 41316 22816 707 20247 91330 2921 3362 44073 30573 184480 170512 39296 62920 133868 13213 40363 56925 1133 6636 45059 10166 48938 4138 3579 2372 40317 15398 23066 1625 23618 12013 14315 37101 5074 20014 45262 10711 7787 10027 64539 3519 4643 7494 9146 677 60951 7608 11411 4066 2235
internal_value=0 0.113838 0.155677 0.115822 0.104774 0.0865351 0.146171 0.114716 0.16721 0.040505 0.14681 0.127074 0.116213 -0.0283242 0.0850007 0.174722 0.0239336 0.133154 0.105133 0.097357 0.139333 0.153513 0.148354 -0.000317954 0.131207 0.101749 0.0659748 0.158273 0.124507 0.12186 0.142515 0.128455 0.137864 0.11324 0.121924 0.114702 0.15853 0.1469 0.0648808 0.11196 0.133218 0.161234 0.0550945 -0.0022822 -0.0278595 0.103536 0.0918241 0.119258 0.18115 0.119798 0.141134 0.109703 0.0981511 0.162988 0.0878842 0.0578608 0.137855 0.181591 0.140839 0.137363 0.123852 0.0209785 0.163433 0.152541 0.121731 0.167928 0.118681 0.15028 0.13139 0.13859 0.101455 0.156399 0.157909 0.0827341 0.151696 0.146223 0.0918743 0.122001 0.0468615 -0.100269 0.109399 0.133721 -0.0147669 -0.0538281 0.159289 0.104198 0.142709 0.158609 0.128166 0.184407 0.154774 0.111288 0.115727 0.131923 -0.073479 0.105664 0.141059 0.14502 0.153423 0.0283945 0.0543584 0.116527 0.172568 0.158414 0.0752558 -0.0424447 0.155823 0.0434632 0.137598 0.117394 -0.0393957 0.137686 0.160982 0.157459 -0.020387 0.0922 0.180911 -0.0120576 0.120442 0.141686 0.169164 0.0389029 0.170156 -0.08172 0.145009 0.136561 0.0620556
internal_weight=0 2.74268e+06 3.54483e+06 2.70492e+06 1.36475e+06 481480 1.94322e+06 883273 1.60162e+06 91674.8 1.93335e+06 1.34017e+06 481000 37760.2 73753.8 870214 73082 859168 520339 389805 914209 1.01914e+06 659733 42618.1 129475 343397 52835.1 731401 404470 407246 772869 362934 512851 323364 141341 254033 730406 137744 46408.1 143208 290366 592662 45166.1 27724.6 15118.9 153546 196975 76665.8 554455 90252.7 436185 218211 142466 359407 125186 30464 99728 551530 454698 332206 94184.1 9867.95 315759 530258 166020 237001 78480 122492 261261 211886 88013.6 368447 185540 22509.1 260018 151106 18577.9 169818 27830.2 10035.6 72568.4 153213 5276.41 11489.8 108912 50928.9 238022 320228 216112 428223 443918 37649.7 53575.4 90411.6 7237.11 18592.7 86339.2 74648.3 122406 12605.7 3629.06 25079.7 171320 75583.1 54508.4 3481.16 65681.1 8407.31 118666 120699 2026.86 24600.7 160939 39222.6 4252.72 11904.9 240098 2056.62 34546.6 48219 224215 1795.25 211676 6691.23 48852.5 68595.6 4591.54
internal_count=5602372 3146966 2455406 3045030 1696739 689055 1547938 1007684 907468 174224 1526668 1348291 536882 101936 105712 422568 151004 811409 645291 514831 792926 733742 511275 98552 123102 437747 85761 484900 418637 431170 644706 362393 453880 374325 148220 288309 482215 107392 77084 167948 275673 374823 78333 67031 40718 192898 270966 82104 230921 96228 371776 259728 186895 222467 178019 52452 86526 227113 392772 298253 97763 21270 191647 388173 175699 133943 86317 94519 250689 189356 112610 251773 123517 33234 190826 119876 25967 181427 51117 34905 86720 142861 13406 34043 70950 63285 200490 211432 214682 164576 314231 43786 60610 84935 22894 23220 73942 59580 88524 26313 6675 26946 89095 52322 84071 9808 44848 16151 105645 134714 5781 21458 102059 26874 11149 16584 101656 5144 37216 40341 123050 3598 113904 21761 39586 60991 7864
cat_boundaries=0 1 13 14 15 16 17 18 24 25 26 27 28 29 30 31 32 33 34 35 36 37 38 39 40 41 42 43 44 45 46 47 48 49 50 51 52 53 54 55 56 57 58 59 60 61 62 63 64 65 66 67 68 69 70 71 72 73 74 75 77 78 79 80 81 84 85 86 88 89 92 93 94 95 96 97 98 99 100
cat_threshold=1 0 0 0 0 0 0 0 0 0 0 0 8192 1 1 1 13 1 1073741824 0 67108864 0 0 1048576 1 1 13 50 1 2 1 1 5 1 1 2 13 2 1 1 50 194 5 1 2 1 194 1 1 1 13 1 1 1 1 1 2 1 1 1 1 1 192 192 1 1 1 1 194 1 1 50 1 1 1 2147500032 3761254437 1 12 1 1 2158010368 2684374544 1 1 1 2147487744 2684357120 1 2097152 3224392200 1 2 12 2 1 1 2 1 1
shrinkage=0.1


Tree=2
num_leaves=128
num_cat=76
split_feature=9 22 5 9 9 66 19 22 22 119 125 66 36 5 19 125 140 22 140 127 17 127 127 140 140 11 140 11 126 11 140 22 36 22 127 17 126 22 140 11 66 1 44 140 22 140 5 0 11 127 22 127 22 17 126 127 11 20 22 22 127 22 1 63 140 63 140 140 22 22 1 17 63 140 120 96 93 5 140 140 22 22 97 93 127 63 126 140 63 140 126 0 127 22 140 5 3 9 17 66 11 5 97 93 66 67 5 58 140 112 22 66 9 1 5 140 22 95 22 11 13 22 36 2 3 13 5
split_gain=223343 70595.7 38341.8 30383.5 25531.7 18814.6 18524.5 17528.7 10521.3 8620.46 8499.9 8439.99 7842.06 7396.04 7335.12 7168.1 6471.27 5902.93 6782.45 7355.35 5389.27 5095.72 5023.35 4868.04 4768.53 4247.59 4071.65 3615.34 3599.9 3412.91 3223.64 3069.84 3405.18 2918.5 2828.03 4158.9 2909.19 2802.18 6740.18 2789.87 2754.85 2646.03 2551.13 2510.81 2049.42 2028 2017.75 2001.14 2000.12 1873.12 1806.79 1761.5 1692.26 1520.43 1711.07 1516.57 1728.91 1502.47 1501.71 1448.31 1424.06 1401.54 1279.04 1257.99 1239.64 1342.16 1238.46 1212.97 1188.7 1151.78 1134.53 1106.97 1105.32 1073.81 1035.09 1003.89 1311.93 985.579 949.049 943.177 1190.43 929.852 927.95 1397.01 918.339 916.871 901.493 880.614 878.973 856.53 850.319 832.307 823.251 812.664 788.272 785.954 763.804 732.41 729.893 703.721 703.197 697.215 692.333 1017.52 680.59 675.205 671.015 667.098 654.563 642.229 623.577 596.433 572.277 550.946 529.193 526.142 1380.24 485.771 502.214 464.306 463.235 453.168 445.094 439.794 434.417 424.501 421.874
threshold=10.500000000000002 0 330.50000000000006 4.5000000000000009 16.500000000000004 1 2 3 4 5 6 7 8 317.50000000000006 9 10 45142.000000000007 11 119677.00000000001 12 13 14 15 1050.5000000000002 6543.5000000000009 69.500000000000014 5097.5000000000009 33.500000000000007 16 73.500000000000014 6220.5000000000009 17 18 19 20 21 22 23 27873.000000000004 81.227526052499329 24 107542.50000000001 25 8243.0000000000018 26 5381.5000000000009 400.50000000000006 8.5000000000000018 77.500000000000014 27 28 29 30 31 32 33 81.727526052499329 34 35 36 37 38 5585466.5000000009 39 39744.000000000007 40 7893.5000000000009 2629.5000000000005 41 42 86412.500000000015 43 44 5895.5000000000009 45 46 47 27938.000000000004 37444.000000000007 195747.50000000003 48 49 50 51 52 53 54 5381.5000000000009 55 83163.500000000015 56 14.500000000000002 57 58 52143.500000000007 1517.0000000000002 35.500000000000007 13.500000000000002 59 60 78.500000000000014 59.500000000000007 61 62 63 64 54.500000000000007 65 2285.5000000000005 66 67 68 1.0000000180025095e-35 3515939.0000000005 140.50000000000003 83163.500000000015 69 70 71 154.50000000000003 72 73 74 28.500000000000004 4795.5000000000009 75 3469.5000000000005
decision_type=2 9 2 2 2 1 9 9 9 1 1 1 1 2 9 1 2 9 2 1 1 1 1 2 2 2 2 2 1 2 2 9 1 9 1 1 1 9 2 2 1 2 1 2 9 2 2 2 2 1 9 1 9 1 1 1 2 1 9 9 1 9 2 1 2 1 2 2 9 9 2 1 1 2 1 1 1 2 2 2 9 9 1 1 1 1 1 2 1 2 1 2 1 9 2 2 2 2 1 1 2 2 1 1 1 1 2 9 2 1 9 1 2 2 2 2 9 1 9 2 9 9 1 2 2 9 2
left_child=1 3 23 5 7 9 8 10 60 42 20 34 28 51 26 33 41 18 19 -11 30 31 40 62 52 63 57 99 -10 49 59 32 -16 53 35 45 47 38 -26 90 86 82 79 48 95 58 -35 -37 -19 111 -42 101 -8 87 91 56 88 108 -5 -2 73 -47 92 84 102 -66 -31 -33 -54 -32 124 -57 81 -7 114 76 112 -20 -46 80 -1 -28 83 123 -17 -39 -22 -6 107 -72 -36 -55 96 -45 -14 121 -3 -71 -98 -18 -53 120 103 -15 -67 -78 -61 -25 -13 -51 -93 -12 -43 -103 -44 116 -41 118 -89 -24 -9 -27 -38 -4 -29 -58 -68
right_child=4 2 16 11 15 6 24 13 12 17 29 14 94 64 21 25 27 43 77 -21 22 -23 119 55 37 44 72 70 -30 66 69 67 -34 46 39 36 122 85 -40 115 50 75 74 93 78 61 -48 -49 -50 109 -52 100 68 54 -56 71 125 -59 -60 106 -62 -63 -64 -65 65 104 126 -69 -70 97 89 -73 -74 -75 -76 -77 105 -79 -80 -81 -82 -83 -84 -85 -86 -87 -88 117 -90 -91 -92 110 -94 -95 -96 -97 98 -99 -100 -101 -102 113 -104 -105 -106 -107 -108 -109 -110 -111 -112 -113 -114 -115 -116 -117 -118 -119 -120 -121 -122 -123 -124 -125 -126 -127 -128
leaf_value=0.082359695448152692 0.12948599001952582 -0.10996050807333138 0.037264061004640074 0.12011614951262795 0.13772595565301357 0.045062286640164775 -0.033440837643028319 -0.021878486524255385 -0.032902547415970186 0.03599066837782338 0.14299696699464065 0.082057644924794851 0.040721065295435288 0.081283849567351851 0.018486535617511693 0.15654743526314119 0.020714060821682645 0.11561338872574115 0.094174321294922675 0.10354016681012808 0.11081201424880648 0.11866803792901622 0.14711654461273743 -0.0036554256232853772 0.0083744341171166012 0.12661072445630256 0.12307291150625309 0.09920043084669021 0.084679715544879797 0.12499529538796011 0.14243958716366284 0.0556755230232064 0.091670534272843024 0.014124681930506573 0.13136498394238846 0.12004663216212746 0.11340968926547051 0.10203625216880273 0.094046036926164728 0.074959159288290722 0.063114766294772126 -0.0249546688621116 0.11079773665313437 0.12008544506857366 0.085830372277086536 0.13398633706503146 0.11639108794144598 0.090587829272241141 0.087536084010105139 0.15174255669508924 0.10376555317261674 0.11375572026428238 0.085396688335000137 0.14358593284268156 0.15453033615003245 -0.019619427352457062 -0.090552621151672938 0.12396920977872779 0.09508156846148591 0.092148465469381116 0.10343044744053834 0.12223845825814322 0.049102169072071856 0.094360347010662815 0.11980698339212914 0.065399896202765137 0.13637085108114569 0.0978461881708384 0.064955268321778434 0.13076926461057911 0.060589506068541299 0.071630616687583012 0.13182391790925027 0.080349523908602116 0.10244257362395399 0.042033473853967801 -0.011458263333259932 0.12068822078523947 0.13232019841198778 0.11959943947191926 0.1077468136872346 0.11127248009258905 0.088083369560197911 -0.034002248698258908 0.16725172256977422 0.12259713678104636 0.13245531362755483 0.13695042884338413 0.056876146750607738 0.09249549775888688 0.14701384465012726 0.13474893613529587 -0.032797340448559982 0.1064507867012307 0.092790113927008727 0.15642894314237354 -0.028248506484310727 0.138453612042093 -0.088216296303495506 0.066988694226423881 0.029987163452751892 0.020453086343245375 0.10156133047729682 0.010301367344985378 0.10934253393994681 -0.081089687230683813 0.11648196395696941 -0.093763610886018534 0.098405485686083122 0.16163692780692154 0.11229285942359218 0.12180926917967748 0.039615292386857237 -0.11517538203982379 0.12830569732528271 0.12970263604448043 0.11990193401055511 0.15417589516196753 0.14933153399635216 0.12042938814629223 -0.09976957903356265 0.14742754865259938 0.13152247491536892 0.078873491008674801 0.12691468328961228 -0.039114226230362446 0.14493064709336592
leaf_weight=24354.805032238364 134253.22328987718 7320.2024448662996 4739.2866242676973 65877.744036391377 72211.663087964058 17473.58082395792 1466.486524745822 1874.4993406683207 28774.218231156468 48947.04102280736 96437.22556912899 44284.957207664847 4807.3305912166834 5868.5439394265413 20020.775352656841 102447.30159942806 8486.5572464168072 33044.843983203173 71362.638290271163 24035.396440133452 83583.997128680348 25136.158554762602 44182.688492104411 11126.445541128516 10699.958181411028 12985.803825825453 102755.01839095354 11397.930744558573 2862.8553006947041 67899.870810106397 268722.52022764087 9482.235741853714 9316.3104289621115 2207.6471122503281 58510.080248385668 30334.060815051198 21721.181227222085 139812.45768642426 64786.480563461781 7620.1218914836645 19295.790954694152 1834.6147039085627 19262.827341914177 72123.515472665429 6275.1946447044611 159070.20802804828 15302.135596618056 96152.112480342388 109258.88575781882 179089.19430220127 25688.111014246941 1626.6155450046062 54536.631808459759 21163.038593664765 30807.549704670906 2074.1047530770302 2818.7314190119505 16176.253757327795 38622.83024340868 13779.037993252277 11262.964370042086 299228.14243458211 845.47571416199207 2540.2871044129133 30114.258734226227 8828.9220636934042 123712.73153574765 24299.915700539947 60622.785644680262 277911.18818454444 10471.912279263139 3702.9186358302832 45885.078866228461 17026.998907014728 19811.292226463556 7067.025602221489 3323.9546367824078 17447.642783671618 14625.010218590498 42371.333480447531 82167.731591999531 207069.76353852451 8481.7730095535517 1891.1042331010103 368195.16645726562 25670.333681076765 25001.337317913771 44895.899844154716 2323.9609333276749 42813.448671400547 85409.341134116054 20084.071201980114 3529.7973218560219 119999.72489370406 7357.0083025842905 133348.00714281201 3210.4469978362322 224012.45053876936 5518.4449478536844 5363.2227637469769 2610.1383485943079 3551.9534543901682 5653.2135666757822 3079.0280705541372 5866.6925348043442 2396.721963211894 63823.204592168331 887.10710448026657 54800.518485844135 103522.33609801531 36334.289303436875 15408.842369526625 5450.5312102138996 327.08790946006775 166380.40612325072 41353.333123058081 80105.809733271599 150228.35869909823 171135.44247579575 7647.7230719029903 1301.001476302743 94646.988150775433 36139.392369806767 5474.3717029094696 11226.905343160033 3850.1327140331268 107706.14216090739
leaf_count=32750 110525 27513 8799 61553 51437 31527 3817 4960 75716 90114 62804 59763 9186 7843 40669 50153 17277 33607 86935 27790 85229 23788 28282 26208 22997 10385 91474 13542 3887 58467 179168 15579 11751 4662 47536 28641 21323 159805 79451 10753 29083 4578 19915 69098 8096 123070 14594 119652 143004 98984 28243 1768 73902 14139 16476 5148 9562 14593 46236 16658 12820 270591 1537 3110 27711 13403 90684 29169 94634 221847 16389 5858 36891 24291 22427 12850 7742 16249 11073 39546 88211 211499 11540 4861 137658 24145 19580 32098 3933 52836 54130 15101 9790 132142 9676 67106 8597 159425 18732 8339 5175 7167 6547 6290 6450 7312 61177 2932 64388 46724 35692 13199 9935 1119 141940 34053 74467 80838 98848 6937 4440 57156 28889 7874 10059 10952 69126
internal_value=0 0.103863 0.042672 0.10764 0.141518 0.0963034 0.0796969 0.13429 0.0390125 0.105034 0.136127 0.116955 0.0039738 0.0853594 0.107082 0.15238 0.0706267 0.0965265 0.0808177 0.0582368 0.130991 0.0805818 0.11626 -0.0345484 0.0898833 0.158888 0.112044 0.0856188 -0.0222625 0.144922 0.134071 0.0654274 0.0417127 0.143903 0.122368 0.119185 0.106149 0.0979194 0.0818915 0.131078 0.107175 0.03753 0.116947 0.104121 0.14867 0.123455 0.103438 0.0976527 0.094056 0.151032 0.0863655 0.0111817 0.0732869 0.145195 0.134592 -0.00650619 -0.0189851 0.0957122 0.110884 0.123146 0.0725407 0.126322 -0.0713214 0.164543 0.0994716 0.107717 0.13687 0.0859839 0.0746424 0.137074 0.0941913 0.0388694 0.117339 0.0624775 0.12417 0.0116953 -0.0047897 0.0993832 0.118305 0.10698 0.10196 0.115194 0.0627201 0.0449481 0.164922 0.105219 0.115795 0.147819 0.000580832 0.0862252 0.140652 0.126674 -0.0765216 0.111581 0.0722125 0.151292 -0.0861382 0.134196 -0.0661604 0.0386336 0.0621484 -0.0194275 0.0741661 0.0568574 0.0829424 -0.0406309 0.112147 -0.0103092 0.091099 0.155367 0.120331 0.140078 0.0233547 0.00901664 0.126489 0.120404 0.11602 0.149809 0.146772 0.143179 -0.0541735 0.144941 0.124723 0.0595661 0.112953 -0.0610501 0.140355
internal_weight=0 3.05473e+06 177627 2.8771e+06 3.25181e+06 1.29773e+06 447160 1.95238e+06 89565 850568 1.88168e+06 1.57937e+06 43801.4 70702 559227 1.29943e+06 130419 496220 161793 72982.4 1.1879e+06 88255.4 205400 47207.8 357595 735064 470972 89760 31637.1 693776 982502 63119.2 29337.1 564370 1.02014e+06 747146 184347 240969 75486.4 272999 153569 40659.4 354348 334427 261881 562799 17509.8 126486 142304 394458 44983.9 11291.3 116626 546860 108389 26783.4 21006.4 115262 104501 211855 45763.5 458298 20424.4 473183 59410.7 44809.9 299319 33782.2 115159 770646 75910.2 5777.02 355710 34500.6 205455 20072.8 13005.8 88810.3 20900.2 148894 106523 309825 20586.5 12104.8 470642 165483 108585 438471 14337.5 53285.4 143919 77581.4 19578.9 192123 12164.3 240981 16049.1 501924 8728.89 13849.8 4236.75 7054.54 14600.8 8947.57 14695.6 5720.68 77602.2 12013.6 99085.5 282612 56418.4 111846 7285.15 3879.04 185643 129079 87725.9 366260 216031 51830.4 3175.5 107633 57860.6 10213.7 22624.8 6668.86 231419
internal_count=5602372 3414735 324695 3090040 2187637 1569582 625854 1479015 167103 943728 1386142 1520458 98465 92873 599564 708622 193933 598939 221088 117904 946154 120956 197354 130762 458751 344737 478608 118442 79603 439988 748800 97168 52420 363885 920894 699955 198505 286398 102448 220939 162135 75491 344789 377851 153816 501450 19256 148293 176611 221711 57326 24629 172353 344629 81408 64593 53587 138744 107789 188360 68638 393661 66169 190921 68244 47564 218277 44748 168536 560440 92826 11006 339864 55818 184282 42417 29567 103184 19169 160507 120961 302973 33074 21534 187811 183950 104809 263221 33073 69225 101666 64932 64632 201240 18862 134647 54842 381272 27329 25616 6943 17686 20680 14133 19853 15054 77835 29140 124151 145708 50793 76003 14513 8286 161855 119273 85220 211784 130946 35219 9400 67541 50212 16673 23601 20514 159810
cat_boundaries=0 1 2 14 15 16 17 18 19 20 26 27 28 29 30 31 32 33 34 35 36 37 38 39 40 41 42 43 44 45 46 47 48 49 50 51 52 53 54 55 56 57 58 59 60 61 62 63 64 65 66 67 68 69 70 71 72 73 74 75 76 77 78 79 80 81 82 83 84 85 86 87 88 90 91 92 95
cat_threshold=58 1 0 0 0 0 0 0 0 0 0 0 0 8192 58 24 1 1 1 1 1073741824 0 67108864 0 0 1048576 1 2 1 2 1 1 1 2 1 58 1 2 1 2 1 2 58 1 2 1 2 2 1 1 1 48 48 1 48 1 1 48 48 2 1 1 1 1 2 48 1 1 1 1 1 1 1 1 48 2 1 1 1 1 1 1 1 8 1 2 1 2 2160109568 537139223 2 1 2154496 2151444996 2
shrinkage=0.1


Tree=3
num_leaves=128
num_cat=59
split_feature=9 6 6 9 3 66 19 126 3 6 10 127 6 6 9 119 11 36 66 11 93 96 19 10 123 127 6 6 9 9 9 127 123 126 3 6 127 123 10 6 6 19 127 141 58 123 119 9 6 9 6 44 9 66 6 9 11 127 127 122 4 36 6 6 4 127 126 3 9 9 141 127 96 140 6 96 121 6 140 127 11 4 126 141 141 44 79 9 6 126 9 9 5 126 9 3 6 13 66 13 121 13 67 141 7 11 13 140 3 13 112 13 66 11 6 112 127 66 4 93 123 97 9 123 13 141 141
split_gain=192009 66437.3 48914.2 26040.4 18560.7 16075 21596.7 10827.7 9894.04 8735.92 7266.83 6939.85 5906.35 5675.38 5562.41 6822.26 5510 5675.5 4423.64 3984.56 3882.73 4146.52 2754.63 3113.82 2626.13 6306.9 2588.46 2509 2452.73 2355.27 2188.22 2058.82 3897.36 2817.05 1955.91 1885.49 1878.65 2226.34 1979.77 1702.9 1501.19 1468.13 2929.98 1456.94 1397.8 1357.21 1353.84 1318.73 1298.41 1292.75 1274.28 1234.06 1213.39 1194.92 1183.14 1131.35 1129.1 1084.61 1074.18 929.834 879.984 866.869 853.837 832.579 864.646 813.052 805.799 759.939 755.872 745.162 735.506 724.016 705.258 690.169 671.912 662.919 659.685 656.734 605.435 592.801 586.833 565.887 560.877 550.444 536.822 531.792 527.945 515.679 499.21 498.957 495.181 492.095 483.366 478.434 464.45 464.273 455.497 454.231 450.301 449.06 446.487 511.534 425.404 578.88 419.57 416.467 414.318 409.745 405.774 398.008 396.118 453.449 392.85 390.48 388.006 380.303 377.832 371.906 513.217 381.355 383.07 366.412 365.69 350.551 345.133 342.686 340.942
threshold=8.5000000000000018 0.085000000000000006 0.115 14.500000000000002 88.500000000000014 0 1 2 88.500000000000014 0.12500000000000003 2.5000000000000004 3 0.15500000000000003 0.075000000000000025 3.5000000000000004 4 30.500000000000004 5 6 73.500000000000014 7 8 9 1.0000000180025095e-35 10 11 0.16500000000000004 0.055000000000000007 14.500000000000002 3.5000000000000004 1.0000000180025095e-35 12 13 14 15472.500000000002 0.025000000000000005 15 16 1.0000000180025095e-35 0.16500000000000004 0.15500000000000003 17 18 21.178849466527684 19 20 21 14.500000000000002 0.15500000000000003 3.5000000000000004 0.18500000000000003 22 2.5000000000000004 23 0.115 18.500000000000004 81.227526052499329 24 25 26 331.50000000000006 27 0.115 0.03500000000000001 25101.500000000004 28 29 293.50000000000006 19.500000000000004 12.500000000000002 24.964584509908786 30 31 5895.5000000000009 0.095000000000000015 32 33 0.17500000000000002 1325.5000000000002 34 80.500000000000014 88109.500000000015 35 21.928274563989863 19.034330074755612 36 37 2.5000000000000004 0.16500000000000004 38 1.5000000000000002 17.500000000000004 45.500000000000007 39 17.500000000000004 191.50000000000003 0.10500000000000002 40 41 42 43 44 45 17.54373567608862 0.56500000000000006 81.727526052499329 46 47456.500000000007 8128.5000000000009 47 48 49 50 75.500000000000014 0.10500000000000002 51 52 53 74006.500000000015 54 55 56 2.5000000000000004 57 58 9.0805016181229785 20.254116514855784
decision_type=2 2 2 2 2 1 9 1 2 2 2 1 2 2 2 1 2 1 1 2 1 1 9 2 1 1 2 2 2 2 2 1 1 1 2 2 1 1 2 2 2 9 1 2 9 1 1 2 2 2 2 1 2 1 2 2 2 1 1 1 2 1 2 2 2 1 1 2 2 2 2 1 1 2 2 1 1 2 2 1 2 2 1 2 2 1 1 2 2 1 2 2 2 1 2 2 2 9 1 9 1 9 1 2 2 2 9 2 2 9 1 9 1 2 2 1 1 1 2 1 1 1 2 1 9 2 2
left_child=1 4 8 18 35 9 12 11 58 49 41 16 20 44 15 51 17 -8 26 55 29 34 40 57 50 -26 69 60 74 62 46 32 39 -34 -22 71 37 -28 -39 -16 83 48 53 75 47 -18 -14 95 91 85 -17 86 117 89 -31 79 82 76 92 -37 67 -55 -7 64 106 66 -25 87 88 104 72 99 -42 -46 -15 -32 -24 -45 -60 -12 93 102 -33 -20 -48 -3 -11 -6 121 -43 -13 -5 110 -38 -50 109 -51 -73 -69 -1 101 -83 -54 -104 -4 -58 -62 -23 -97 -10 111 -2 -76 -100 -30 -81 -57 118 -29 120 -119 -21 -9 -61 -89 -65 -114
right_child=2 5 3 10 27 6 7 122 13 14 19 90 30 28 31 24 45 -19 22 68 21 107 23 65 25 -27 36 52 114 54 43 56 33 -35 -36 59 80 38 -40 -41 70 42 -44 77 73 -47 84 -49 94 96 -52 -53 81 61 -56 116 105 -59 78 123 63 -63 -64 125 -66 -67 -68 98 -70 -71 -72 97 -74 -75 112 -77 -78 -79 -80 115 -82 100 -84 -85 -86 -87 -88 124 -90 -91 -92 -93 -94 -95 -96 108 -98 -99 113 -101 -102 -103 103 -105 -106 -107 -108 -109 -110 -111 -112 -113 126 -115 -116 -117 -118 119 -120 -121 -122 -123 -124 -125 -126 -127 -128
leaf_value=-0.070531903469366497 -0.036558347127698287 0.068945132984134572 0.11151200618697421 0.12462040247311104 -0.037691280273248876 0.0627882536533199 -0.021889993911416047 0.087032162378602784 0.064604471712059894 0.10436666818137097 0.13745864114860229 0.057768189933499581 0.11140980212781962 0.088149480824981918 0.10538380798108787 0.087938810994088068 0.061887298976003841 0.058524355769502004 0.095127452558429068 0.12404843923228651 -0.031617581790892788 0.068550975096724615 0.078698850961134464 0.087516765918505546 0.048538256712226696 0.10687882391512792 0.12952781479224454 0.052674183822554711 0.10914841367319024 0.080487507774476719 0.078904358094228647 0.11721391621903776 0.079223317930191384 0.11261613020208178 0.052276922248923052 0.0078282233827717262 0.13223379502175775 0.09108585748608479 0.12111205624110921 0.11798204506884336 0.10486147412452607 0.11379794391306426 0.14072466238907086 0.104730961536128 0.066145161004719108 0.027064323602456419 0.045909716713598642 0.091061375043390694 0.13433659889220903 0.082247470891677527 0.10670085727044783 0.11494670317813814 0.067581358352887796 0.079288198623906736 0.096423480184883517 0.1470647293892014 0.10735701787379195 0.11090902249700901 0.0041278859878660212 -0.030384825923627387 -0.076038265669731209 0.12219385489403103 0.080345268804791495 -0.077290116518260413 0.075007800192750829 0.12300662781443297 0.12628136569470236 0.063140787052321012 0.14279820188634129 0.12467593285470405 0.12569329343754551 0.027269608818063874 0.12411908919866572 -0.074588686213995281 0.10483661182239441 0.10368178946415432 0.043595543895187695 0.11663663007787169 0.099398423097188715 0.1444998022468296 0.12738028918021385 0.036246950672723766 0.13168827949051351 0.11171945372239296 0.079217663325486534 0.085261617537452594 0.085956485338757188 0.08034424357308656 0.13794148134498621 0.13153966246376506 0.095156429935764786 0.13322528460443295 0.0077954471252414869 0.14308739589364142 0.14117305545528835 0.074583869222902457 0.093875901066455006 -0.06475802974730642 -0.03422639764536594 -0.11548508408080815 0.060155644462829033 -0.03961107302424758 0.019481470028801413 0.057779857827500759 0.11897155494854095 0.12765079504020985 -0.011461296735644937 0.10450134256167527 0.0540131178358252 0.0011090060314409322 0.039900568454901385 -0.11064417677820466 0.070659013426844081 0.038487994513699442 0.12027479587288537 0.15314925678314495 0.15594010578202458 0.03525545832046556 0.0044467210968941167 -0.040480804504605089 -0.028045283045886538 0.13568567731351919 0.11365193156422393 -0.088754122130543706 0.00079944505500277249 0.022818795240452803 0.096401539126520122
leaf_weight=4525.0276966392994 1842.6166914105415 63007.752049833536 107901.7297847122 145881.40476840734 1877.5300460457802 42071.262286052108 34835.711463421583 7155.2168652713299 2058.7467293143272 58457.671088933945 72596.482095137239 4550.9901493787766 13268.978265270591 72456.156092435122 235936.27592416108 164603.56210799515 26528.681923314929 11732.896497666836 22674.513069957495 78812.076696529984 7121.8684422522783 7950.2368567883968 9356.3712946027517 19741.589172825217 48863.899567514658 29849.304561927915 250665.29134859145 21845.23229958117 83161.494994729757 66772.035339713097 25044.67103882134 46841.266653865576 76025.604763001204 37836.020974889398 4557.1775018423796 5146.8768408894539 65749.798630714417 31239.750516414642 73916.798007428646 196778.03740163147 41392.20163141191 58524.481534987688 60173.114914029837 109268.01842033863 562.81849311292171 19359.932391703129 5609.1625347286463 39562.71407738328 212072.41110309958 55286.456508994102 46404.85444316268 145267.05460843444 46161.03008954227 15420.710688114166 154125.07957425714 60432.401817947626 73698.431151509285 4844.4236186742783 2228.133089274168 2380.9904886484146 2022.7850106060505 6779.0387527346611 81087.100874319673 348.59948581457138 715.04468660056591 25168.794502049685 7362.1199807822704 9597.462569668889 100640.02398042381 175659.11473320425 154625.79957357049 848.58816856145859 35179.924388065934 914.94414977729321 75272.372544318438 18982.484408304095 12513.547884851694 80440.879498705268 952.05565080046654 128357.41463629901 59000.555156618357 2406.0817852765322 62481.153126776218 169182.94879685342 35230.533116802573 29247.232680916786 21234.811164557934 910.8786573112011 88554.911559462547 21739.85551969707 15983.520405247808 122073.06966991723 1453.5281984210014 106236.72794510424 187002.60662357509 41126.479740396142 86216.195953726768 1434.8041292726994 830.99272555112839 4693.0657260715961 2961.9250341355801 1396.9886629134417 4460.523720562458 34256.807194679976 250334.68171831965 11720.651646137238 1969.6443426162004 5273.1316652446985 12504.938218250871 1899.6484213918447 357.83375079929829 1541.1732093989849 5779.110008597374 6636.0782517790794 50299.301660820842 84166.367977410555 232498.91204552352 21335.56029741466 2454.4630095511675 741.40833492577076 1000.851378262043 41200.750175595284 18513.168752089143 1811.9327870756388 1348.9812891930342 17902.05105984211 46883.219890356064
leaf_count=15765 5339 88489 96113 105389 5295 62798 87214 8915 3256 57788 41530 7233 12680 82943 230147 196241 41109 18793 24363 56313 17834 11399 12090 22970 79413 30105 172335 34823 74234 84735 32331 40055 97058 33772 7019 12206 42398 34889 57639 164540 39186 49650 32073 108503 771 37504 9427 43758 131306 67659 46067 126092 65771 18678 166855 27818 70409 4330 4936 6687 6254 5323 104196 1052 1004 18420 5450 14091 51468 129081 112085 1884 26818 2794 72373 19708 20548 70211 1128 61707 41380 4447 42344 148236 45227 35369 25571 1314 50530 13755 17957 75565 3364 54870 100327 53637 95204 4560 2166 18422 4712 3625 8736 52663 198877 8769 4859 5442 19641 4221 732 5626 7741 11898 38882 33107 81201 38734 5341 1943 2557 24943 17116 6356 3121 34938 49713
internal_value=0 0.0900683 0.125835 0.129968 0.0353922 0.0949497 0.0834719 0.0475985 0.0945276 0.101078 0.138552 0.034283 0.0910432 0.0966124 0.104382 0.0963952 0.0226035 -0.00162971 0.120885 0.144843 0.0826686 0.044538 0.113084 0.0958584 0.0862501 0.0706619 0.124379 0.0455659 0.102839 0.0854285 0.101781 0.109927 0.106781 0.0903197 0.00111815 -0.0540283 0.128963 0.124405 0.112192 0.111113 0.116295 0.131824 0.123202 0.105976 0.0755365 0.0471958 0.0836592 0.0770047 0.133923 0.0833279 0.0920649 0.109461 0.052162 0.112924 0.0916064 0.149744 0.118756 0.0680968 -0.013124 -0.0206505 0.0248007 0.0923901 0.0743477 0.011235 -0.0262614 0.110065 0.0980463 0.0394901 0.135681 0.119341 0.121724 -0.0811328 0.113709 -0.020989 0.0958439 0.0895872 0.0586134 0.109779 0.0326491 0.14526 0.135986 0.0588793 0.125486 0.109759 0.074643 0.0741179 0.0994611 0.00104105 0.132246 0.118603 0.0868702 0.128541 -0.0411438 0.138938 0.13754 0.0673482 0.0893326 -0.0307215 0.0488123 -0.09362 0.0310451 0.00837304 0.0610977 0.0533676 0.116725 0.110142 -0.0443987 0.082887 0.0697875 0.0342988 -0.0601555 -0.0707363 0.100202 0.0303958 0.113342 0.147925 0.154109 0.0391685 0.0478028 0.0300771 0.0324191 0.128044 0.106232 -0.0556086 0.0332205 0.0209066 0.0935766
internal_weight=0 2.48924e+06 3.78053e+06 3.33967e+06 204022 2.28522e+06 795463 138660 440857 1.48976e+06 1.71693e+06 112992 656803 432482 1.256e+06 514681 92457.2 46568.6 1.62275e+06 887259 368958 24902.4 502042 78986.8 289722 78713.2 1.1207e+06 183181 333852 344055 287845 741317 546576 113862 11679 20841.3 586809 355822 105157 432714 423055 829667 162637 233736 98630.3 45888.6 54108.7 97152.5 667029 233758 211008 224960 139021 102464 220897 578052 194742 26714.3 8375.34 9339.8 44160 22199.7 123158 22958.1 4707.47 52272.5 27103.7 21201.9 309208 533896 231198 11501.5 76572.1 1477.76 200391 44027.2 21869.9 189709 3180.19 285120 230987 91643.4 109322 191857 40839.7 92255 79692.5 4137.39 208568 80264.3 20534.5 267954 5195.15 171987 399075 57589.8 141503 2283.39 17064.5 9218.09 6765 3803.07 84878.4 38717.3 358236 85419.1 3992.43 13223.4 53631.4 3958.4 3741.62 3383.79 127935 7467.07 133461 212524 292931 47377.5 24299.7 23077.8 22336.4 120013 25668.4 4192.92 2259.86 18250.7 52662.3
internal_count=5602372 2904522 2697850 2222761 375224 2529298 994206 235841 475089 1535092 960683 209810 758365 453964 1248371 561277 184620 106007 1262078 428617 460278 41694 434496 83808 351826 109518 827582 309344 325886 418584 298087 687094 525517 130830 24853 65880 403511 264863 92528 394687 350688 532066 119479 230753 128078 78613 67334 124513 412587 286721 242308 209451 223352 87406 251590 245363 161577 36968 21125 25249 85992 24001 166994 48107 12117 46840 28420 37885 183254 424071 178089 40631 66004 3565 212770 52039 32638 178714 6064 136344 138648 139954 82399 172599 54654 123858 83359 9730 131786 63405 25190 180954 15061 97268 231633 80755 162863 6444 28155 34187 12784 8072 127170 61399 294990 79178 11113 16841 73278 7477 11697 10965 129827 14064 113116 94814 109019 83398 40164 43234 41291 81256 26031 13043 4435 35990 57454
cat_boundaries=0 1 7 8 9 10 11 12 13 14 20 21 22 23 24 25 26 27 33 34 35 36 37 38 39 40 41 42 43 44 45 46 47 48 49 50 51 52 53 54 55 57 58 60 61 64 65 67 70 71 73 74 75 76 77 78 79 80 81 84
cat_threshold=1 1073741824 0 67108864 0 0 1048576 1 1 1 1 1 1 1 1073741824 0 67108864 0 0 1048576 1 1 1 1 1 1 1 1073741824 0 67108864 0 0 1048576 1 1 1 1 2 1 1 1 1 1 1 1 1 1 1 1 1 1 2 1 1 1 2147487744 2685414944 1 2155911168 810040 1 2149591040 2688033332 1 1 2155878400 538972702 2147518464 2151442457 2 1 2153785344 2684626492 1 1 1 1 1 1 1 1 2147487744 2150916664 3
shrinkage=0.1


Tree=4
num_leaves=128
num_cat=76
split_feature=9 22 140 9 9 22 66 19 22 119 127 66 22 140 126 22 140 127 19 127 3 11 140 140 126 140 11 140 67 22 140 7 22 140 127 22 11 69 140 126 126 22 3 140 127 140 20 3 4 127 22 140 124 97 22 17 127 11 67 63 127 11 19 140 58 22 22 4 11 3 4 126 140 126 140 11 138 9 78 127 22 22 22 9 56 17 13 22 22 66 22 127 140 0 66 7 141 141 0 97 93 140 63 13 3 26 63 42 11 112 0 9 66 127 13 4 13 9 13 7 96 13 111 11 96 127 13
split_gain=168774 50855.2 25894.8 22283.6 20658.4 13743.5 13226.3 12537.3 7824.5 6300.62 6092.94 5949.63 5799.63 5023.69 5009.46 4942.55 5531.48 5194.38 4933.67 4809.94 4586.46 4496.35 4220.76 3586.55 3513.85 3416.15 3273.29 3019.37 2876.93 2804.57 4500.65 2697.75 2546.14 5286.04 2425.91 2708.84 2365.1 2008.2 1903.72 1836.15 1762.67 1704.39 1635.08 1617.98 1602.7 1586.08 1569.91 1535.91 1374.78 1371.49 2443.92 1337.47 1322.83 1317.71 1301.51 1191.42 1056.72 1103.07 1053.16 1006.38 999.642 1259.74 1006.37 977.228 975.647 924.205 885.866 2474.97 880.63 875.049 851.175 850.316 810.788 804.647 797.439 781.131 758.042 895.184 753.981 734.252 661.635 651.91 640.583 602.305 594.434 651.052 602.793 588.413 574.416 564.877 560.847 547.726 538.57 529.246 523.867 503.968 502.482 497.888 496.57 472.981 854.688 464.531 665.213 463.561 462.093 446.228 445.913 445.702 426.077 425.623 418.615 413.831 398.748 398.679 456.814 388.068 387.19 384.777 396.475 381.902 375.1 373.006 369.549 357.309 432.941 399.29 355.316
threshold=10.500000000000002 0 9407.5000000000018 4.5000000000000009 16.500000000000004 1 2 3 4 5 6 7 8 45142.000000000007 9 10 50051.500000000007 11 12 13 391.50000000000006 73.500000000000014 4548.5000000000009 1050.5000000000002 14 8243.0000000000018 69.500000000000014 9867.5000000000018 15 16 45142.000000000007 0.55500000000000016 17 50051.500000000007 18 19 33.500000000000007 20 7893.5000000000009 21 22 23 1485.5000000000002 39744.000000000007 24 5381.5000000000009 25 191.50000000000003 88109.500000000015 26 27 318645.00000000006 28 29 30 31 32 81.727526052499329 33 34 35 80.500000000000014 36 10833.500000000002 37 38 39 8201.5000000000018 49.500000000000007 1381.5000000000002 7628.5000000000009 40 1325.5000000000002 41 1822.5000000000002 88.500000000000014 42 19.500000000000004 43 44 45 46 47 13.500000000000002 48 49 50 51 52 53 54 55 23071.000000000004 5.5000000000000009 56 0.63500000000000012 17.754561829838757 19.923482787454809 2.5000000000000004 57 58 35591.500000000007 59 60 35.500000000000007 61 62 63 100.50000000000001 64 18.500000000000004 5.5000000000000009 65 66 67 17011.500000000004 68 1.5000000000000002 69 0.54500000000000015 70 71 72 44.500000000000007 73 74 75
decision_type=2 9 2 2 2 9 1 9 9 1 1 1 9 2 1 9 2 1 9 1 2 2 2 2 1 2 2 2 1 9 2 2 9 2 1 9 2 1 2 1 1 9 2 2 1 2 1 2 2 1 9 2 1 1 9 1 1 2 1 1 1 2 9 2 9 9 9 2 2 2 2 1 2 1 2 2 1 2 1 1 9 9 9 2 1 1 9 9 9 1 9 1 2 2 1 2 2 2 2 1 1 2 1 9 2 1 1 1 2 1 2 2 1 1 9 2 9 2 9 2 1 9 1 2 1 1 9
left_child=1 3 23 6 5 10 9 8 58 37 22 31 19 42 28 16 17 -11 27 45 72 73 46 69 34 41 109 54 -10 30 40 60 33 -27 35 -20 94 52 44 -18 -24 -9 75 64 -17 108 74 126 49 50 -33 -32 98 70 106 -51 57 111 -8 -45 62 -62 87 88 99 -43 67 -29 -58 84 -44 -64 103 110 112 117 77 -47 -34 -77 -56 -54 -40 -65 85 104 -86 -5 -31 -61 -76 -60 -72 -39 -15 -23 -55 -68 -1 100 -22 123 -103 -7 -3 107 -13 120 -6 -21 -12 -25 -2 114 -74 -28 -98 118 -4 -95 -38 -70 -75 125 -125 -49 -14
right_child=4 2 13 11 12 20 7 25 14 15 21 18 47 36 -16 38 39 -19 24 26 43 95 29 56 -26 32 115 66 -30 63 51 48 78 -35 -36 -37 105 93 82 -41 -42 65 53 59 -46 76 -48 101 -50 55 -52 -53 81 96 80 -57 68 -59 91 89 61 -63 71 83 -66 -67 97 -69 121 -71 92 -73 113 122 90 79 -78 -79 -80 -81 -82 -83 -84 -85 86 -87 -88 -89 -90 -91 -92 -93 -94 119 -96 -97 116 -99 -100 -101 -102 102 -104 -105 -106 -107 -108 -109 -110 -111 -112 -113 -114 -115 -116 -117 -118 -119 -120 -121 -122 -123 -124 124 -126 -127 -128
leaf_value=0.11452197488075085 0.089728283473234693 -0.082764574254827181 -0.007587322504430419 0.10200975987163219 0.11383288375003985 -0.011325476048691489 0.075593399888085486 -0.029882104991224942 0.019197632164587409 0.0014583567197169196 0.13079774497054616 0.087562871072077386 -0.028749070759783432 0.01557935845051673 0.081679534102766002 0.069948307938967308 0.067113577092538068 0.078658017771346234 0.021288143031516341 0.1386192528375742 0.060811509932976009 0.10673454641332975 0.060574296799133447 -0.014580634345657839 0.10456871641203479 0.012848629764148224 0.12032087736236347 0.039464069493664343 -0.037114444125346625 0.11421803457564444 0.10301797573611421 0.08645750901327165 0.08937748555872102 0.078826365508271684 0.090670577583784898 0.066344111579564699 0.067306835248994404 0.10173726843808467 0.099316598657992652 0.095021692471290789 0.10545923590890589 0.070668060648549219 0.025571433760335494 0.097867130735402444 0.094180010528249522 0.1229980392926151 0.11595380283953938 0.052892579630638294 0.11634063492492459 0.10070230528126674 0.10400228949418433 0.11772871837400972 0.10512752499480452 0.072746092327630962 0.07449125028803541 0.11826223696053928 0.09265079434350644 -0.054083569515512644 0.038291890229988704 0.049836220502913073 0.11246654284310127 0.089042348685589606 0.073015536353435814 0.1140243457467453 -0.09794599680281374 0.053781634120872293 0.085974295688506175 0.095753498672946136 -0.045766807247722835 0.031174595509775478 -0.073414878903435121 0.096490148082350138 0.044068687385539117 0.13029861487290467 0.10458442929234715 -0.045150422329028148 0.11127740354924108 0.13138676052254702 0.050369908676087739 0.075728635043437076 0.01772065857117399 0.085759160468603379 0.087305816864083743 0.12047784960774299 -0.095172221322489717 -0.090734087227291926 -0.0013972729189823424 0.089402094673473279 0.1032250503116494 0.089945691972558986 0.089973936794065512 0.078392100532780312 -0.017299615273507932 0.068073700475661733 0.055455735797399146 0.11603801419032744 0.053448290768843033 0.10315167197649827 0.10229657090366939 0.076063093456718883 -0.00087551794473057656 0.11279603948201951 0.080859458298710107 -0.084631708926458979 -0.024627425580552524 0.087606860831969391 0.10865516040045012 0.046258175870746043 0.092552919558256952 0.14552814746506879 0.11904970440973635 0.021279499189491142 0.073155259399329986 0.065387879346776062 -0.04074192123224555 0.12976475717984115 -0.018217083051677824 0.057432833378161054 0.045366056539299024 0.084025284658228006 0.085892670495241671 0.023294326337429866 0.13944852979221575 0.04837133664515797 0.095531153154853249 0.14027737464235718 0.047969752826740653
leaf_weight=45031.65560489893 34352.681707680225 2315.849812194705 2081.8946828991175 62021.522652566433 85213.637965261936 2544.9281494617462 22096.874999254942 2066.4938599616289 15665.692815080285 23334.950400188565 48758.605178788304 83636.932457461953 1065.4903048276901 8504.9632097631693 6508.3007263541222 101146.90703257918 92354.173463970423 13911.834428682923 24712.551552534103 233743.66310892999 7408.6103037744761 119317.51828020811 30447.237277522683 9904.0417647063732 18668.775056377053 15264.653607085347 93633.415386795998 8954.2530427128077 21556.491397351027 100938.70332998037 167600.6882699281 105544.73354917765 143320.24450066686 59385.052324071527 15403.88412386179 29078.94339761138 28820.441174209118 12389.532223537564 73027.079981327057 31655.215571522713 12277.195833742619 60965.242225125432 3055.9837901294231 29649.965868890285 37383.26267285645 318792.32225088775 32778.504218235612 773.03498268127441 83686.953277856112 68172.932705760002 331139.98981036246 97908.34005703032 23921.837653785944 2638.6058813035488 85967.865068092942 89187.641771480441 1642.9357082247734 5914.7320389151573 19612.238128378987 8807.0010729879141 51687.52337962389 41306.974910348654 51527.191358461976 316800.16561882198 426.15837401151657 70402.09737175703 18479.486500635743 61188.444847986102 1029.1910760402679 939.95562426745892 2638.4573920816183 22026.931142002344 1275.9312682449818 117190.47362105548 53064.017518013716 1755.0224400162697 35629.660749107599 211676.47861853242 5132.6717866510153 704.11393123865128 2127.9728282541037 69718.687221497297 121193.3862131387 266087.91657909751 961.95745135843754 10222.455608695745 2337.7539177238941 98989.233209550381 97089.487850382924 5839.2728618234396 55603.272059246898 4122.1205544173717 4862.0905632972717 21180.934785678983 5377.5742748379707 113719.04852639139 1328.6836841255426 194221.45732139051 126710.53433088958 6681.0806975960732 3223.2314811497927 20384.244828477502 9590.6077027469873 1303.5654055923223 3337.4251021742821 22845.433078706264 11387.853766053915 6454.7900523394346 10576.951113313437 144162.36803130805 80253.047987222672 4767.0426228791475 25143.307807326317 1653.3776095956564 1244.8813336491585 81285.593477204442 1719.2513066828251 15524.403091654181 4407.9905951321125 51504.85906240344 17423.602582022548 3153.5974417775869 70812.534963384271 4690.8455726951361 3327.501973927021 1615.9834860265255 1369.7988196760416
leaf_count=35215 35352 8799 4590 56686 62440 6517 29008 5171 31921 48737 26562 91460 2655 17277 7841 133336 122860 16877 47860 99545 10184 98748 39940 24104 16675 30098 60890 14170 58703 75230 145994 113260 155596 70996 15969 40452 37815 11407 70681 32614 10132 81679 5679 27711 39397 197696 24195 1085 61688 62108 290521 68565 21500 3782 105940 62784 1889 18593 34640 13403 40129 43540 64591 236663 1471 107635 20395 60014 2777 1784 7954 21129 2256 62864 46166 4675 27023 112597 7576 947 3880 76004 134437 177764 3481 37809 6247 104458 84371 6450 57051 4990 11420 27623 8339 80988 2145 172922 115676 8237 6579 15305 10742 4375 8956 25571 9827 9795 10191 51349 53316 9547 30718 2412 3278 43850 3986 23303 7446 57364 19645 6340 31523 6888 3354 715 2297
internal_value=0 0.0848812 0.0328124 0.0881089 0.117904 0.111351 0.0783897 0.0644611 0.0310008 0.0857476 0.113007 0.0961545 0.127857 0.0557053 0.000738034 0.0784722 0.0640832 0.0302928 0.0878318 0.129133 0.0678424 0.12182 0.10925 -0.0312157 0.0660607 0.0728634 0.13602 0.0919337 -0.0134144 0.111707 0.103592 0.10074 0.0804355 0.0653262 0.0556808 0.0456611 0.0689625 0.0960029 0.0854409 0.0742375 0.0734723 0.0602083 0.0265881 0.0770534 0.0764874 0.123383 0.0959334 0.0915855 0.104341 0.102651 0.0997662 0.108443 0.100289 0.00199028 0.0819314 0.110655 -0.00698574 -0.0176265 0.0598699 0.0872734 0.0932882 0.102062 0.0898098 0.114907 0.0515331 0.0616231 0.0984127 0.0885551 0.0306147 -0.0630298 -0.0189142 0.0800345 -0.00329705 0.129572 0.092031 0.0429138 0.125397 0.126345 0.0880229 -0.0105396 0.0731221 0.0907275 0.0918315 0.11697 -0.0676475 -0.0756745 -0.0290279 0.0942646 0.108839 0.0658273 0.0971264 0.0452564 -0.0370392 0.0826333 0.031026 0.111275 0.0407975 0.101655 0.105502 0.0552125 0.04211 0.096258 0.102578 -0.0364052 -0.0484432 0.075934 0.0900811 0.0708737 0.111483 0.141255 0.12349 -0.00292868 0.0827244 0.0272278 0.0021989 0.124709 0.0131395 0.0488849 0.0284373 0.0793769 0.0743095 0.00624784 0.133745 0.0780559 0.067942 0.112002 0.0144826
internal_weight=0 3.02635e+06 176670 2.84968e+06 3.16773e+06 1.9102e+06 1.29056e+06 446098 89561.7 844465 1.84014e+06 1.55912e+06 1.25753e+06 130143 43730.5 494007 161256 37246.8 553828 1.21471e+06 70058 550051 1.29009e+06 46526.9 87864.2 356536 552825 465964 37222.2 1.08915e+06 308233 1.00529e+06 223103 74649.7 69195.4 53791.5 89426.8 350458 332751 124009 42724.4 133434 40716.5 62035.3 138530 661889 200942 42817.5 677732 594045 436685 265509 265383 16243.1 183121 157361 26411.5 20585.8 45831.2 44296.2 327559 92994.5 234565 780916 17739.1 131367 282844 70142.7 5825.72 20115.4 10556.5 73554.1 8022.68 317015 168163 24473.4 566098 530469 148453 2459.14 88095.8 93640.5 194220 582888 19175.4 15875.7 3299.71 161011 198028 14646.3 108667 23734.4 7500.55 85075.3 13882.5 233037 5686.54 212701 171742 17312.9 10631.8 40382.2 29974.9 3848.49 5653.27 75544.3 95024.8 52698.8 95790.6 377906 129012 14671.1 59496 4174.19 2520.81 174919 3047.93 22014.3 6489.89 72685.8 46244 4182.79 188003 10407.4 8018.35 2389.02 2435.29
internal_count=5602372 3414735 324695 3090040 2187637 1479015 1569582 625854 167103 943728 1386142 1520458 708622 194369 98465 598939 221088 65614 599564 665581 92873 354001 1032141 130326 120956 458751 255634 478608 90624 838659 264631 920894 264266 101094 104281 88312 118442 344789 377851 155474 50072 194485 75927 74035 172733 409947 193482 43041 590361 528673 403781 214559 248395 34966 211107 124892 63250 52244 68638 47564 330533 83669 246864 574028 26471 189314 267501 74184 11006 67076 25053 85720 18838 174265 169287 40961 337316 310293 163172 5622 109820 97504 205118 414427 65292 55564 9728 161144 159601 19853 103217 39630 19374 96394 25616 179736 9913 193317 150891 25000 16763 38089 26047 10892 17755 92826 101287 67255 72631 150894 79878 33651 66070 7946 5534 104740 6131 35339 12036 84987 57460 9117 94387 12042 10242 1800 4952
cat_boundaries=0 1 2 3 15 16 17 18 19 20 21 22 23 29 30 31 32 33 34 35 36 37 38 39 40 41 42 43 44 45 46 47 48 49 50 51 52 58 59 60 61 62 63 64 65 66 67 68 69 70 71 74 75 76 77 78 79 80 81 82 83 86 87 88 89 90 91 92 94 97 99 100 103 104 105 106 109
cat_threshold=58 58 1 0 0 0 0 0 0 0 0 0 0 0 8192 24 1 1 1 58 1 2 1 1073741824 0 67108864 0 0 1048576 1 1 1 2 2 1 2 1 1 1 2 1 1 1 2 1 1 48 2 1 1 1 1 1073741824 0 0 0 0 1048576 1 48 2 1 1 2 1 1 8 48 48 1 2 2149629952 538972180 1 48 48 1 48 1 1 1 1 1 4241408 538185779 1 1 1 1 1 1 1 12597248 2385949 2157998080 2151695915 1 2149640192 3226758144 1 14336 281104 1 1 1 1 8394752 2104378 1
shrinkage=0.1


Tree=5
num_leaves=128
num_cat=94
split_feature=6 138 22 6 119 126 22 140 6 22 5 138 124 17 126 11 21 6 134 21 6 17 36 66 22 124 44 124 124 134 66 6 11 21 126 18 1 123 22 140 21 126 21 44 6 6 1 22 3 6 22 126 1 22 21 2 97 37 124 119 69 63 141 66 22 17 96 22 4 7 17 1 66 22 21 21 69 22 21 13 3 36 6 44 126 124 122 6 21 119 1 13 21 12 126 67 66 17 11 21 58 21 4 36 124 17 13 124 44 22 126 13 21 124 1 126 44 6 67 5 22 13 21 21 22 4 21
split_gain=116351 58803.4 36495.8 18052.7 13881.4 13356.5 13315.4 12556.6 9159.88 8223.31 11969.2 7218.33 6938.93 7056.44 6102.29 5079.71 4613.18 4132.01 4059.89 3858.9 3634.95 3545.68 4780.76 3363.64 2978.02 2934.94 2492.39 2212.67 2156.56 2137.53 2070.82 1967.56 1949.78 1794 1776.2 1753.73 1732.38 1444.56 1235.39 1968.33 1233.33 1210.97 1186.17 1165.22 1101.6 1043.13 990.06 1067.06 980.587 979.517 926.814 926.444 893.156 1112.38 857.94 850.944 1219.69 827.858 816.75 810.063 798.823 778.106 776.718 775.166 760.249 734.795 729.936 865.273 2681.25 710.903 709.346 678.605 688.575 667.439 667.25 664.806 660.977 650.074 638.005 630.658 592.298 589.051 585.556 571.277 546.208 545.805 534.859 523.597 507.737 505.593 501.536 497.915 480.682 479.501 470.852 467.919 462.105 458.096 446.86 442.068 436.032 433.702 433.44 429.637 549.601 419.622 414.073 379.891 372.734 372.023 370.902 369.862 367.694 360.878 359.929 350.192 346.785 344.444 338.126 336.267 330.345 328.949 328.794 324.184 322.341 315.128 315.128
threshold=0.10500000000000002 0 1 0.14323332821008397 2 3 4 37444.000000000007 0.045000000000000005 5 568.50000000000011 6 7 8 9 78.500000000000014 10 0.15500000000000003 11 12 0.075000000000000025 13 14 15 16 17 18 19 20 21 22 0.075000000000000025 80.500000000000014 23 24 25 1322272.0000000002 26 27 56511.500000000007 28 29 30 31 0.17500000000000002 0.15500000000000003 1146330.0000000002 32 35.500000000000007 0.19500000000000003 33 34 751172.50000000012 35 36 15.500000000000002 37 38 39 40 41 42 29.479612747075439 43 44 45 46 47 4785.5000000000009 0.65500000000000014 48 1322272.0000000002 49 50 51 52 53 54 55 56 809.50000000000011 57 0.14323332821008397 58 59 60 61 0.17500000000000002 62 63 1669208.0000000002 64 65 66 67 68 69 70 183.50000000000003 71 72 73 152.50000000000003 74 75 76 77 78 79 80 81 82 83 84 1603772.0000000002 85 86 0.065000000000000016 87 15216.500000000002 88 89 90 91 92 938.50000000000011 93
decision_type=2 1 9 2 1 1 9 2 2 9 2 1 1 1 1 2 1 2 1 1 2 1 1 1 9 1 1 1 1 1 1 2 2 1 1 1 2 1 9 2 1 1 1 1 2 2 2 9 2 2 9 1 2 9 1 2 1 1 1 1 1 1 2 1 9 1 1 9 2 2 1 2 1 9 1 1 1 9 1 9 2 1 2 1 1 1 1 2 1 1 2 9 1 1 1 1 1 1 2 1 9 1 2 1 1 1 9 1 1 9 1 9 1 1 2 1 1 2 1 2 9 9 1 1 9 2 1
left_child=2 3 11 16 26 9 7 14 34 19 25 20 23 -14 27 28 71 46 51 44 54 33 -23 -12 55 37 38 96 42 83 60 80 86 -20 48 -29 99 -11 45 41 87 58 -7 62 59 126 -8 88 109 75 92 65 -33 116 63 56 69 -27 -40 -5 85 74 -21 102 -36 -9 67 123 -69 -18 106 120 113 82 -32 93 -45 -74 -41 -50 110 -44 -42 -10 -49 -26 -16 -28 -48 -56 -68 -82 -38 -19 121 -77 -6 100 -65 -22 -81 -55 115 104 -75 -43 -31 -99 -46 -4 -13 -66 -52 -73 -30 -1 -54 -93 -94 -80 -2 -72 -116 -17 -92 -111 -3
right_child=1 4 8 5 6 15 17 18 29 10 12 31 13 -15 32 66 24 49 21 43 36 22 -24 -25 30 57 40 35 114 70 61 52 -34 -35 64 -37 50 -39 39 78 73 105 81 76 108 -47 47 84 79 -51 112 -53 53 101 89 -57 -58 -59 -60 -61 -62 -63 -64 98 111 -67 90 68 -70 -71 94 72 77 103 -76 95 -78 -79 119 97 91 -83 -84 -85 -86 -87 -88 -89 -90 -91 124 117 118 -95 -96 -97 -98 107 -100 -101 -102 -103 -104 -105 -106 -107 -108 -109 -110 125 -112 -113 -114 -115 122 -117 -118 -119 -120 -121 -122 -123 -124 -125 -126 -127 -128
leaf_value=0.075916581154754248 0.11312106253206765 0.087216872204787355 -0.09938920115892956 0.11241375157644291 0.061956672194952295 0.131572295627682 0.088143934501425325 0.086426625780416433 0.022796789583221955 0.041199597114315062 0.11019769762671672 0.040489021177061345 0.097795840679429202 0.063782647470811762 0.098657567794122158 0.099459996579497431 -0.0030603860342455044 0.084552974111479939 0.079489459995310818 0.091818933203833969 0.10427733104680131 0.014225193527300917 0.075147550798085105 0.091667733521804531 0.10110355769297752 0.0024966418641344471 0.099937477885975956 -0.031074014219852727 0.12215701583406996 0.02298731811024533 0.064015945556704326 0.072705488323612247 0.015022328067884533 0.054028494359332907 -0.031784730796952369 0.011657411482622814 0.075524821752452481 0.089870180299147354 0.063885958421222092 0.061899286879856935 0.083778496246705247 0.029027730545833047 0.11446283893135617 0.10932507942973786 0.11348116115261689 0.098411657063118468 0.084619479127511679 0.05917205523286645 -0.074900637489931685 0.10323722761733396 0.087465805828854992 0.10277083294260812 0.032707217758666425 0.045589354833394609 0.05595193782669633 0.071001350672926108 0.080825135546198953 0.044755459193817571 0.012188733472076723 0.1037799243421212 0.087542404619544711 0.099093764064860784 0.10217800554255257 0.059017546115139666 0.053148894871935783 0.061364167246191439 0.12057323047774204 0.035159010036669179 0.10133718485733711 0.066195418674992373 -0.11592387919859214 0.10700124817803902 0.095206905473276801 0.086137140087029579 0.081748041225734216 0.095015697292027593 0.09974714612364205 0.065029390580096144 0.081405736564008541 -0.00041639676734016914 0.035407675761503027 0.12436955881328766 0.10374045369105236 0.046573246739339026 0.078781801206840432 0.091027933482687062 0.03688683330047994 0.1123477782555771 0.06874948914737472 0.037773256800566417 0.11103399107555545 7.5657132959705133e-05 0.066570976244781449 0.063220652382130926 0.023896844225455804 0.081990792278324356 0.01517088018529319 -0.012520971752709437 0.028820996993141314 0.085928439649268606 -0.068590442327258347 0.066992951461802328 0.067291257171603489 0.09759910956290041 0.062885234898221662 0.096102255442746809 -0.014665685026172307 -0.061948325513796657 0.12027411543464975 -0.022543434916170842 0.074601827799058995 -0.014563686860955423 0.074937229417159287 0.09765680395828838 0.11442201271799241 0.11071893332675549 0.052786306185860325 0.027517360730863073 0.052135629857307769 0.097637825879381496 0.089635208360344665 -0.043433939005080836 0.10068316002830198 0.11236221849669979 0.089860378596553936 -0.080867796673789988 0.072369092212383163
leaf_weight=7147.224610209465 58781.100105330348 32581.677372559905 5305.2630704939365 331660.94348540902 5164.9953636825085 209553.15749542415 31853.701959460974 33663.588098987937 23619.32337333262 10866.570926934481 367656.95651242137 18891.727309763432 164167.45011392236 97053.624385535717 10015.395352602005 26873.171384930611 5477.5998987108469 30184.354130297899 55993.787938833237 132676.14299412072 18091.783436536789 36011.756128937006 20053.730508223176 133546.08645689487 143651.19615399837 13253.6288228333 85308.777061119676 22476.7021073699 17678.894792243838 5217.7757532894611 24583.734030172229 22480.114410758018 4937.2021506726742 55239.309174358845 3841.6946529448032 16770.363967105746 33574.061794355512 13897.176475778222 4673.7517914623022 12139.388462215662 20027.958235874772 1146.2234100699425 82714.98339356482 218581.01896052063 152135.47323541343 70417.12148630619 46241.855214580894 87986.514465883374 4486.173078969121 50955.014581635594 35735.189647614956 20674.691200688481 29788.662122279406 13443.51597507298 39669.982981279492 37971.230828493834 4655.6689623445272 7129.4545824676752 8828.993021696806 161629.38063487411 130844.93390277028 22803.416347771883 159268.23500320315 24221.243548959494 2528.3078514188528 17928.338195443153 56878.773723766208 6631.8973223268986 79658.912464544177 2032.006634324789 875.06162291765213 102152.74969649315 98247.903560802341 39892.346091136336 179085.63086333871 93331.487461090088 107480.55788993835 7908.6971627771854 33790.937951236963 5378.9030570834875 25358.499363049865 218745.44685167074 55183.513187304139 17661.91895981133 16938.600790724158 85922.48964625597 1629.8777627646923 56520.154708787799 37254.482406646013 24904.282379552722 35074.66446095705 9182.0449630618095 40324.618187472224 16187.853263437748 757.62260262668133 39152.131595924497 3570.5195229947567 2150.2943117767572 6143.7453082203865 54944.196042269468 1136.366617038846 33863.713825419545 28081.634111195803 19348.012740731239 13641.793866574764 5006.9212244898081 6608.1787832528353 5616.6094580292702 172210.78321641684 1516.8555956035852 3834.1937232464552 1181.8522008955479 75108.620312899351 69411.043982565403 31508.213948115706 4855.4500000476837 12093.459457993507 9114.2245375812054 27152.602411687374 20508.226312682033 7212.4936653673649 2319.6402388513088 45470.406528070569 94201.667892381549 9847.0491349548101 2379.7277433872223 27376.182808682323
leaf_count=8132 41228 33134 21665 225248 6876 92488 33091 34642 43185 15825 254316 30753 142015 124865 9079 22013 11123 31818 62798 121769 14858 69012 24307 122935 114314 26011 73231 56588 10618 9958 30295 27297 9167 75782 10821 33072 37862 12910 6076 15391 20783 1878 51021 155188 103140 62223 48920 117938 15202 43845 35359 16878 49378 20111 54905 45490 5291 10826 16930 127069 126164 19651 127256 32824 4603 24297 34161 9784 62581 2503 3155 74874 88077 39522 186850 87192 88392 9934 36549 12891 42269 112178 45341 27016 18927 79900 2543 41141 45672 39721 24526 18343 48883 20375 1431 42188 7170 5700 10329 55681 3678 42987 34312 16991 17013 4425 15052 18905 101980 4700 4777 2998 84410 59474 21325 3727 17176 16025 37641 17992 6976 6561 37167 64012 8908 8993 32141
internal_value=0 0.0982067 0.0546143 0.103966 0.0792975 0.107647 0.070699 0.0545274 -0.00381413 0.103494 0.0954095 0.063659 0.0983731 0.0851586 0.0153894 0.11783 0.0921149 0.0816233 0.0650777 0.10804 0.0708138 0.0565218 0.0360161 0.10526 0.0870659 0.0453811 0.092104 -0.00268365 0.123154 0.0210035 0.0890682 0.0467869 0.0676849 0.0668573 -0.0436801 -0.0128148 0.0772183 0.0685131 0.0839849 0.0746285 0.0981661 0.0468384 0.125722 0.102057 0.11256 0.0901509 0.0718385 0.0690819 -0.0552993 0.0910058 0.0726405 0.0848849 0.0548918 0.0504019 0.0572989 0.0636146 0.0406108 0.0172776 0.0300829 0.109585 0.0937784 0.0815762 0.0974703 0.0649507 -0.000645482 0.0777174 0.107401 0.103996 0.0962399 0.0156794 -0.0103033 0.101467 0.0993039 0.091727 0.0796149 0.0875211 0.106168 0.0929738 0.0828614 -0.0421888 0.0331524 0.121647 0.0984117 0.0329694 0.0623318 0.0973326 0.0900121 0.104876 0.0775477 0.0489334 0.114335 0.026337 0.0656681 0.0770896 -0.0469801 0.0911596 0.0428336 -0.0318389 0.0529079 0.0904997 -0.012307 0.0609215 0.0740896 0.0848161 0.080212 0.0836074 0.00195438 -0.0482642 0.117088 -0.0820399 0.0462443 0.0315982 0.0789839 0.103221 0.10929 0.0899952 0.0384959 0.0137381 0.0607532 0.0875203 0.110585 -0.0637885 0.106335 0.109507 0.106437 -0.0580145 0.0804641
internal_weight=0 5.3994e+06 690586 4.13879e+06 1.26061e+06 3.15805e+06 754216 304130 92581.6 2.24321e+06 807571 598005 762424 261221 64565.1 914837 980742 450086 239565 1.43564e+06 419955 167299 56065.5 501203 637028 45146.8 506392 47982.6 605671 57059.5 586891 178050 16582.5 111233 35522 39247.1 284931 24763.7 216469 86094.4 289923 19655.9 511014 618006 817637 130375 220275 188421 27970.2 229811 211895 72266.6 111669 89189.4 135024 50136.5 12165.3 20383.1 13502.7 493290 360419 226473 291944 70449.3 7551.85 51591.9 309166 207366 86290.8 7509.61 15778.3 343714 277720 148094 203669 178856 326062 106157 66438.6 18768.3 66380.7 301460 75211.5 41281.2 104925 229574 11645.3 141829 83496.3 64574.3 101800 43654.8 101051 46372.2 3952.32 132484 8735.51 14282.2 30365 73036 6515.27 47307.2 40084.3 72882.2 53534.1 6153.14 11826 7766.9 324346 9201.85 22725.9 3710.16 110844 171564 94657.5 12002.7 41882.1 18296.3 67477.2 54299.2 65993.6 3194.7 76978.6 121075 44921.7 3896.58 59957.9
internal_count=5599883 4615609 984274 3212671 1402938 2310527 922177 432211 216514 1759745 709703 767760 644131 266880 124495 550782 902144 489966 307716 1050042 498644 231899 93319 377251 621581 65572 480761 103706 324797 106358 557174 269116 20789 138580 110156 89660 314694 28735 226739 99241 254022 29309 255687 492605 557437 127498 264548 231457 91734 225418 244155 75817 156949 129652 183950 64407 18917 36837 23006 352317 320378 236796 249025 89324 18422 58939 225985 158390 72365 13626 36157 280563 232359 139650 217145 181573 243580 98011 69932 56376 112167 163199 66124 70201 136865 194214 11622 114372 94592 94626 67595 76637 124386 52193 11147 129380 14046 41174 43153 70539 16569 63098 46171 73526 56535 6303 25010 24605 205120 35358 35530 7601 119769 134348 69110 11859 66554 34368 86524 54541 48204 9716 58492 86025 33434 13693 65275
cat_boundaries=0 1 2 3 4 5 6 7 8 9 10 11 12 13 14 15 16 17 18 19 20 21 22 23 24 25 26 27 28 29 30 31 32 33 34 35 36 37 38 39 40 41 42 43 44 45 46 47 48 49 50 51 52 53 54 55 56 59 60 61 62 63 64 65 66 68 69 70 71 72 73 74 75 76 77 78 79 80 83 84 85 86 87 90 91 92 93 94 95 96 99 100 101 102 103
cat_threshold=2 1080 1 1 2050 56 2 1 2 1 5 2 13 2 1 1 2048 1 2 1 1 2 1 60 1 2 1 56 60 1 12 2 48 8 1 8 15 1 1 1 1 1 1 1 2050 2 1 56 2 1 56 192 194 1 56 2 2097152 2686452228 2 1 2 1 1 1 13 1 6318080 2687764025 5 1 1 1 1 2 1 1 162 1 1 2 2155892736 1610641968 1 1 2 2048 1 2107392 2686202405 2 5 1 1 2 1 56 8388608 2151420932 1 12 194 56 13
shrinkage=0.1


Tree=6
num_leaves=128
num_cat=65
split_feature=9 22 9 9 3 66 19 22 10 22 36 44 11 66 22 4 127 66 1 4 63 67 22 127 11 63 3 7 17 127 64 17 10 7 127 36 36 22 22 7 36 4 11 17 10 22 4 3 22 11 67 4 22 3 17 11 4 9 141 0 4 0 36 22 19 9 4 1 8 7 7 7 46 0 20 22 7 127 141 4 22 127 11 22 4 127 4 7 112 141 20 7 7 3 22 13 10 22 1 63 121 4 3 134 97 3 17 97 22 22 66 4 97 121 13 4 83 9 19 22 1 4 22 3 13 7 8
split_gain=146875 35698.8 19976.8 18075.1 17583.2 11707 12320.5 8592.51 6922.61 5828.57 5573.26 4816.88 4706.02 4606.59 4112.22 4585.75 5020.03 3438.56 3204.89 3316.71 2804.37 2788.18 2722.7 2698.42 2713.82 2694.84 2632.78 2458.86 2339.8 2311.2 1996.66 1880.04 2807.95 1866.44 1830.56 1754.37 1741.64 1709.11 1657.83 1649.01 1504.68 1476.3 1424.82 1404.83 2856.11 1395.43 1350.27 1232.81 1108.16 1103.61 1022.17 983.73 972.061 950.342 912.632 909.421 898.268 893.546 878.537 866.152 1121.8 833.003 904.981 1142.61 837.505 815.576 788.365 785.833 776.596 745.771 734.433 713.928 688.437 687.448 675.69 657.19 653.858 602.041 595.741 593.36 638.003 588.352 814.693 640.242 674.481 536.762 527.606 517.362 511.475 510.849 507.761 507.117 500.075 490.135 515.762 475.802 470.281 464.248 483.201 457.798 451.98 450.649 449.609 440.149 437.382 437.29 418.33 406.721 399.352 398.238 387.443 383.445 383.011 369.757 495.036 369.249 366.271 365.186 348.254 347.46 347.276 341.481 377.537 340.407 333.275 332.03 323.552
threshold=10.500000000000002 0 15.500000000000002 6.5000000000000009 469.50000000000006 1 2 3 2.5000000000000004 4 5 6 69.500000000000014 7 8 14266.000000000002 9 10 119303.00000000001 19987.500000000004 11 12 13 14 73.500000000000014 15 391.50000000000006 0.6150000000000001 16 17 18 19 2.5000000000000004 0.54500000000000015 20 21 22 23 24 0.56500000000000006 25 9329.0000000000018 84.500000000000014 26 1.0000000180025095e-35 27 3339.5000000000005 35.500000000000007 28 34.500000000000007 29 974.50000000000011 30 2774.5000000000005 31 39.500000000000007 1244.5000000000002 19.500000000000004 17.54373567608862 2.5000000000000004 17011.500000000004 6.5000000000000009 32 33 34 17.500000000000004 16418.500000000004 119303.00000000001 110637.00000000001 0.63500000000000012 0.60500000000000009 0.56500000000000006 35 3.5000000000000004 36 37 0.53500000000000014 38 17.54373567608862 88109.500000000015 39 40 80.500000000000014 41 15033.500000000002 42 14266.000000000002 0.39500000000000007 43 38.383948945426631 44 0.34500000000000003 0.30500000000000005 8662.5000000000018 45 46 2.5000000000000004 47 1580392.5000000002 48 49 18988.000000000004 901.50000000000011 50 51 4094.5000000000005 52 53 54 55 56 627.50000000000011 57 58 59 4497.5000000000009 60 12.500000000000002 61 62 3056269.0000000005 17537.000000000004 63 7261.5000000000009 64 0.37500000000000006 61634.000000000007
decision_type=2 9 2 2 2 1 9 9 2 9 1 1 2 1 9 2 1 1 2 2 1 1 9 1 2 1 2 2 1 1 1 1 2 2 1 1 1 9 9 2 1 2 2 1 2 9 2 2 9 2 1 2 9 2 1 2 2 2 2 2 2 2 1 9 9 2 2 2 2 2 2 2 1 2 1 9 2 1 2 2 9 1 2 9 2 1 2 2 1 2 1 2 2 2 9 9 2 9 2 1 1 2 2 1 1 2 1 1 9 9 1 2 1 1 9 2 1 2 9 9 2 2 9 2 9 2 2
left_child=1 3 7 5 25 11 9 13 22 50 21 14 45 23 15 16 -1 39 53 70 27 -11 42 43 88 34 77 48 51 37 59 56 36 49 47 -17 52 40 66 81 -30 -29 65 71 75 -10 -24 -3 -8 -16 -7 74 -33 87 -49 68 90 85 107 119 -61 -41 63 -63 -64 97 108 -28 100 105 93 104 -56 -35 -19 -45 -39 106 112 80 -32 83 -83 84 -5 -47 -12 -6 -25 118 111 -52 -85 94 -20 -70 -46 98 -4 -60 -21 -40 -22 -67 -2 120 -9 -53 115 -89 -27 -15 -58 114 -108 -14 123 -73 -36 -13 -69 -48 -123 -55 -79 -44 -107
right_child=2 4 8 17 18 6 20 26 12 10 86 30 38 31 33 35 -18 28 19 55 102 -23 46 24 -26 110 67 41 29 -31 79 32 -34 73 89 -37 -38 76 101 61 -42 -43 125 44 96 57 121 54 -50 -51 91 58 -54 116 72 -57 78 -59 99 60 -62 62 64 -65 -66 103 -68 69 95 -71 -72 117 -74 -75 -76 -77 -78 124 -80 -81 -82 82 -84 92 -86 -87 -88 109 -90 -91 -92 -93 -94 -95 -96 -97 -98 -99 -100 -101 -102 -103 -104 -105 -106 126 113 -109 -110 -111 -112 -113 -114 -115 -116 -117 -118 -119 -120 -121 -122 122 -124 -125 -126 -127 -128
leaf_value=0.0047000288484876553 0.086092716228504743 -0.090314306631911576 0.10258847888317497 0.04272563810142907 0.011531446421593565 0.060560737305530854 0.060322361181542543 0.011254617350034678 0.049088005306368483 0.011621392004670942 0.029494386530221614 0.087558996679866566 0.070731440783983746 0.066984064061960155 0.081358466091025455 0.056054403254500701 0.068278034027813378 0.063136779064028439 -0.015578252629994176 0.01974120267219474 0.064762866673499203 -0.043019746227846843 -0.012151041019088824 0.10900772104954203 0.094805552746591637 0.0020374522030732847 0.079896792129357463 0.058857539534133009 0.0083486128948364272 0.086939528383822171 0.05498384593973691 0.060049917560184352 0.094194136353005609 0.095224911208447616 -0.051881767613524143 0.078419596152176557 0.085887837554302071 0.047720390960603432 0.065357531967291438 0.10073968982284065 0.06481988864142274 0.075129080844542978 0.06602110795634486 0.083263770727268649 0.087742716332985846 0.11111128445889351 0.055258627250413431 -0.015994273766204114 0.043631141417702177 0.059566968761190824 0.012093661524849135 0.04528217104504477 0.025782961901956409 0.065602533419499592 -0.074134634407834729 0.058033387692701589 0.060783477019925918 0.1277452264510387 0.081242283084904957 0.074092148577975303 0.088711856498029526 0.073374035558381262 0.0998566752026111 0.088546796560008925 0.084084148997683988 0.10858486768269374 0.11402711463466733 0.028829053066116418 -0.15715752912837694 0.075109979846033445 0.027086847216615136 0.096325009264533093 -0.022748498875122106 0.07563926548689226 0.089608392009971088 0.058142104109552256 0.076585376507196476 -0.030237270321102263 0.093517716545156712 0.088402241753868183 0.072275046224516665 0.097001604989484791 0.075531614390880658 0.065741662653008834 0.073325892583894728 0.12147019802052948 0.066667632379079897 -0.021439522351119428 0.11920365163433431 0.042305946721875369 0.09774260647511876 0.041706275941477217 0.082226442631522956 0.034383024445851625 0.024706193978384965 -0.012133475885841407 0.10052759897970175 0.10274156423476877 0.08562129263614672 0.094081441060259771 0.058493437829368555 0.093530501487541703 0.086299491359596747 0.097360392905019688 0.096624446984012458 0.064092315568991282 -0.11756863431904825 0.074203362238640366 0.1053177583256501 0.056626993512590512 0.064421993398420738 0.082339569965784232 0.087304619492577548 -0.083421843367784243 0.03433125593766017 0.099852945400776549 0.11754946422396587 0.10280603421088802 0.0034862958912776978 0.10260182266176848 -0.059451255817356885 0.062664256125926771 0.096625189834656094 0.092301082018607594 0.054570207242046614 0.089066121394938663 0.033162195789860072
leaf_weight=31821.369146957994 72161.57931765914 6936.1438103914261 29689.383018612862 10038.143358290195 3301.5585587620735 27616.678797438741 62153.012098401785 2007.9262761175632 2636.2162661701441 16273.923453658819 6576.6197119504213 30542.831889003515 6820.5912005007267 24231.710624828935 28283.10943543911 101515.01783300936 20368.573938041925 55598.348045855761 16309.019776672125 6914.2606426179409 12204.131164237857 21913.140804052353 1926.5363585203886 135129.0550852865 140451.20756825805 1562.7839827239513 19386.396329194307 140550.76879674196 14904.128302291036 21001.575647696853 29247.090443626046 18437.589219912887 35738.901295408607 19178.605234563351 1698.4885250627995 53587.756239041686 14726.140765920281 15113.623533144593 10863.407009616494 61096.088013902307 6904.0132173299789 92427.238851338625 9040.918152987957 15596.12655980885 49403.40695053339 66137.371370494366 5928.6785808503628 8325.2233262360096 111814.4748621881 130346.52414610982 7888.1557711809874 8990.4036592245102 15119.313854217529 18914.073935851455 8720.378122523427 32444.267956346273 9120.9968309700489 200773.89454747736 208674.14132489264 92926.618256017566 120602.25159227848 67170.060819417238 99201.781243115664 199490.51708579063 52605.940493240952 345173.43548901379 127948.23623283207 6316.322488963604 256.02487355470657 11516.280876338482 13797.246835723519 156750.09562326968 3719.1126334071159 273311.51037627459 11665.599555939436 32579.154800325632 16323.632479831576 585.03806096315384 265677.62603731453 15944.65844386816 83201.282436713576 40015.827316477895 31654.81024107337 21612.682300329208 25504.274611607194 205275.45131637156 9102.8388531953096 675.48153123259544 77371.750542938709 2231.1395797878504 14531.422900214791 21669.539341494441 123880.02877828479 3198.993370860815 3937.9309557974339 1551.0333037376404 68894.463849753141 199021.62336270511 38614.88458712399 32035.042816877365 5329.6730749756098 11894.124248713255 47119.250412002206 38869.594089493155 86944.638703420758 9629.7655291259289 281.6912577599287 10590.598103299737 121976.27284361422 20256.98991240561 2742.6730685085058 49444.614818617702 13512.505160599947 1426.9592512995005 801.65020672976971 12039.859871417284 1928.9435263574123 195220.39581170678 3393.3625030368567 34300.721489608288 479.42422151565552 5479.5896182507277 8887.5221433788538 6388.588414222002 2161.9111531227827 20267.876893743873 5212.8567204475403
leaf_count=61873 65174 29365 20957 14190 6536 36314 80081 4526 3681 32976 11723 28395 7009 27913 28986 131462 23932 68284 37368 13250 15609 60654 4424 83930 112644 3351 20077 181481 29237 19611 38412 22302 28943 16429 5077 56659 13866 21527 13185 46956 8739 100164 10057 14801 43890 39419 7673 20898 165165 165857 14988 12509 23843 23091 30538 41877 10695 79319 205630 101275 110857 70697 75785 176783 49107 218167 72160 10278 944 12088 23684 122982 10978 292271 10588 39740 18027 1469 216515 14576 92104 31485 33448 25391 27856 95602 11836 1533 39431 4130 11388 33905 122216 5459 7213 3409 51180 139624 34136 27021 7841 9674 46535 29747 70493 12197 1074 11817 82172 28811 4220 47376 12446 4834 1768 8717 1233 139263 8154 26365 1506 6685 7174 5874 3547 17382 8118
internal_value=0 0.0698408 0.10121 0.0725983 0.0259675 0.0658943 0.0544265 0.0932937 0.109566 0.0244834 0.000877302 0.0721096 0.116139 0.0947849 0.066824 0.0551511 0.0295131 0.0823086 0.0430878 0.0310178 0.0615555 -0.0197337 0.102398 0.0985013 0.105591 -0.032881 0.056092 0.0585958 0.074875 0.0588467 0.0806652 0.086471 0.0729458 0.072185 -0.0420587 0.0637815 0.0572178 0.0477661 0.106139 0.0863874 0.0262142 0.0653128 0.103525 0.094808 0.0868297 0.12228 0.0678259 -0.0538133 0.0496004 0.0634523 0.0467197 0.0785081 0.0446363 0.0627266 -0.0416207 0.0488297 0.0894893 0.122685 0.081294 0.0854233 0.0823494 0.0898322 0.0882397 0.0847309 0.0944031 0.104497 0.108341 0.0639034 0.027578 0.0545517 0.00878097 0.0974068 -0.0587714 0.0769235 0.0677278 0.0663043 0.0626884 -0.000322165 0.0921909 0.0703489 0.067789 0.0798502 0.0875189 0.0768142 0.0646654 0.118946 0.0510756 0.0483219 0.11272 0.0024056 0.0806587 0.0338035 0.0797722 -0.00199149 -0.00773862 -0.0336174 0.0951884 0.100255 0.0929827 0.082951 0.0366097 0.0800468 0.0818689 0.107449 0.0918478 0.0436103 -0.0227678 0.0609245 0.103183 0.0541246 0.0417778 0.0772892 0.076617 -0.0499814 -0.00593421 0.0892743 0.0755457 0.0999197 -0.0150779 0.0955456 0.0226011 0.0754509 0.0837834 0.0723436 0.0365967 0.0819574 0.0532294
internal_weight=0 2.95109e+06 3.02011e+06 2.77656e+06 174533 1.64249e+06 577310 1.55085e+06 1.46927e+06 111041 53866.5 1.06518e+06 766365 1.49104e+06 658412 207293 52189.9 1.13407e+06 135204 83738.5 466269 38187.1 702900 1.0305e+06 352952 39329.3 59806.2 406945 401801 74247 406765 460541 84021.9 451120 35023.8 155103 48283 53245.4 291542 732270 21808.1 232978 680678 677550 166473 474823 22222.3 27700.9 173967 158630 57174.4 327554 33556.9 51465.6 20764.7 46495.3 376519 472187 260290 278372 213529 479564 418468 266661 151808 651369 268785 52541 14051 33154.6 37243.2 511077 12439.5 292490 67263.9 48175.3 31437.3 7265.18 288311 128393 112448 252706 71670.6 181035 35542.4 271413 15679.5 24234 212501 7322.99 88207.7 29557.7 145493 23445.9 20247 1807.06 118298 267326 68304.3 240709 12243.9 22757.5 59323.4 384043 159106 21638.4 4518.23 19581 140837 20932.5 4305.46 73676.3 22633.5 2510.3 1083.34 18860.5 27231.6 351970 5091.85 64843.6 6795.75 20295.8 14367.1 25302.7 2746.95 29308.8 14842.6
internal_count=5599883 3412622 2187261 3087788 324834 1980884 791431 1280297 906964 202396 117189 1189453 410938 1198815 777469 273926 85805 1106904 208123 141045 589035 93630 496026 783528 236005 116711 81482 526891 432990 97141 411984 415287 88954 503543 109140 188121 60011 77530 192917 673914 37976 281645 470070 547523 149611 218021 25956 91779 245246 194843 85207 335849 46145 67078 62414 67321 326333 214340 256977 266892 212132 419328 372372 247480 124892 442631 170058 64264 25444 44187 73724 397912 41516 308700 78872 54541 39554 17218 239656 145092 130516 254586 64933 189653 42046 135021 23559 36880 123361 17361 86677 48893 147607 50040 44581 4353 95070 194717 55093 232651 21091 22859 62144 247914 135667 32099 12202 24326 97898 30344 7571 75289 23141 7676 2842 15726 30198 262245 13231 54760 11784 21532 13859 28965 5016 27439 20315
cat_boundaries=0 1 2 14 15 16 17 18 19 20 21 22 23 24 25 26 27 28 29 30 31 32 33 34 35 36 37 38 39 40 41 42 43 44 45 77 78 79 80 81 82 83 84 85 86 87 88 91 92 93 94 95 96 97 98 99 100 101 102 103 106 107 113 114 115 117
cat_threshold=58 1 0 0 0 0 0 0 0 0 0 0 0 8192 58 24 1 2 1 2 1 1 1 1 58 1 1 2 1 1 2 1 1 1 2 58 1 2 1152 48 1 24 2 1 2 1073741824 0 0 0 0 0 0 0 0 0 0 8192 0 0 0 0 0 0 0 0 0 0 0 0 0 0 0 0 0 0 0 128 1 1 8 1 2 1 2 1 1 1 2048 12619776 1073767449 1 2 1 1 2 1 2 1 2 1024 1 1 1 2048 12290 2 1 0 0 67108864 0 0 1048576 2 1024 2149588992 2632208
shrinkage=0.1


Tree=7
num_leaves=128
num_cat=58
split_feature=9 6 6 22 140 22 126 125 6 125 140 124 22 11 6 22 9 9 6 5 6 126 1 9 21 6 6 21 21 1 21 19 0 6 21 21 18 141 11 126 9 9 126 9 11 95 0 5 10 9 0 63 9 67 19 0 140 1 11 22 10 6 1 21 33 66 6 6 134 140 9 22 12 1 9 9 11 46 0 21 22 141 3 13 0 10 11 96 21 126 4 8 122 126 141 13 10 9 13 11 141 6 100 56 5 13 21 13 13 112 140 93 122 21 119 141 96 141 97 93 0 21 13 4 122 3 8
